<?xml version="1.0"?>
<opencv_storage>
<stage2>
  <maxWeakCount>6</maxWeakCount>
  <stageThreshold>-9.7048985958099365e-01</stageThreshold>
  <weakClassifiers>
    <_>
      <internalNodes>
        0 -1 752891 3.9028553874231875e-04</internalNodes>
      <leafValues>
        5.2121698856353760e-01 -7.1509969234466553e-01</leafValues></_>
    <_>
      <internalNodes>
        0 -1 762679 -9.4377319328486919e-04</internalNodes>
      <leafValues>
        6.0956239700317383e-01 -3.1533491611480713e-01</leafValues></_>
    <_>
      <internalNodes>
        0 -1 693602 -1.8126745708286762e-03</internalNodes>
      <leafValues>
        3.3449041843414307e-01 -5.7364290952682495e-01</leafValues></_>
    <_>
      <internalNodes>
        0 -1 374953 2.8069008141756058e-02</internalNodes>
      <leafValues>
        -2.5375050306320190e-01 7.3297041654586792e-01</leafValues></_>
    <_>
      <internalNodes>
        0 -1 776924 6.5243395511060953e-04</internalNodes>
      <leafValues>
        -5.5051821470260620e-01 3.4196910262107849e-01</leafValues></_>
    <_>
      <internalNodes>
        0 -1 532173 -5.2578672766685486e-03</internalNodes>
      <leafValues>
        -8.4980976581573486e-01 2.0153968036174774e-01</leafValues></_></weakClassifiers></stage2>
</opencv_storage>
