<?xml version="1.0"?>
<opencv_storage>
<stage0>
  <maxWeakCount>7</maxWeakCount>
  <stageThreshold>-1.4194918870925903e+00</stageThreshold>
  <weakClassifiers>
    <_>
      <internalNodes>
        0 -1 557643 4.0771025232970715e-03</internalNodes>
      <leafValues>
        -7.0886075496673584e-01 6.5364122390747070e-01</leafValues></_>
    <_>
      <internalNodes>
        0 -1 798297 1.1041646823287010e-02</internalNodes>
      <leafValues>
        3.2675805687904358e-01 -9.3833392858505249e-01</leafValues></_>
    <_>
      <internalNodes>
        0 -1 756431 -8.8544056052342057e-04</internalNodes>
      <leafValues>
        6.9689685106277466e-01 -3.2426187396049500e-01</leafValues></_>
    <_>
      <internalNodes>
        0 -1 126335 -3.4583229571580887e-02</internalNodes>
      <leafValues>
        5.4416948556900024e-01 -3.6607962846755981e-01</leafValues></_>
    <_>
      <internalNodes>
        0 -1 750163 -1.6081889625638723e-03</internalNodes>
      <leafValues>
        -8.5711455345153809e-01 2.3175978660583496e-01</leafValues></_>
    <_>
      <internalNodes>
        0 -1 718474 -1.0909221600741148e-03</internalNodes>
      <leafValues>
        2.5681096315383911e-01 -5.8550798892974854e-01</leafValues></_>
    <_>
      <internalNodes>
        0 -1 573874 2.8450582176446915e-03</internalNodes>
      <leafValues>
        2.2752003371715546e-01 -8.3561849594116211e-01</leafValues></_></weakClassifiers></stage0>
</opencv_storage>
