<?xml version="1.0"?>
<opencv_storage>
<cascade>
  <stageType>BOOST</stageType>
  <featureType>LBP</featureType>
  <height>40</height>
  <width>80</width>
  <stageParams>
    <boostType>GAB</boostType>
    <minHitRate>9.9900001287460327e-01</minHitRate>
    <maxFalseAlarm>5.0000000000000000e-01</maxFalseAlarm>
    <weightTrimRate>9.4999999999999996e-01</weightTrimRate>
    <maxDepth>1</maxDepth>
    <maxWeakCount>100</maxWeakCount></stageParams>
  <featureParams>
    <maxCatCount>256</maxCatCount>
    <featSize>1</featSize></featureParams>
  <stageNum>20</stageNum>
  <stages>
    <!-- stage 0 -->
    <_>
      <maxWeakCount>3</maxWeakCount>
      <stageThreshold>-6.4864754676818848e-01</stageThreshold>
      <weakClassifiers>
        <_>
          <internalNodes>
            0 -1 40 -353096 -3469272 -74053 -250540102 -4281110 -180294
            -889573633 -1103623030</internalNodes>
          <leafValues>
            -7.0127505064010620e-01 7.4690771102905273e-01</leafValues></_>
        <_>
          <internalNodes>
            0 -1 81 -753811310 -115339261 286330909 1426264065
            -754941808 -260046712 1073741967 1996686090</internalNodes>
          <leafValues>
            -6.8722885847091675e-01 7.0470136404037476e-01</leafValues></_>
        <_>
          <internalNodes>
            0 -1 49 -629112238 -82663424 858281521 861089813 -553598840
            -314801337 405407964 -1929040551</internalNodes>
          <leafValues>
            -6.1366629600524902e-01 7.3985630273818970e-01</leafValues></_></weakClassifiers></_>
    <!-- stage 1 -->
    <_>
      <maxWeakCount>6</maxWeakCount>
      <stageThreshold>-1.4254020452499390e+00</stageThreshold>
      <weakClassifiers>
        <_>
          <internalNodes>
            0 -1 42 -1029693304 -753725157 268439692 -649002368
            -880762166 -897343487 -938866518 -1078296402</internalNodes>
          <leafValues>
            -6.8825912475585938e-01 6.6907775402069092e-01</leafValues></_>
        <_>
          <internalNodes>
            0 -1 36 -2145775596 -653045759 358617431 823726097 696254520
            -100138984 33587903 453661021</internalNodes>
          <leafValues>
            -7.5438612699508667e-01 5.3411263227462769e-01</leafValues></_>
        <_>
          <internalNodes>
            0 -1 73 -2010545152 -280915968 -1493139305 -48906239
            -2136340293 -1962327934 -2113896021 -868761017</internalNodes>
          <leafValues>
            -7.1265137195587158e-01 5.5447572469711304e-01</leafValues></_>
        <_>
          <internalNodes>
            0 -1 17 -658253678 -1723793264 196689 -753844207 -2147450742
            -1970716543 -1978627845 180895817</internalNodes>
          <leafValues>
            -6.4626866579055786e-01 6.6106659173965454e-01</leafValues></_>
        <_>
          <internalNodes>
            0 -1 99 -1870069542 1397883216 268486803 -616017920
            143296760 -1441562624 -2013130613 1538920473</internalNodes>
          <leafValues>
            -6.7978376150131226e-01 5.9411501884460449e-01</leafValues></_>
        <_>
          <internalNodes>
            0 -1 127 -268417890 -783284656 2102683 1360871435 1384120459
            -402652863 203 -1692761493</internalNodes>
          <leafValues>
            -5.8988857269287109e-01 6.7491275072097778e-01</leafValues></_></weakClassifiers></_>
    <!-- stage 2 -->
    <_>
      <maxWeakCount>5</maxWeakCount>
      <stageThreshold>-6.3429188728332520e-01</stageThreshold>
      <weakClassifiers>
        <_>
          <internalNodes>
            0 -1 24 -39072240 2067502608 -1073807365 1497045528
            -17109252 -41862 1069199082 -1087763048</internalNodes>
          <leafValues>
            -5.9252333641052246e-01 6.7323940992355347e-01</leafValues></_>
        <_>
          <internalNodes>
            0 -1 45 -3101940 -1323859577 553881879 -248311219 -771190102
            -935114738 -1045921605 -41382264</internalNodes>
          <leafValues>
            -6.6790008544921875e-01 5.1012229919433594e-01</leafValues></_>
        <_>
          <internalNodes>
            0 -1 66 -1827548769 160960592 72989 2064730314 974749900
            -502791980 4755656 1529530537</internalNodes>
          <leafValues>
            -5.7169693708419800e-01 5.8860403299331665e-01</leafValues></_>
        <_>
          <internalNodes>
            0 -1 72 -1162915597 -1213509584 -1426835723 942036948
            -1468481970 -1084825993 327351487 -617949707</internalNodes>
          <leafValues>
            -5.1559090614318848e-01 6.6814965009689331e-01</leafValues></_>
        <_>
          <internalNodes>
            0 -1 30 -1691699814 -587136704 322999775 1930608977
            -2105531943 -620396192 -1844920068 2133512217</internalNodes>
          <leafValues>
            -6.2490397691726685e-01 5.6455981731414795e-01</leafValues></_></weakClassifiers></_>
    <!-- stage 3 -->
    <_>
      <maxWeakCount>6</maxWeakCount>
      <stageThreshold>-1.0437008142471313e+00</stageThreshold>
      <weakClassifiers>
        <_>
          <internalNodes>
            0 -1 60 -290461174 1639448109 -1627165184 -2080907485
            -1392545971 1221521053 753880578 -774381797</internalNodes>
          <leafValues>
            -5.3684210777282715e-01 6.8543690443038940e-01</leafValues></_>
        <_>
          <internalNodes>
            0 -1 96 -139490302 -1016051600 -84369903 -277643657
            -145490807 -2023760002 1990489019 -746589065</internalNodes>
          <leafValues>
            -5.0312542915344238e-01 6.6327470541000366e-01</leafValues></_>
        <_>
          <internalNodes>
            0 -1 64 -1862021118 -750534576 -2127433517 1090736193
            -2130541046 -1878458295 33983370 -1056205757</internalNodes>
          <leafValues>
            -6.2214171886444092e-01 5.4018980264663696e-01</leafValues></_>
        <_>
          <internalNodes>
            0 -1 133 -75521982 -683474944 268640384 1497571330
            -1073471352 1342193672 1613201607 1131403659</internalNodes>
          <leafValues>
            -6.4035767316818237e-01 5.2898830175399780e-01</leafValues></_>
        <_>
          <internalNodes>
            0 -1 46 -683431677 -284491248 -88968208 1393252113
            -1884888689 -844147008 -751510128 -1845375</internalNodes>
          <leafValues>
            -5.6951105594635010e-01 6.3697749376296997e-01</leafValues></_>
        <_>
          <internalNodes>
            0 -1 83 -1039810421 -75694536 1564315808 -1657798873
            -705895245 -1880096977 -1229621493 -816843245</internalNodes>
          <leafValues>
            -5.0045448541641235e-01 7.4521672725677490e-01</leafValues></_></weakClassifiers></_>
    <!-- stage 4 -->
    <_>
      <maxWeakCount>7</maxWeakCount>
      <stageThreshold>-7.7944219112396240e-01</stageThreshold>
      <weakClassifiers>
        <_>
          <internalNodes>
            0 -1 80 2004214571 2138439290 2146401710 -9043970 -178830129
            -50921634 -673870385 1935138615</internalNodes>
          <leafValues>
            -3.4402331709861755e-01 6.9584244489669800e-01</leafValues></_>
        <_>
          <internalNodes>
            0 -1 78 -1113450244 -1620507511 -1860099969 1391528605
            -1924343798 -83361784 772328927 456788061</internalNodes>
          <leafValues>
            -6.2153136730194092e-01 4.9141338467597961e-01</leafValues></_>
        <_>
          <internalNodes>
            0 -1 92 -674657064 -107872099 -1852833774 -547835583
            989917368 1043489184 -1693928449 520788153</internalNodes>
          <leafValues>
            -6.0995572805404663e-01 4.8508939146995544e-01</leafValues></_>
        <_>
          <internalNodes>
            0 -1 47 1664319771 1309868035 293705463 457900373 -536763165
            -920633309 -492782869 -1928319</internalNodes>
          <leafValues>
            -5.3018802404403687e-01 5.8400297164916992e-01</leafValues></_>
        <_>
          <internalNodes>
            0 -1 74 -1060666878 -926819111 140943779 -898185791
            -1731689386 1655341066 -1374499882 -602553785</internalNodes>
          <leafValues>
            -7.4714529514312744e-01 4.2290970683097839e-01</leafValues></_>
        <_>
          <internalNodes>
            0 -1 13 732457720 -38912784 1071686395 -676488839
            -1623199526 -412191242 437444383 -1693088580</internalNodes>
          <leafValues>
            -5.4910075664520264e-01 6.1865997314453125e-01</leafValues></_>
        <_>
          <internalNodes>
            0 -1 113 -715393528 -1853357311 1077989535 -683554781
            -2080194359 -880050039 -1862172070 51085979</internalNodes>
          <leafValues>
            -6.2535333633422852e-01 5.5066102743148804e-01</leafValues></_></weakClassifiers></_>
    <!-- stage 5 -->
    <_>
      <maxWeakCount>7</maxWeakCount>
      <stageThreshold>-8.2337272167205811e-01</stageThreshold>
      <weakClassifiers>
        <_>
          <internalNodes>
            0 -1 88 -147590877 1979680034 1609891599 2011549445
            -1323174518 -1628321801 1427496683 1426411527</internalNodes>
          <leafValues>
            -4.7758284211158752e-01 5.9337627887725830e-01</leafValues></_>
        <_>
          <internalNodes>
            0 -1 86 -1926080077 -778616221 -749026753 -8314705 100681144
            -878171944 -1143807841 992612753</internalNodes>
          <leafValues>
            -5.5296427011489868e-01 5.1955419778823853e-01</leafValues></_>
        <_>
          <internalNodes>
            0 -1 97 -1735162864 1507885248 -2003757231 -1659699043
            1342376654 1359020618 5251 -68423185</internalNodes>
          <leafValues>
            -5.4290807247161865e-01 5.2450329065322876e-01</leafValues></_>
        <_>
          <internalNodes>
            0 -1 19 -1861005221 -1332766592 -1202241185 339169284
            411879579 -1591148473 34373867 1476418001</internalNodes>
          <leafValues>
            -5.9113425016403198e-01 5.0188714265823364e-01</leafValues></_>
        <_>
          <internalNodes>
            0 -1 114 -220798326 -1056399288 -1878913021 1360299524
            1510724203 1208090631 -1030763645 1108320335</internalNodes>
          <leafValues>
            -6.6755163669586182e-01 4.5077615976333618e-01</leafValues></_>
        <_>
          <internalNodes>
            0 -1 129 968020434 -17150538 -1903099943 75497413
            -1100431683 -1426882956 106200015 -1700127237</internalNodes>
          <leafValues>
            -5.3720664978027344e-01 6.1543989181518555e-01</leafValues></_>
        <_>
          <internalNodes>
            0 -1 7 -602941352 -871984768 872485133 1896989008 537958642
            -669319160 -594755430 1091751978</internalNodes>
          <leafValues>
            -6.8541681766510010e-01 5.0337004661560059e-01</leafValues></_></weakClassifiers></_>
    <!-- stage 6 -->
    <_>
      <maxWeakCount>7</maxWeakCount>
      <stageThreshold>-6.0361850261688232e-01</stageThreshold>
      <weakClassifiers>
        <_>
          <internalNodes>
            0 -1 82 2147472131 2004680574 -32922 -143171634 1979031595
            1465808895 1427519246 1467479887</internalNodes>
          <leafValues>
            -4.0727901458740234e-01 6.2072336673736572e-01</leafValues></_>
        <_>
          <internalNodes>
            0 -1 5 -93327890 -1356458838 1258215155 -1819150763
            2142146210 -1029145328 -290749771 -754984969</internalNodes>
          <leafValues>
            -4.1691657900810242e-01 6.3255524635314941e-01</leafValues></_>
        <_>
          <internalNodes>
            0 -1 6 -775427878 -873578333 425984 1379954712 1208111616
            -333247418 437918219 -553389517</internalNodes>
          <leafValues>
            -5.2319538593292236e-01 5.1442986726760864e-01</leafValues></_>
        <_>
          <internalNodes>
            0 -1 50 -1607090002 84181387 761709057 -1943411449
            -400296002 -2013232000 629667790 1357961599</internalNodes>
          <leafValues>
            -6.5091729164123535e-01 4.4819414615631104e-01</leafValues></_>
        <_>
          <internalNodes>
            0 -1 44 -412353325 -806453380 -419954945 1383858173
            -1368735422 -1991278601 1449027035 -880091685</internalNodes>
          <leafValues>
            -4.8047348856925964e-01 6.4491981267929077e-01</leafValues></_>
        <_>
          <internalNodes>
            0 -1 34 -2145118022 -2053109860 -2011786945 1393374628
            -1856824846 33620531 268473819 20863429</internalNodes>
          <leafValues>
            -7.5797647237777710e-01 4.5820909738540649e-01</leafValues></_>
        <_>
          <internalNodes>
            0 -1 23 -335545634 -852525214 -1409386509 -756449553
            -134316219 -1069547673 2013255159 -25184393</internalNodes>
          <leafValues>
            -5.3159934282302856e-01 6.0127377510070801e-01</leafValues></_></weakClassifiers></_>
    <!-- stage 7 -->
    <_>
      <maxWeakCount>6</maxWeakCount>
      <stageThreshold>-1.3429074287414551e+00</stageThreshold>
      <weakClassifiers>
        <_>
          <internalNodes>
            0 -1 101 -758599552 -786856826 1124106753 1905254595
            -536046846 1124073478 604614786 1426801027</internalNodes>
          <leafValues>
            -5.8072286844253540e-01 5.4092824459075928e-01</leafValues></_>
        <_>
          <internalNodes>
            0 -1 8 -1056394024 957027088 -2146319923 -1861107456
            -2006402934 -1996374000 -1600094066 419617241</internalNodes>
          <leafValues>
            -6.5802305936813354e-01 4.3074271082878113e-01</leafValues></_>
        <_>
          <internalNodes>
            0 -1 102 -193207557 1593925712 6496847 405380451 -249146389
            -1976486816 122385379 459915955</internalNodes>
          <leafValues>
            -4.9761217832565308e-01 6.1868858337402344e-01</leafValues></_>
        <_>
          <internalNodes>
            0 -1 112 -1034167678 -723668958 -136348417 1606922954
            -664272977 -1099964802 -1018767730 -1039676753</internalNodes>
          <leafValues>
            -4.6561887860298157e-01 6.5816152095794678e-01</leafValues></_>
        <_>
          <internalNodes>
            0 -1 134 -654080862 -171856382 1224790300 -650837999
            -1022973214 83920000 571343039 1395376648</internalNodes>
          <leafValues>
            -7.0512533187866211e-01 4.3266704678535461e-01</leafValues></_>
        <_>
          <internalNodes>
            0 -1 48 285295488 -635956656 286265489 1415254097
            -1742417398 -1445330934 570728583 -996732743</internalNodes>
          <leafValues>
            -7.1528416872024536e-01 4.4789409637451172e-01</leafValues></_></weakClassifiers></_>
    <!-- stage 8 -->
    <_>
      <maxWeakCount>7</maxWeakCount>
      <stageThreshold>-8.2031393051147461e-01</stageThreshold>
      <weakClassifiers>
        <_>
          <internalNodes>
            0 -1 62 -1685847520 -778498944 -980932508 -547679779
            1277165720 134742028 -1978117957 2134507528</internalNodes>
          <leafValues>
            -6.7231637239456177e-01 5.1203852891921997e-01</leafValues></_>
        <_>
          <internalNodes>
            0 -1 138 -1970122598 -206222248 -1622378785 1493269857
            -1141091618 -1100194161 353934571 -1978478889</internalNodes>
          <leafValues>
            -4.3097454309463501e-01 5.8093911409378052e-01</leafValues></_>
        <_>
          <internalNodes>
            0 -1 115 -268117878 1364574729 1342194380 990740542
            -494737189 -1073217533 -1853293873 481280699</internalNodes>
          <leafValues>
            -5.6190139055252075e-01 4.9357482790946960e-01</leafValues></_>
        <_>
          <internalNodes>
            0 -1 98 523779484 -116256576 -1862044011 -1785134910
            671138024 -532240247 -1740470087 -1106638648</internalNodes>
          <leafValues>
            -5.9786283969879150e-01 4.8905816674232483e-01</leafValues></_>
        <_>
          <internalNodes>
            0 -1 91 274633969 1259618384 1342477213 -716876479
            -905195366 -569376608 1208128167 1260282037</internalNodes>
          <leafValues>
            -5.7470458745956421e-01 5.2588731050491333e-01</leafValues></_>
        <_>
          <internalNodes>
            0 -1 87 -1977330920 -1656188902 134332563 -1659265016
            -1995931608 -519913464 4495035 -649444709</internalNodes>
          <leafValues>
            -5.3930270671844482e-01 5.6557404994964600e-01</leafValues></_>
        <_>
          <internalNodes>
            0 -1 38 -2117050888 939856156 1895924481 1938997523
            673241658 -1330577366 23730362 411764957</internalNodes>
          <leafValues>
            -6.1123329401016235e-01 5.1354181766510010e-01</leafValues></_></weakClassifiers></_>
    <!-- stage 9 -->
    <_>
      <maxWeakCount>7</maxWeakCount>
      <stageThreshold>-7.2909122705459595e-01</stageThreshold>
      <weakClassifiers>
        <_>
          <internalNodes>
            0 -1 76 -250642430 1395884931 -2088101876 1078580546
            18985355 306324483 1073857218 1362776163</internalNodes>
          <leafValues>
            -5.8139532804489136e-01 5.1525145769119263e-01</leafValues></_>
        <_>
          <internalNodes>
            0 -1 132 -240783230 -782941696 272924676 -267546597
            -903249747 -368557823 -385056085 1091027847</internalNodes>
          <leafValues>
            -5.2754282951354980e-01 4.6049600839614868e-01</leafValues></_>
        <_>
          <internalNodes>
            0 -1 54 -1313262885 -109506253 -33554941 1358944113
            683331689 -1292169150 -162489185 -1697057580</internalNodes>
          <leafValues>
            -4.8734167218208313e-01 5.4616999626159668e-01</leafValues></_>
        <_>
          <internalNodes>
            0 -1 118 -544583463 -237367215 -1820437283 1528526263
            87460058 -939321528 375060191 -551627044</internalNodes>
          <leafValues>
            -3.8431456685066223e-01 6.8736088275909424e-01</leafValues></_>
        <_>
          <internalNodes>
            0 -1 35 -1382856306 -606086763 -1073639126 -1704423120
            1082237102 -1451065213 -2004645746 -104753240</internalNodes>
          <leafValues>
            -6.7127209901809692e-01 4.2506593465805054e-01</leafValues></_>
        <_>
          <internalNodes>
            0 -1 93 -1110423303 -79163120 285381059 1344225704
            -1535063864 -199522176 135449339 -1952841520</internalNodes>
          <leafValues>
            -4.8984262347221375e-01 5.6259661912918091e-01</leafValues></_>
        <_>
          <internalNodes>
            0 -1 108 1427282048 1360337732 83918971 1501614633
            -1437032213 420282540 295083 1059723705</internalNodes>
          <leafValues>
            -7.0557934045791626e-01 4.1761624813079834e-01</leafValues></_></weakClassifiers></_>
    <!-- stage 10 -->
    <_>
      <maxWeakCount>8</maxWeakCount>
      <stageThreshold>-5.1447516679763794e-01</stageThreshold>
      <weakClassifiers>
        <_>
          <internalNodes>
            0 -1 95 -741375998 -1598012797 -1946132447 1119916560
            -1068820352 65538 -536870309 1377297783</internalNodes>
          <leafValues>
            -5.8186399936676025e-01 5.2452200651168823e-01</leafValues></_>
        <_>
          <internalNodes>
            0 -1 10 -5060968 -1860993016 549502981 152048913 -804746242
            1621772873 -1716468849 -584003555</internalNodes>
          <leafValues>
            -5.9787344932556152e-01 4.4852280616760254e-01</leafValues></_>
        <_>
          <internalNodes>
            0 -1 90 -893672000 471400449 -2088477501 2030895270
            -1066994303 -660602743 1912783583 1970755291</internalNodes>
          <leafValues>
            -6.5768784284591675e-01 4.3859407305717468e-01</leafValues></_>
        <_>
          <internalNodes>
            0 -1 33 -1001878462 -251295355 1627473421 -1840495843
            -1044083474 -92274544 -896891349 -283463037</internalNodes>
          <leafValues>
            -5.7668060064315796e-01 4.4732832908630371e-01</leafValues></_>
        <_>
          <internalNodes>
            0 -1 89 1615098259 890966145 285593501 1881088199 -499105667
            -1425965031 -2145857315 536920497</internalNodes>
          <leafValues>
            -6.0480207204818726e-01 4.3217700719833374e-01</leafValues></_>
        <_>
          <internalNodes>
            0 -1 120 -969935958 2056029830 -79139849 -640075890
            -629753781 -540066591 -999299075 -1064312162</internalNodes>
          <leafValues>
            -5.1521867513656616e-01 5.7214343547821045e-01</leafValues></_>
        <_>
          <internalNodes>
            0 -1 2 1279451354 -582918058 1502779713 2013298960
            -1606414134 -1190977527 -1996404582 1599127849</internalNodes>
          <leafValues>
            -5.7819336652755737e-01 5.0458967685699463e-01</leafValues></_>
        <_>
          <internalNodes>
            0 -1 70 1553552036 -679247725 -1463205748 -224925476
            1896224398 -1574727664 2014531727 995754014</internalNodes>
          <leafValues>
            -6.6172939538955688e-01 4.4629088044166565e-01</leafValues></_></weakClassifiers></_>
    <!-- stage 11 -->
    <_>
      <maxWeakCount>9</maxWeakCount>
      <stageThreshold>-6.1138379573822021e-01</stageThreshold>
      <weakClassifiers>
        <_>
          <internalNodes>
            0 -1 57 -1204793264 -208596988 1091135999 1342312513
            940082190 -704573439 237014297 453644453</internalNodes>
          <leafValues>
            -5.7435899972915649e-01 5.1570248603820801e-01</leafValues></_>
        <_>
          <internalNodes>
            0 -1 43 1263240738 -486334158 -1308278715 -1301862247
            -1163704284 -754773933 1066539080 -14008167</internalNodes>
          <leafValues>
            -5.8175969123840332e-01 4.0368726849555969e-01</leafValues></_>
        <_>
          <internalNodes>
            0 -1 121 -661008190 -704948739 -874812405 -1660447593
            -367867681 -1088267185 -2130410833 -611859305</internalNodes>
          <leafValues>
            -3.7665763497352600e-01 6.5591168403625488e-01</leafValues></_>
        <_>
          <internalNodes>
            0 -1 122 1430962376 1377001927 1375735239 1461305621
            1426104551 843645442 1913055998 1364972391</internalNodes>
          <leafValues>
            -6.3684642314910889e-01 3.9981389045715332e-01</leafValues></_>
        <_>
          <internalNodes>
            0 -1 107 -1860316069 -16740334 1456274037 -780181890
            -1468815381 -397660128 976848074 -82961697</internalNodes>
          <leafValues>
            -3.7737703323364258e-01 7.4289077520370483e-01</leafValues></_>
        <_>
          <internalNodes>
            0 -1 79 -1726582532 -285065063 21053471 1476542791 705341960
            -1426012404 1241536667 -634777123</internalNodes>
          <leafValues>
            -5.6702339649200439e-01 4.7889515757560730e-01</leafValues></_>
        <_>
          <internalNodes>
            0 -1 31 -1611441253 -1667365246 1861222207 1579040007
            -1347444982 -27300000 -1531527408 -543252524</internalNodes>
          <leafValues>
            -4.8113349080085754e-01 5.9847491979598999e-01</leafValues></_>
        <_>
          <internalNodes>
            0 -1 124 -1772908389 899350608 248787 1302204893 -2001960806
            2122566690 -1861058365 525998253</internalNodes>
          <leafValues>
            -5.4569858312606812e-01 5.4411673545837402e-01</leafValues></_>
        <_>
          <internalNodes>
            0 -1 3 -1304265746 386036032 -1073112682 858855638 21046077
            -1681516253 -897129270 641726474</internalNodes>
          <leafValues>
            -6.1526662111282349e-01 4.8479461669921875e-01</leafValues></_></weakClassifiers></_>
    <!-- stage 12 -->
    <_>
      <maxWeakCount>6</maxWeakCount>
      <stageThreshold>-3.2365837693214417e-01</stageThreshold>
      <weakClassifiers>
        <_>
          <internalNodes>
            0 -1 75 -282230272 -17961135 -297795840 -1393641101
            -50412149 -1093765129 2138568485 -1001392349</internalNodes>
          <leafValues>
            -4.3030303716659546e-01 5.5475115776062012e-01</leafValues></_>
        <_>
          <internalNodes>
            0 -1 130 -515644504 1908641841 37748928 1074069896
            -393756488 134744096 1095336460 1229968521</internalNodes>
          <leafValues>
            -5.6574493646621704e-01 4.2032882571220398e-01</leafValues></_>
        <_>
          <internalNodes>
            0 -1 125 -1755299662 -569372588 1107412199 1552621888
            -1157616484 -666369728 -1341862982 486594585</internalNodes>
          <leafValues>
            -6.8984365463256836e-01 3.6534163355827332e-01</leafValues></_>
        <_>
          <internalNodes>
            0 -1 123 -132331364 -908124386 1042955775 -802713859
            641721935 175079279 -302647691 -537135907</internalNodes>
          <leafValues>
            -4.3120804429054260e-01 6.2092155218124390e-01</leafValues></_>
        <_>
          <internalNodes>
            0 -1 4 -437003016 -586628692 -1038925670 822112256
            -2121736022 -1349758847 -1878353732 1408467430</internalNodes>
          <leafValues>
            -6.0962229967117310e-01 4.3369451165199280e-01</leafValues></_>
        <_>
          <internalNodes>
            0 -1 135 -668492798 1111834887 151040273 -649625469
            -497825656 570556424 -2122202943 1452262922</internalNodes>
          <leafValues>
            -6.1138117313385010e-01 4.7851786017417908e-01</leafValues></_></weakClassifiers></_>
    <!-- stage 13 -->
    <_>
      <maxWeakCount>8</maxWeakCount>
      <stageThreshold>-5.1695579290390015e-01</stageThreshold>
      <weakClassifiers>
        <_>
          <internalNodes>
            0 -1 9 -1726985122 1903173845 671109147 1962934601
            -2013265672 -267385844 673204655 941640104</internalNodes>
          <leafValues>
            -7.1803277730941772e-01 4.7799226641654968e-01</leafValues></_>
        <_>
          <internalNodes>
            0 -1 77 1469799921 -230453224 -654278607 -854720471
            538074260 1212828188 439927291 1603946925</internalNodes>
          <leafValues>
            -5.7812416553497314e-01 4.0666425228118896e-01</leafValues></_>
        <_>
          <internalNodes>
            0 -1 69 -1867446054 2137155442 1730813979 -76863712
            -2057084759 825652672 -1843173154 -41261197</internalNodes>
          <leafValues>
            -4.5505228638648987e-01 5.6786590814590454e-01</leafValues></_>
        <_>
          <internalNodes>
            0 -1 28 -8220861 -11743184 -217670508 -536295037 -620958456
            1879046796 122456013 -80192001</internalNodes>
          <leafValues>
            -5.0641983747482300e-01 5.4868268966674805e-01</leafValues></_>
        <_>
          <internalNodes>
            0 -1 106 -661747479 1929445411 -2013183971 1367408763
            -1005473778 -418693086 -1602180906 134878382</internalNodes>
          <leafValues>
            -5.5626690387725830e-01 4.6354758739471436e-01</leafValues></_>
        <_>
          <internalNodes>
            0 -1 52 -1726265465 -99545064 -535740337 1414603081
            -1817802488 -1374951423 1210243084 -1693279259</internalNodes>
          <leafValues>
            -5.4228520393371582e-01 5.1593089103698730e-01</leafValues></_>
        <_>
          <internalNodes>
            0 -1 32 -237991791 -720305919 285413699 1930392581 13251210
            1280950473 302517003 1493571865</internalNodes>
          <leafValues>
            -6.3227540254592896e-01 4.6107131242752075e-01</leafValues></_>
        <_>
          <internalNodes>
            0 -1 14 -748662216 -2116943467 167848087 -547532427
            285216863 -368949088 156022956 -1088286271</internalNodes>
          <leafValues>
            -6.1112284660339355e-01 4.8179912567138672e-01</leafValues></_></weakClassifiers></_>
    <!-- stage 14 -->
    <_>
      <maxWeakCount>8</maxWeakCount>
      <stageThreshold>-8.9439165592193604e-01</stageThreshold>
      <weakClassifiers>
        <_>
          <internalNodes>
            0 -1 15 959674169 2141338872 -151097681 2071420285
            -1703379411 -1087734408 -2951317 1059243497</internalNodes>
          <leafValues>
            -3.3673468232154846e-01 5.9090906381607056e-01</leafValues></_>
        <_>
          <internalNodes>
            0 -1 104 -357842857 -1560674598 -1410613761 2058354623
            -136584994 -364054794 -210249891 1237903042</internalNodes>
          <leafValues>
            -4.1298046708106995e-01 5.2741438150405884e-01</leafValues></_>
        <_>
          <internalNodes>
            0 -1 116 -2138403584 -1852538747 -1836920813 1217007889
            656489246 84027400 738330800 -538091069</internalNodes>
          <leafValues>
            -5.9326082468032837e-01 4.0935632586479187e-01</leafValues></_>
        <_>
          <internalNodes>
            0 -1 41 386929912 -687275568 -536796909 -579272647
            -1572253544 -898105207 713861519 515921369</internalNodes>
          <leafValues>
            -6.3648504018783569e-01 3.7246441841125488e-01</leafValues></_>
        <_>
          <internalNodes>
            0 -1 63 -20580445 1599436690 -121767945 -587877006
            -938360921 -10373 1076378622 -406592570</internalNodes>
          <leafValues>
            -4.0952122211456299e-01 6.0247629880905151e-01</leafValues></_>
        <_>
          <internalNodes>
            0 -1 94 2134670107 -1074028937 2138028539 -43771952
            1279535163 -1153452168 1999847086 -215574653</internalNodes>
          <leafValues>
            -4.3153932690620422e-01 6.0517323017120361e-01</leafValues></_>
        <_>
          <internalNodes>
            0 -1 110 -1858911496 -73641776 16998863 -216771708
            -2029730638 -528187328 -1660253509 -1960141324</internalNodes>
          <leafValues>
            -5.0675278902053833e-01 5.2755320072174072e-01</leafValues></_>
        <_>
          <internalNodes>
            0 -1 12 1359018590 -1316028131 287065114 1373180101
            -1551260916 1098950944 155746319 254425569</internalNodes>
          <leafValues>
            -5.9439164400100708e-01 4.9628946185112000e-01</leafValues></_></weakClassifiers></_>
    <!-- stage 15 -->
    <_>
      <maxWeakCount>7</maxWeakCount>
      <stageThreshold>-6.5099674463272095e-01</stageThreshold>
      <weakClassifiers>
        <_>
          <internalNodes>
            0 -1 68 -288520702 2120220169 -680264925 2128082842
            -596769078 -270245890 1575456487 1733485827</internalNodes>
          <leafValues>
            -4.4999998807907104e-01 5.5000001192092896e-01</leafValues></_>
        <_>
          <internalNodes>
            0 -1 1 -1019175894 -1862057466 201380062 1411826696
            1392740880 -754048504 1351131646 2064327930</internalNodes>
          <leafValues>
            -5.9108400344848633e-01 3.8320153951644897e-01</leafValues></_>
        <_>
          <internalNodes>
            0 -1 56 -701767032 2123465026 153157633 1847682183
            -658452054 1480898 -65762710 82289347</internalNodes>
          <leafValues>
            -6.1593294143676758e-01 4.1097468137741089e-01</leafValues></_>
        <_>
          <internalNodes>
            0 -1 59 1496686271 -1055776463 1258652061 2089615426
            153105067 -1892103989 -1576843609 -865045820</internalNodes>
          <leafValues>
            -5.2326160669326782e-01 4.4843512773513794e-01</leafValues></_>
        <_>
          <internalNodes>
            0 -1 136 -1959003241 -661988988 976469133 326235017
            -151078993 -1349652813 188113107 -882959911</internalNodes>
          <leafValues>
            -3.9655557274818420e-01 6.2618213891983032e-01</leafValues></_>
        <_>
          <internalNodes>
            0 -1 128 -257705014 269223212 -1857437430 1884979737
            -1609997949 342917285 1679225066 1728959208</internalNodes>
          <leafValues>
            -5.9959977865219116e-01 4.2861640453338623e-01</leafValues></_>
        <_>
          <internalNodes>
            0 -1 21 -1195385737 -1947624710 2021290480 -1846353967
            230603578 -1493434594 -916727330 -538192389</internalNodes>
          <leafValues>
            -4.2054513096809387e-01 6.5808731317520142e-01</leafValues></_></weakClassifiers></_>
    <!-- stage 16 -->
    <_>
      <maxWeakCount>7</maxWeakCount>
      <stageThreshold>-7.5538873672485352e-01</stageThreshold>
      <weakClassifiers>
        <_>
          <internalNodes>
            0 -1 84 466299010 1093374730 402860046 1761722648 1073741834
            1346572373 289415806 1731674646</internalNodes>
          <leafValues>
            -7.5665396451950073e-01 4.4801795482635498e-01</leafValues></_>
        <_>
          <internalNodes>
            0 -1 26 -662101385 -1727850656 364976539 -216716991
            -1602004363 -77195180 404142475 -538032771</internalNodes>
          <leafValues>
            -4.2220860719680786e-01 5.4008257389068604e-01</leafValues></_>
        <_>
          <internalNodes>
            0 -1 29 -402526952 -1065304044 1355487819 -875560600
            1753784418 -1500970937 -1844780798 1268947417</internalNodes>
          <leafValues>
            -5.9082114696502686e-01 4.3195089697837830e-01</leafValues></_>
        <_>
          <internalNodes>
            0 -1 111 -1060647357 1107543115 -259669869 -2063531958
            -1521841526 -1068302299 -2012501453 -1065315817</internalNodes>
          <leafValues>
            -5.0784641504287720e-01 4.7952610254287720e-01</leafValues></_>
        <_>
          <internalNodes>
            0 -1 18 -584918952 1914800145 -1966017517 -594327547
            -1593783910 -2035679160 -2145908522 -20631913</internalNodes>
          <leafValues>
            -4.7788560390472412e-01 5.2612626552581787e-01</leafValues></_>
        <_>
          <internalNodes>
            0 -1 55 14517770 1343516947 26571047 -711605374 1352677599
            -1937766255 -2003228469 -2008450865</internalNodes>
          <leafValues>
            -6.1647850275039673e-01 4.4894409179687500e-01</leafValues></_>
        <_>
          <internalNodes>
            0 -1 22 1263971 190140416 1073878487 1577522260 638628109
            -1450704733 1410613426 -49097639</internalNodes>
          <leafValues>
            -5.5446940660476685e-01 4.9498128890991211e-01</leafValues></_></weakClassifiers></_>
    <!-- stage 17 -->
    <_>
      <maxWeakCount>8</maxWeakCount>
      <stageThreshold>-4.4532746076583862e-01</stageThreshold>
      <weakClassifiers>
        <_>
          <internalNodes>
            0 -1 71 269576884 -293519152 -1862171883 879100480 437260424
            1661616321 -1908224802 993675717</internalNodes>
          <leafValues>
            -5.7386362552642822e-01 4.8237180709838867e-01</leafValues></_>
        <_>
          <internalNodes>
            0 -1 126 -1073233918 -1995455480 297861131 -620396416
            2547945 -1744388029 -515062225 -1064648485</internalNodes>
          <leafValues>
            -4.6760976314544678e-01 4.7125035524368286e-01</leafValues></_>
        <_>
          <internalNodes>
            0 -1 53 -818859205 -2079913967 142676467 1052657047
            1621299328 -2126536111 -905531168 -886822971</internalNodes>
          <leafValues>
            -5.6448411941528320e-01 4.1022974252700806e-01</leafValues></_>
        <_>
          <internalNodes>
            0 -1 27 -1351913286 -918351800 1082790087 403964481
            -2053903857 -840358783 789088686 1125040366</internalNodes>
          <leafValues>
            -5.3140962123870850e-01 4.5485910773277283e-01</leafValues></_>
        <_>
          <internalNodes>
            0 -1 58 -1710655023 -614390143 1607366100 1931834605
            -1615422372 -1352102070 17418127 -1172316736</internalNodes>
          <leafValues>
            -4.8142457008361816e-01 5.1459205150604248e-01</leafValues></_>
        <_>
          <internalNodes>
            0 -1 139 -77861213 -991318903 515003483 1710834291
            -959915382 1901187933 -489750849 -1013991477</internalNodes>
          <leafValues>
            -3.5134798288345337e-01 7.3751103878021240e-01</leafValues></_>
        <_>
          <internalNodes>
            0 -1 51 1719967880 1473729002 1888576770 312575783
            -1467766398 1110655104 -1148333653 1382149098</internalNodes>
          <leafValues>
            -7.3588323593139648e-01 3.4362182021141052e-01</leafValues></_>
        <_>
          <internalNodes>
            0 -1 137 -2055190376 1258836052 219524 499724313 -913775925
            -616423005 285319554 535447681</internalNodes>
          <leafValues>
            -6.9538265466690063e-01 3.8030624389648438e-01</leafValues></_></weakClassifiers></_>
    <!-- stage 18 -->
    <_>
      <maxWeakCount>9</maxWeakCount>
      <stageThreshold>-6.6121631860733032e-01</stageThreshold>
      <weakClassifiers>
        <_>
          <internalNodes>
            0 -1 67 -1789754712 -1861025513 680542340 -784326415
            281291476 575146048 -115324817 733632537</internalNodes>
          <leafValues>
            -6.1874997615814209e-01 4.6718749403953552e-01</leafValues></_>
        <_>
          <internalNodes>
            0 -1 119 -1005289457 2125817755 1073609215 -308395697
            -365969681 -83959937 -1429947733 -1587288965</internalNodes>
          <leafValues>
            -3.7487840652465820e-01 5.7804942131042480e-01</leafValues></_>
        <_>
          <internalNodes>
            0 -1 16 1175379743 -47087608 277238199 283068597 -1291811578
            992645236 -1933518621 508465633</internalNodes>
          <leafValues>
            -4.8015123605728149e-01 4.5999655127525330e-01</leafValues></_>
        <_>
          <internalNodes>
            0 -1 85 -2013166909 -81790455 -577961421 523107898
            -1934654313 1073676158 1991180803 -2755581</internalNodes>
          <leafValues>
            -4.5673814415931702e-01 5.1678389310836792e-01</leafValues></_>
        <_>
          <internalNodes>
            0 -1 37 -175291424 -60960488 1082609729 76646933 -1572460372
            1770594818 164582385 -1792751605</internalNodes>
          <leafValues>
            -5.9381610155105591e-01 4.1765406727790833e-01</leafValues></_>
        <_>
          <internalNodes>
            0 -1 109 -1714733017 1347815621 1612272017 1507000963
            579438123 -1029668720 -2113363317 1075485375</internalNodes>
          <leafValues>
            -5.0562018156051636e-01 5.0804555416107178e-01</leafValues></_>
        <_>
          <internalNodes>
            0 -1 105 -1817258866 -1860795951 -1593082622 299639201
            1641021582 1367541953 537492620 1799088266</internalNodes>
          <leafValues>
            -5.6115031242370605e-01 4.5164242386817932e-01</leafValues></_>
        <_>
          <internalNodes>
            0 -1 0 -1069357878 -1562996704 -2146351682 -1847393513
            -1581007982 -696219616 139181011 1209149939</internalNodes>
          <leafValues>
            -6.1595147848129272e-01 4.0875989198684692e-01</leafValues></_>
        <_>
          <internalNodes>
            0 -1 61 1807467787 -939724897 -1129333501 -1073938513
            2147471087 -551747588 1862029103 -88484357</internalNodes>
          <leafValues>
            -3.7237197160720825e-01 7.0047968626022339e-01</leafValues></_></weakClassifiers></_>
    <!-- stage 19 -->
    <_>
      <maxWeakCount>10</maxWeakCount>
      <stageThreshold>-5.2748268842697144e-01</stageThreshold>
      <weakClassifiers>
        <_>
          <internalNodes>
            0 -1 65 1797718530 2133383097 -1074287325 -1555857422
            -1142801 -50331687 -285212718 -996124670</internalNodes>
          <leafValues>
            -4.5454546809196472e-01 5.1724135875701904e-01</leafValues></_>
        <_>
          <internalNodes>
            0 -1 39 -416139397 -559812692 -1497677889 2101046655
            -13240321 752434557 1008058238 -1103438595</internalNodes>
          <leafValues>
            -3.5314083099365234e-01 5.6415164470672607e-01</leafValues></_>
        <_>
          <internalNodes>
            0 -1 140 -1282885592 1964544513 68257809 1566018048
            -1879013222 -2002282357 -1705931349 525276397</internalNodes>
          <leafValues>
            -5.5271154642105103e-01 4.2742863297462463e-01</leafValues></_>
        <_>
          <internalNodes>
            0 -1 100 1080909939 -367880331 -796343681 -2045913083
            -400514848 -872382301 170443023 -1068133887</internalNodes>
          <leafValues>
            -5.2871036529541016e-01 4.5202830433845520e-01</leafValues></_>
        <_>
          <internalNodes>
            0 -1 131 -2104977135 -593477536 1645550436 286628117
            -1962741541 -1090776637 135770 1259520413</internalNodes>
          <leafValues>
            -6.0951489210128784e-01 3.9268714189529419e-01</leafValues></_>
        <_>
          <internalNodes>
            0 -1 103 -917387114 -40968 1977417724 -362825243 -2106083332
            -131114 -948766826 -805169878</internalNodes>
          <leafValues>
            -4.8112776875495911e-01 5.4313814640045166e-01</leafValues></_>
        <_>
          <internalNodes>
            0 -1 20 294880497 -649599976 -2138862421 -1736060927
            -1878894019 -657915112 692125704 4835648</internalNodes>
          <leafValues>
            -6.2377077341079712e-01 4.5207926630973816e-01</leafValues></_>
        <_>
          <internalNodes>
            0 -1 11 -2129899002 -753853293 1350945149 1677810451
            1275191323 -1743647486 432548138 237684805</internalNodes>
          <leafValues>
            -7.0888936519622803e-01 3.6169412732124329e-01</leafValues></_>
        <_>
          <internalNodes>
            0 -1 25 -1592803318 -79502124 269988657 1076576325 289474670
            -1592743531 1254688640 -544563156</internalNodes>
          <leafValues>
            -7.0155417919158936e-01 3.7844619154930115e-01</leafValues></_>
        <_>
          <internalNodes>
            0 -1 117 -203576670 1874918148 695709362 1331681191
            787946472 -2072027379 -1224784425 -743457601</internalNodes>
          <leafValues>
            -5.0906515121459961e-01 5.4376244544982910e-01</leafValues></_></weakClassifiers></_></stages>
  <features>
    <_>
      <rect>
        0 3 22 7</rect></_>
    <_>
      <rect>
        0 20 17 5</rect></_>
    <_>
      <rect>
        1 12 12 5</rect></_>
    <_>
      <rect>
        1 20 16 6</rect></_>
    <_>
      <rect>
        2 0 25 12</rect></_>
    <_>
      <rect>
        2 4 25 8</rect></_>
    <_>
      <rect>
        5 17 9 3</rect></_>
    <_>
      <rect>
        6 0 24 12</rect></_>
    <_>
      <rect>
        8 1 21 11</rect></_>
    <_>
      <rect>
        9 7 11 10</rect></_>
    <_>
      <rect>
        12 3 15 10</rect></_>
    <_>
      <rect>
        12 20 14 6</rect></_>
    <_>
      <rect>
        14 19 12 4</rect></_>
    <_>
      <rect>
        15 7 7 3</rect></_>
    <_>
      <rect>
        15 20 10 5</rect></_>
    <_>
      <rect>
        15 21 9 5</rect></_>
    <_>
      <rect>
        16 5 16 7</rect></_>
    <_>
      <rect>
        16 5 19 8</rect></_>
    <_>
      <rect>
        16 10 14 4</rect></_>
    <_>
      <rect>
        17 0 16 7</rect></_>
    <_>
      <rect>
        17 11 7 4</rect></_>
    <_>
      <rect>
        17 12 18 8</rect></_>
    <_>
      <rect>
        17 28 6 2</rect></_>
    <_>
      <rect>
        18 2 12 2</rect></_>
    <_>
      <rect>
        18 4 13 10</rect></_>
    <_>
      <rect>
        18 16 12 4</rect></_>
    <_>
      <rect>
        18 27 8 4</rect></_>
    <_>
      <rect>
        19 4 17 4</rect></_>
    <_>
      <rect>
        19 12 15 5</rect></_>
    <_>
      <rect>
        20 6 14 8</rect></_>
    <_>
      <rect>
        20 16 13 7</rect></_>
    <_>
      <rect>
        21 9 11 5</rect></_>
    <_>
      <rect>
        21 19 4 3</rect></_>
    <_>
      <rect>
        21 20 9 3</rect></_>
    <_>
      <rect>
        21 22 10 5</rect></_>
    <_>
      <rect>
        22 14 9 5</rect></_>
    <_>
      <rect>
        22 22 12 6</rect></_>
    <_>
      <rect>
        23 14 10 3</rect></_>
    <_>
      <rect>
        23 16 18 8</rect></_>
    <_>
      <rect>
        23 23 6 4</rect></_>
    <_>
      <rect>
        24 2 8 12</rect></_>
    <_>
      <rect>
        25 8 5 3</rect></_>
    <_>
      <rect>
        25 10 7 8</rect></_>
    <_>
      <rect>
        26 21 8 3</rect></_>
    <_>
      <rect>
        26 26 12 3</rect></_>
    <_>
      <rect>
        27 7 6 9</rect></_>
    <_>
      <rect>
        27 10 10 5</rect></_>
    <_>
      <rect>
        28 9 9 5</rect></_>
    <_>
      <rect>
        28 10 6 3</rect></_>
    <_>
      <rect>
        28 13 8 2</rect></_>
    <_>
      <rect>
        28 14 4 4</rect></_>
    <_>
      <rect>
        28 14 5 3</rect></_>
    <_>
      <rect>
        29 8 7 3</rect></_>
    <_>
      <rect>
        29 9 9 5</rect></_>
    <_>
      <rect>
        29 9 10 4</rect></_>
    <_>
      <rect>
        29 13 5 4</rect></_>
    <_>
      <rect>
        29 15 4 3</rect></_>
    <_>
      <rect>
        30 5 6 3</rect></_>
    <_>
      <rect>
        30 9 5 2</rect></_>
    <_>
      <rect>
        30 11 8 4</rect></_>
    <_>
      <rect>
        30 16 4 3</rect></_>
    <_>
      <rect>
        30 16 4 4</rect></_>
    <_>
      <rect>
        30 21 5 4</rect></_>
    <_>
      <rect>
        31 8 6 6</rect></_>
    <_>
      <rect>
        31 11 4 3</rect></_>
    <_>
      <rect>
        31 12 4 5</rect></_>
    <_>
      <rect>
        31 13 15 7</rect></_>
    <_>
      <rect>
        31 19 5 5</rect></_>
    <_>
      <rect>
        32 13 4 4</rect></_>
    <_>
      <rect>
        32 18 5 1</rect></_>
    <_>
      <rect>
        32 18 6 3</rect></_>
    <_>
      <rect>
        32 21 7 5</rect></_>
    <_>
      <rect>
        33 6 5 2</rect></_>
    <_>
      <rect>
        33 11 3 4</rect></_>
    <_>
      <rect>
        33 12 3 4</rect></_>
    <_>
      <rect>
        33 15 3 3</rect></_>
    <_>
      <rect>
        33 17 4 3</rect></_>
    <_>
      <rect>
        33 21 8 4</rect></_>
    <_>
      <rect>
        33 25 5 3</rect></_>
    <_>
      <rect>
        34 9 5 2</rect></_>
    <_>
      <rect>
        34 12 4 5</rect></_>
    <_>
      <rect>
        34 14 4 3</rect></_>
    <_>
      <rect>
        34 14 4 4</rect></_>
    <_>
      <rect>
        34 15 2 3</rect></_>
    <_>
      <rect>
        34 15 4 3</rect></_>
    <_>
      <rect>
        34 16 2 3</rect></_>
    <_>
      <rect>
        34 24 5 4</rect></_>
    <_>
      <rect>
        35 13 3 1</rect></_>
    <_>
      <rect>
        35 13 4 3</rect></_>
    <_>
      <rect>
        35 13 9 4</rect></_>
    <_>
      <rect>
        35 15 4 2</rect></_>
    <_>
      <rect>
        35 23 8 2</rect></_>
    <_>
      <rect>
        35 24 4 2</rect></_>
    <_>
      <rect>
        36 7 2 1</rect></_>
    <_>
      <rect>
        36 12 6 5</rect></_>
    <_>
      <rect>
        36 15 2 3</rect></_>
    <_>
      <rect>
        36 16 2 2</rect></_>
    <_>
      <rect>
        36 18 2 1</rect></_>
    <_>
      <rect>
        37 4 2 2</rect></_>
    <_>
      <rect>
        37 4 6 3</rect></_>
    <_>
      <rect>
        37 11 2 4</rect></_>
    <_>
      <rect>
        37 18 2 2</rect></_>
    <_>
      <rect>
        37 20 8 2</rect></_>
    <_>
      <rect>
        38 10 2 4</rect></_>
    <_>
      <rect>
        38 15 2 3</rect></_>
    <_>
      <rect>
        38 15 4 2</rect></_>
    <_>
      <rect>
        38 17 8 2</rect></_>
    <_>
      <rect>
        38 18 7 2</rect></_>
    <_>
      <rect>
        38 22 3 2</rect></_>
    <_>
      <rect>
        38 28 7 4</rect></_>
    <_>
      <rect>
        39 9 2 1</rect></_>
    <_>
      <rect>
        39 10 2 4</rect></_>
    <_>
      <rect>
        39 11 2 4</rect></_>
    <_>
      <rect>
        39 15 3 2</rect></_>
    <_>
      <rect>
        39 17 2 2</rect></_>
    <_>
      <rect>
        39 17 3 2</rect></_>
    <_>
      <rect>
        39 18 1 1</rect></_>
    <_>
      <rect>
        39 20 2 2</rect></_>
    <_>
      <rect>
        39 25 7 2</rect></_>
    <_>
      <rect>
        40 10 2 4</rect></_>
    <_>
      <rect>
        40 13 2 4</rect></_>
    <_>
      <rect>
        40 14 3 2</rect></_>
    <_>
      <rect>
        40 17 3 2</rect></_>
    <_>
      <rect>
        40 19 1 1</rect></_>
    <_>
      <rect>
        40 26 5 2</rect></_>
    <_>
      <rect>
        41 5 7 4</rect></_>
    <_>
      <rect>
        41 8 2 5</rect></_>
    <_>
      <rect>
        41 14 4 2</rect></_>
    <_>
      <rect>
        41 16 3 3</rect></_>
    <_>
      <rect>
        41 18 8 4</rect></_>
    <_>
      <rect>
        41 19 2 3</rect></_>
    <_>
      <rect>
        41 23 8 3</rect></_>
    <_>
      <rect>
        42 14 2 3</rect></_>
    <_>
      <rect>
        42 18 2 2</rect></_>
    <_>
      <rect>
        42 20 3 2</rect></_>
    <_>
      <rect>
        43 16 2 3</rect></_>
    <_>
      <rect>
        43 22 7 2</rect></_>
    <_>
      <rect>
        43 25 4 2</rect></_>
    <_>
      <rect>
        44 11 2 1</rect></_>
    <_>
      <rect>
        44 17 2 2</rect></_>
    <_>
      <rect>
        48 24 3 2</rect></_></features></cascade>
</opencv_storage>
