<?xml version="1.0"?>
<opencv_storage>
<cascade>
  <stageType>BOOST</stageType>
  <featureType>HAAR</featureType>
  <height>20</height>
  <width>20</width>
  <stageParams>
    <boostType>GAB</boostType>
    <minHitRate>9.9500000476837158e-01</minHitRate>
    <maxFalseAlarm>5.0000000000000000e-01</maxFalseAlarm>
    <weightTrimRate>9.4999999999999996e-01</weightTrimRate>
    <maxDepth>1</maxDepth>
    <maxWeakCount>100</maxWeakCount></stageParams>
  <featureParams>
    <maxCatCount>0</maxCatCount>
    <featSize>1</featSize>
    <mode>BASIC</mode></featureParams>
  <stageNum>12</stageNum>
  <stages>
    <!-- stage 0 -->
    <_>
      <maxWeakCount>2</maxWeakCount>
      <stageThreshold>-3.3400133252143860e-02</stageThreshold>
      <weakClassifiers>
        <_>
          <internalNodes>
            0 -1 43 5.2696210332214832e-03</internalNodes>
          <leafValues>
            -8.6493504047393799e-01 7.4708521366119385e-01</leafValues></_>
        <_>
          <internalNodes>
            0 -1 49 2.8627164661884308e-02</internalNodes>
          <leafValues>
            -6.6237950325012207e-01 8.3153492212295532e-01</leafValues></_></weakClassifiers></_>
    <!-- stage 1 -->
    <_>
      <maxWeakCount>4</maxWeakCount>
      <stageThreshold>-2.2358892858028412e-01</stageThreshold>
      <weakClassifiers>
        <_>
          <internalNodes>
            0 -1 32 6.1711724847555161e-02</internalNodes>
          <leafValues>
            -4.5077720284461975e-01 8.2627576589584351e-01</leafValues></_>
        <_>
          <internalNodes>
            0 -1 1 7.2153219953179359e-03</internalNodes>
          <leafValues>
            -4.4117203354835510e-01 6.8343752622604370e-01</leafValues></_>
        <_>
          <internalNodes>
            0 -1 42 -1.0381145402789116e-03</internalNodes>
          <leafValues>
            4.2809459567070007e-01 -7.9575341939926147e-01</leafValues></_>
        <_>
          <internalNodes>
            0 -1 55 2.7536574634723365e-04</internalNodes>
          <leafValues>
            -8.1220233440399170e-01 3.3950418233871460e-01</leafValues></_></weakClassifiers></_>
    <!-- stage 2 -->
    <_>
      <maxWeakCount>5</maxWeakCount>
      <stageThreshold>-6.5315824747085571e-01</stageThreshold>
      <weakClassifiers>
        <_>
          <internalNodes>
            0 -1 17 -7.6172918081283569e-02</internalNodes>
          <leafValues>
            8.2435595989227295e-01 -3.1578946113586426e-01</leafValues></_>
        <_>
          <internalNodes>
            0 -1 11 9.7953364253044128e-02</internalNodes>
          <leafValues>
            -6.8081611394882202e-01 5.0996643304824829e-01</leafValues></_>
        <_>
          <internalNodes>
            0 -1 79 -8.6525939404964447e-03</internalNodes>
          <leafValues>
            8.2651638984680176e-01 -3.6022207140922546e-01</leafValues></_>
        <_>
          <internalNodes>
            0 -1 60 -3.5857739858329296e-03</internalNodes>
          <leafValues>
            4.6544268727302551e-01 -5.0697726011276245e-01</leafValues></_>
        <_>
          <internalNodes>
            0 -1 13 -4.7034409362822771e-04</internalNodes>
          <leafValues>
            -8.0391627550125122e-01 2.3822671175003052e-01</leafValues></_></weakClassifiers></_>
    <!-- stage 3 -->
    <_>
      <maxWeakCount>6</maxWeakCount>
      <stageThreshold>-1.1410820484161377e+00</stageThreshold>
      <weakClassifiers>
        <_>
          <internalNodes>
            0 -1 80 -5.8256164193153381e-03</internalNodes>
          <leafValues>
            8.6294418573379517e-01 -2.5280898809432983e-01</leafValues></_>
        <_>
          <internalNodes>
            0 -1 5 7.2868596762418747e-03</internalNodes>
          <leafValues>
            -3.6317691206932068e-01 7.6044344902038574e-01</leafValues></_>
        <_>
          <internalNodes>
            0 -1 31 -4.9730511382222176e-03</internalNodes>
          <leafValues>
            4.9525436758995056e-01 -5.4071235656738281e-01</leafValues></_>
        <_>
          <internalNodes>
            0 -1 44 5.6961365044116974e-04</internalNodes>
          <leafValues>
            2.5811037421226501e-01 -9.4508367776870728e-01</leafValues></_>
        <_>
          <internalNodes>
            0 -1 73 -3.3463777508586645e-03</internalNodes>
          <leafValues>
            5.0426352024078369e-01 -4.6638980507850647e-01</leafValues></_>
        <_>
          <internalNodes>
            0 -1 52 4.4868560507893562e-03</internalNodes>
          <leafValues>
            -8.5708647966384888e-01 2.2389568388462067e-01</leafValues></_></weakClassifiers></_>
    <!-- stage 4 -->
    <_>
      <maxWeakCount>7</maxWeakCount>
      <stageThreshold>-1.1803290843963623e+00</stageThreshold>
      <weakClassifiers>
        <_>
          <internalNodes>
            0 -1 25 9.2318020761013031e-02</internalNodes>
          <leafValues>
            -2.8960001468658447e-01 7.7828574180603027e-01</leafValues></_>
        <_>
          <internalNodes>
            0 -1 81 -7.8380145132541656e-03</internalNodes>
          <leafValues>
            7.9452818632125854e-01 -2.2555500268936157e-01</leafValues></_>
        <_>
          <internalNodes>
            0 -1 6 7.2782272472977638e-03</internalNodes>
          <leafValues>
            -2.8697931766510010e-01 7.3381328582763672e-01</leafValues></_>
        <_>
          <internalNodes>
            0 -1 28 1.0060773231089115e-02</internalNodes>
          <leafValues>
            -6.4520436525344849e-01 3.2669106125831604e-01</leafValues></_>
        <_>
          <internalNodes>
            0 -1 62 -1.5736779198050499e-02</internalNodes>
          <leafValues>
            -7.5341075658798218e-01 2.7299374341964722e-01</leafValues></_>
        <_>
          <internalNodes>
            0 -1 35 7.6715759932994843e-03</internalNodes>
          <leafValues>
            -2.7266481518745422e-01 7.2760254144668579e-01</leafValues></_>
        <_>
          <internalNodes>
            0 -1 47 -9.0775964781641960e-04</internalNodes>
          <leafValues>
            -7.5411188602447510e-01 2.7599802613258362e-01</leafValues></_></weakClassifiers></_>
    <!-- stage 5 -->
    <_>
      <maxWeakCount>7</maxWeakCount>
      <stageThreshold>-1.2008876800537109e+00</stageThreshold>
      <weakClassifiers>
        <_>
          <internalNodes>
            0 -1 4 2.8674528002738953e-03</internalNodes>
          <leafValues>
            -7.0093458890914917e-01 6.1492788791656494e-01</leafValues></_>
        <_>
          <internalNodes>
            0 -1 48 2.1551758982241154e-03</internalNodes>
          <leafValues>
            -4.0861359238624573e-01 7.3325699567794800e-01</leafValues></_>
        <_>
          <internalNodes>
            0 -1 83 -5.1164836622774601e-03</internalNodes>
          <leafValues>
            7.5577378273010254e-01 -3.1918093562126160e-01</leafValues></_>
        <_>
          <internalNodes>
            0 -1 59 4.7299680300056934e-03</internalNodes>
          <leafValues>
            -3.8681113719940186e-01 5.4056823253631592e-01</leafValues></_>
        <_>
          <internalNodes>
            0 -1 38 6.5645729191601276e-03</internalNodes>
          <leafValues>
            -7.0195949077606201e-01 2.9777196049690247e-01</leafValues></_>
        <_>
          <internalNodes>
            0 -1 75 -5.3069582208991051e-03</internalNodes>
          <leafValues>
            6.7341941595077515e-01 -3.1942403316497803e-01</leafValues></_>
        <_>
          <internalNodes>
            0 -1 64 -9.9921843502670527e-04</internalNodes>
          <leafValues>
            3.2017356157302856e-01 -6.0884076356887817e-01</leafValues></_></weakClassifiers></_>
    <!-- stage 6 -->
    <_>
      <maxWeakCount>7</maxWeakCount>
      <stageThreshold>-5.6975352764129639e-01</stageThreshold>
      <weakClassifiers>
        <_>
          <internalNodes>
            0 -1 57 2.5208126753568649e-02</internalNodes>
          <leafValues>
            -2.6837608218193054e-01 7.1803277730941772e-01</leafValues></_>
        <_>
          <internalNodes>
            0 -1 8 8.0328956246376038e-03</internalNodes>
          <leafValues>
            -3.1592926383018494e-01 6.3000696897506714e-01</leafValues></_>
        <_>
          <internalNodes>
            0 -1 82 -8.8249091058969498e-03</internalNodes>
          <leafValues>
            6.2747156620025635e-01 -3.2962968945503235e-01</leafValues></_>
        <_>
          <internalNodes>
            0 -1 22 -7.3736365884542465e-03</internalNodes>
          <leafValues>
            -7.5011879205703735e-01 2.7423414587974548e-01</leafValues></_>
        <_>
          <internalNodes>
            0 -1 24 2.2434815764427185e-03</internalNodes>
          <leafValues>
            1.6104210913181305e-01 -9.2430019378662109e-01</leafValues></_>
        <_>
          <internalNodes>
            0 -1 66 3.3982896711677313e-03</internalNodes>
          <leafValues>
            -3.9288148283958435e-01 4.5278075337409973e-01</leafValues></_>
        <_>
          <internalNodes>
            0 -1 72 -3.6715939640998840e-03</internalNodes>
          <leafValues>
            4.8047742247581482e-01 -3.9299127459526062e-01</leafValues></_></weakClassifiers></_>
    <!-- stage 7 -->
    <_>
      <maxWeakCount>9</maxWeakCount>
      <stageThreshold>-8.4182578325271606e-01</stageThreshold>
      <weakClassifiers>
        <_>
          <internalNodes>
            0 -1 30 -1.9061178900301456e-03</internalNodes>
          <leafValues>
            -5.9863942861557007e-01 5.6053066253662109e-01</leafValues></_>
        <_>
          <internalNodes>
            0 -1 77 1.9957758486270905e-02</internalNodes>
          <leafValues>
            -3.6770811676979065e-01 6.2150353193283081e-01</leafValues></_>
        <_>
          <internalNodes>
            0 -1 56 -7.1380715817213058e-03</internalNodes>
          <leafValues>
            8.9547169208526611e-01 -1.8585826456546783e-01</leafValues></_>
        <_>
          <internalNodes>
            0 -1 10 2.6318512856960297e-02</internalNodes>
          <leafValues>
            -3.9115741848945618e-01 4.0424394607543945e-01</leafValues></_>
        <_>
          <internalNodes>
            0 -1 61 -3.3623087801970541e-05</internalNodes>
          <leafValues>
            2.5306674838066101e-01 -7.0278370380401611e-01</leafValues></_>
        <_>
          <internalNodes>
            0 -1 50 8.2204351201653481e-04</internalNodes>
          <leafValues>
            1.7953038215637207e-01 -8.6006146669387817e-01</leafValues></_>
        <_>
          <internalNodes>
            0 -1 3 -5.3522814996540546e-03</internalNodes>
          <leafValues>
            5.7551747560501099e-01 -2.9784950613975525e-01</leafValues></_>
        <_>
          <internalNodes>
            0 -1 71 1.0399335587862879e-04</internalNodes>
          <leafValues>
            -4.8560047149658203e-01 3.3596217632293701e-01</leafValues></_>
        <_>
          <internalNodes>
            0 -1 41 -4.6352474018931389e-03</internalNodes>
          <leafValues>
            -7.6789337396621704e-01 2.3267009854316711e-01</leafValues></_></weakClassifiers></_>
    <!-- stage 8 -->
    <_>
      <maxWeakCount>9</maxWeakCount>
      <stageThreshold>-1.0750869512557983e+00</stageThreshold>
      <weakClassifiers>
        <_>
          <internalNodes>
            0 -1 58 2.6119113899767399e-03</internalNodes>
          <leafValues>
            5.0461536645889282e-01 -7.7999997138977051e-01</leafValues></_>
        <_>
          <internalNodes>
            0 -1 48 2.5537377223372459e-03</internalNodes>
          <leafValues>
            -3.8953843712806702e-01 5.7693105936050415e-01</leafValues></_>
        <_>
          <internalNodes>
            0 -1 37 3.3535058610141277e-03</internalNodes>
          <leafValues>
            -7.6753240823745728e-01 2.9299515485763550e-01</leafValues></_>
        <_>
          <internalNodes>
            0 -1 34 -6.9649443030357361e-02</internalNodes>
          <leafValues>
            4.1744142770767212e-01 -4.1604223847389221e-01</leafValues></_>
        <_>
          <internalNodes>
            0 -1 68 -7.2182691656053066e-03</internalNodes>
          <leafValues>
            -7.9209357500076294e-01 1.8351240456104279e-01</leafValues></_>
        <_>
          <internalNodes>
            0 -1 12 -3.8906391710042953e-03</internalNodes>
          <leafValues>
            6.1214470863342285e-01 -2.5225353240966797e-01</leafValues></_>
        <_>
          <internalNodes>
            0 -1 69 8.5199251770973206e-05</internalNodes>
          <leafValues>
            -5.8609849214553833e-01 2.6578971743583679e-01</leafValues></_>
        <_>
          <internalNodes>
            0 -1 67 -4.7537090722471476e-04</internalNodes>
          <leafValues>
            4.4625613093376160e-01 -3.7832853198051453e-01</leafValues></_>
        <_>
          <internalNodes>
            0 -1 39 1.1880074162036180e-03</internalNodes>
          <leafValues>
            1.7469066381454468e-01 -9.1085970401763916e-01</leafValues></_></weakClassifiers></_>
    <!-- stage 9 -->
    <_>
      <maxWeakCount>10</maxWeakCount>
      <stageThreshold>-6.0273903608322144e-01</stageThreshold>
      <weakClassifiers>
        <_>
          <internalNodes>
            0 -1 78 -5.2675111219286919e-03</internalNodes>
          <leafValues>
            7.0506912469863892e-01 -1.7721518874168396e-01</leafValues></_>
        <_>
          <internalNodes>
            0 -1 63 -1.8124270718544722e-03</internalNodes>
          <leafValues>
            3.4338596463203430e-01 -6.0472947359085083e-01</leafValues></_>
        <_>
          <internalNodes>
            0 -1 2 9.0106017887592316e-03</internalNodes>
          <leafValues>
            -4.9745592474937439e-01 3.4070256352424622e-01</leafValues></_>
        <_>
          <internalNodes>
            0 -1 21 1.0895601473748684e-02</internalNodes>
          <leafValues>
            -6.1996358633041382e-01 2.5006225705146790e-01</leafValues></_>
        <_>
          <internalNodes>
            0 -1 18 -5.8436905965209007e-03</internalNodes>
          <leafValues>
            -7.3474669456481934e-01 1.8359521031379700e-01</leafValues></_>
        <_>
          <internalNodes>
            0 -1 16 3.1430095434188843e-02</internalNodes>
          <leafValues>
            1.4618135988712311e-01 -9.2489475011825562e-01</leafValues></_>
        <_>
          <internalNodes>
            0 -1 45 2.9215827817097306e-04</internalNodes>
          <leafValues>
            1.4778700470924377e-01 -7.9461067914962769e-01</leafValues></_>
        <_>
          <internalNodes>
            0 -1 14 -5.8248331770300865e-03</internalNodes>
          <leafValues>
            6.3034427165985107e-01 -2.5910395383834839e-01</leafValues></_>
        <_>
          <internalNodes>
            0 -1 51 9.4812933821231127e-04</internalNodes>
          <leafValues>
            2.0704072713851929e-01 -7.4399483203887939e-01</leafValues></_>
        <_>
          <internalNodes>
            0 -1 23 -5.3943283855915070e-03</internalNodes>
          <leafValues>
            -8.1278872489929199e-01 1.5592695772647858e-01</leafValues></_></weakClassifiers></_>
    <!-- stage 10 -->
    <_>
      <maxWeakCount>11</maxWeakCount>
      <stageThreshold>-1.1720529794692993e+00</stageThreshold>
      <weakClassifiers>
        <_>
          <internalNodes>
            0 -1 48 3.4151431173086166e-03</internalNodes>
          <leafValues>
            -4.5066989958286285e-02 7.9086893796920776e-01</leafValues></_>
        <_>
          <internalNodes>
            0 -1 19 -3.1939945183694363e-03</internalNodes>
          <leafValues>
            -7.8756010532379150e-01 2.8042137622833252e-01</leafValues></_>
        <_>
          <internalNodes>
            0 -1 26 -1.1297476885374635e-04</internalNodes>
          <leafValues>
            -7.1082085371017456e-01 1.9656391441822052e-01</leafValues></_>
        <_>
          <internalNodes>
            0 -1 27 -7.9010389745235443e-03</internalNodes>
          <leafValues>
            -7.9126805067062378e-01 1.6749507188796997e-01</leafValues></_>
        <_>
          <internalNodes>
            0 -1 70 6.0690217651426792e-03</internalNodes>
          <leafValues>
            -3.6034247279167175e-01 4.6127468347549438e-01</leafValues></_>
        <_>
          <internalNodes>
            0 -1 41 1.0933886514976621e-03</internalNodes>
          <leafValues>
            2.1569719910621643e-01 -7.1574097871780396e-01</leafValues></_>
        <_>
          <internalNodes>
            0 -1 46 -1.2939235894009471e-03</internalNodes>
          <leafValues>
            2.4387203156948090e-01 -5.4702866077423096e-01</leafValues></_>
        <_>
          <internalNodes>
            0 -1 45 -1.0789374820888042e-02</internalNodes>
          <leafValues>
            -8.3193123340606689e-01 1.2289128452539444e-01</leafValues></_>
        <_>
          <internalNodes>
            0 -1 33 -3.3067844808101654e-02</internalNodes>
          <leafValues>
            8.6116707324981689e-01 -1.8920017778873444e-01</leafValues></_>
        <_>
          <internalNodes>
            0 -1 7 8.2808807492256165e-03</internalNodes>
          <leafValues>
            -2.7793559432029724e-01 5.0962567329406738e-01</leafValues></_>
        <_>
          <internalNodes>
            0 -1 65 -4.9008261412382126e-03</internalNodes>
          <leafValues>
            -6.8625420331954956e-01 1.9589023292064667e-01</leafValues></_></weakClassifiers></_>
    <!-- stage 11 -->
    <_>
      <maxWeakCount>11</maxWeakCount>
      <stageThreshold>-9.9354761838912964e-01</stageThreshold>
      <weakClassifiers>
        <_>
          <internalNodes>
            0 -1 53 4.3444335460662842e-03</internalNodes>
          <leafValues>
            -3.6492890119552612e-01 6.0667902231216431e-01</leafValues></_>
        <_>
          <internalNodes>
            0 -1 0 6.3369758427143097e-03</internalNodes>
          <leafValues>
            -5.6916701793670654e-01 3.7269735336303711e-01</leafValues></_>
        <_>
          <internalNodes>
            0 -1 9 -1.0400219261646271e-01</internalNodes>
          <leafValues>
            4.5996940135955811e-01 -3.6544898152351379e-01</leafValues></_>
        <_>
          <internalNodes>
            0 -1 76 -1.0203987360000610e-02</internalNodes>
          <leafValues>
            5.1774615049362183e-01 -2.5052890181541443e-01</leafValues></_>
        <_>
          <internalNodes>
            0 -1 40 4.6250491868704557e-04</internalNodes>
          <leafValues>
            1.7852704226970673e-01 -8.6713427305221558e-01</leafValues></_>
        <_>
          <internalNodes>
            0 -1 20 4.5651872642338276e-03</internalNodes>
          <leafValues>
            -8.4236681461334229e-01 7.9537637531757355e-02</leafValues></_>
        <_>
          <internalNodes>
            0 -1 29 -1.9106331455986947e-04</internalNodes>
          <leafValues>
            -8.2773721218109131e-01 1.2997151911258698e-01</leafValues></_>
        <_>
          <internalNodes>
            0 -1 54 7.2023053653538227e-03</internalNodes>
          <leafValues>
            -5.8705008029937744e-01 2.2421881556510925e-01</leafValues></_>
        <_>
          <internalNodes>
            0 -1 74 -1.4789408305659890e-03</internalNodes>
          <leafValues>
            3.3491784334182739e-01 -4.3527072668075562e-01</leafValues></_>
        <_>
          <internalNodes>
            0 -1 36 1.5301253646612167e-02</internalNodes>
          <leafValues>
            -1.5802070498466492e-01 9.1013342142105103e-01</leafValues></_>
        <_>
          <internalNodes>
            0 -1 15 -4.9478467553853989e-03</internalNodes>
          <leafValues>
            6.2421488761901855e-01 -2.3262596130371094e-01</leafValues></_></weakClassifiers></_></stages>
  <features>
    <_>
      <rects>
        <_>
          0 8 9 8 -1.</_>
        <_>
          3 8 3 8 3.</_></rects>
      <tilted>0</tilted></_>
    <_>
      <rects>
        <_>
          0 10 4 3 -1.</_>
        <_>
          2 10 2 3 2.</_></rects>
      <tilted>0</tilted></_>
    <_>
      <rects>
        <_>
          0 10 6 3 -1.</_>
        <_>
          2 10 2 3 3.</_></rects>
      <tilted>0</tilted></_>
    <_>
      <rects>
        <_>
          0 12 3 3 -1.</_>
        <_>
          1 12 1 3 3.</_></rects>
      <tilted>0</tilted></_>
    <_>
      <rects>
        <_>
          1 7 12 2 -1.</_>
        <_>
          5 7 4 2 3.</_></rects>
      <tilted>0</tilted></_>
    <_>
      <rects>
        <_>
          1 8 2 6 -1.</_>
        <_>
          2 8 1 6 2.</_></rects>
      <tilted>0</tilted></_>
    <_>
      <rects>
        <_>
          1 9 3 3 -1.</_>
        <_>
          2 9 1 3 3.</_></rects>
      <tilted>0</tilted></_>
    <_>
      <rects>
        <_>
          1 9 2 4 -1.</_>
        <_>
          2 9 1 4 2.</_></rects>
      <tilted>0</tilted></_>
    <_>
      <rects>
        <_>
          1 9 2 5 -1.</_>
        <_>
          2 9 1 5 2.</_></rects>
      <tilted>0</tilted></_>
    <_>
      <rects>
        <_>
          1 14 15 6 -1.</_>
        <_>
          1 17 15 3 2.</_></rects>
      <tilted>0</tilted></_>
    <_>
      <rects>
        <_>
          2 1 2 18 -1.</_>
        <_>
          2 7 2 6 3.</_></rects>
      <tilted>0</tilted></_>
    <_>
      <rects>
        <_>
          2 2 16 14 -1.</_>
        <_>
          2 9 16 7 2.</_></rects>
      <tilted>0</tilted></_>
    <_>
      <rects>
        <_>
          2 7 2 4 -1.</_>
        <_>
          2 7 1 2 2.</_>
        <_>
          3 9 1 2 2.</_></rects>
      <tilted>0</tilted></_>
    <_>
      <rects>
        <_>
          2 7 3 4 -1.</_>
        <_>
          2 9 3 2 2.</_></rects>
      <tilted>0</tilted></_>
    <_>
      <rects>
        <_>
          2 9 3 3 -1.</_>
        <_>
          3 9 1 3 3.</_></rects>
      <tilted>0</tilted></_>
    <_>
      <rects>
        <_>
          2 9 3 4 -1.</_>
        <_>
          3 9 1 4 3.</_></rects>
      <tilted>0</tilted></_>
    <_>
      <rects>
        <_>
          3 6 8 8 -1.</_>
        <_>
          7 6 4 8 2.</_></rects>
      <tilted>0</tilted></_>
    <_>
      <rects>
        <_>
          3 14 14 6 -1.</_>
        <_>
          3 17 14 3 2.</_></rects>
      <tilted>0</tilted></_>
    <_>
      <rects>
        <_>
          4 7 9 5 -1.</_>
        <_>
          7 7 3 5 3.</_></rects>
      <tilted>0</tilted></_>
    <_>
      <rects>
        <_>
          4 10 2 4 -1.</_>
        <_>
          4 12 2 2 2.</_></rects>
      <tilted>0</tilted></_>
    <_>
      <rects>
        <_>
          5 4 8 4 -1.</_>
        <_>
          5 6 8 2 2.</_></rects>
      <tilted>0</tilted></_>
    <_>
      <rects>
        <_>
          5 4 9 4 -1.</_>
        <_>
          5 6 9 2 2.</_></rects>
      <tilted>0</tilted></_>
    <_>
      <rects>
        <_>
          5 5 6 2 -1.</_>
        <_>
          8 5 3 2 2.</_></rects>
      <tilted>0</tilted></_>
    <_>
      <rects>
        <_>
          5 6 6 1 -1.</_>
        <_>
          8 6 3 1 2.</_></rects>
      <tilted>0</tilted></_>
    <_>
      <rects>
        <_>
          5 6 6 2 -1.</_>
        <_>
          8 6 3 2 2.</_></rects>
      <tilted>0</tilted></_>
    <_>
      <rects>
        <_>
          5 10 10 9 -1.</_>
        <_>
          5 13 10 3 3.</_></rects>
      <tilted>0</tilted></_>
    <_>
      <rects>
        <_>
          5 14 6 2 -1.</_>
        <_>
          8 14 3 2 2.</_></rects>
      <tilted>0</tilted></_>
    <_>
      <rects>
        <_>
          6 4 6 2 -1.</_>
        <_>
          9 4 3 2 2.</_></rects>
      <tilted>0</tilted></_>
    <_>
      <rects>
        <_>
          6 4 3 6 -1.</_>
        <_>
          6 7 3 3 2.</_></rects>
      <tilted>0</tilted></_>
    <_>
      <rects>
        <_>
          6 8 7 8 -1.</_>
        <_>
          6 12 7 4 2.</_></rects>
      <tilted>0</tilted></_>
    <_>
      <rects>
        <_>
          6 9 9 2 -1.</_>
        <_>
          9 9 3 2 3.</_></rects>
      <tilted>0</tilted></_>
    <_>
      <rects>
        <_>
          6 9 5 6 -1.</_>
        <_>
          6 11 5 2 3.</_></rects>
      <tilted>0</tilted></_>
    <_>
      <rects>
        <_>
          6 10 8 9 -1.</_>
        <_>
          6 13 8 3 3.</_></rects>
      <tilted>0</tilted></_>
    <_>
      <rects>
        <_>
          6 13 8 4 -1.</_>
        <_>
          6 13 4 2 2.</_>
        <_>
          10 15 4 2 2.</_></rects>
      <tilted>0</tilted></_>
    <_>
      <rects>
        <_>
          6 14 7 6 -1.</_>
        <_>
          6 17 7 3 2.</_></rects>
      <tilted>0</tilted></_>
    <_>
      <rects>
        <_>
          6 15 3 3 -1.</_>
        <_>
          6 16 3 1 3.</_></rects>
      <tilted>0</tilted></_>
    <_>
      <rects>
        <_>
          6 15 5 3 -1.</_>
        <_>
          6 16 5 1 3.</_></rects>
      <tilted>0</tilted></_>
    <_>
      <rects>
        <_>
          7 4 5 9 -1.</_>
        <_>
          7 7 5 3 3.</_></rects>
      <tilted>0</tilted></_>
    <_>
      <rects>
        <_>
          7 4 7 4 -1.</_>
        <_>
          7 6 7 2 2.</_></rects>
      <tilted>0</tilted></_>
    <_>
      <rects>
        <_>
          7 5 2 2 -1.</_>
        <_>
          8 5 1 2 2.</_></rects>
      <tilted>0</tilted></_>
    <_>
      <rects>
        <_>
          8 4 2 4 -1.</_>
        <_>
          9 4 1 4 2.</_></rects>
      <tilted>0</tilted></_>
    <_>
      <rects>
        <_>
          8 4 4 2 -1.</_>
        <_>
          10 4 2 2 2.</_></rects>
      <tilted>0</tilted></_>
    <_>
      <rects>
        <_>
          8 4 6 5 -1.</_>
        <_>
          10 4 2 5 3.</_></rects>
      <tilted>0</tilted></_>
    <_>
      <rects>
        <_>
          8 4 3 6 -1.</_>
        <_>
          8 7 3 3 2.</_></rects>
      <tilted>0</tilted></_>
    <_>
      <rects>
        <_>
          8 5 2 2 -1.</_>
        <_>
          9 5 1 2 2.</_></rects>
      <tilted>0</tilted></_>
    <_>
      <rects>
        <_>
          8 5 6 2 -1.</_>
        <_>
          10 5 2 2 3.</_></rects>
      <tilted>0</tilted></_>
    <_>
      <rects>
        <_>
          8 7 6 1 -1.</_>
        <_>
          10 7 2 1 3.</_></rects>
      <tilted>0</tilted></_>
    <_>
      <rects>
        <_>
          8 8 1 8 -1.</_>
        <_>
          8 12 1 4 2.</_></rects>
      <tilted>0</tilted></_>
    <_>
      <rects>
        <_>
          8 10 3 1 -1.</_>
        <_>
          9 10 1 1 3.</_></rects>
      <tilted>0</tilted></_>
    <_>
      <rects>
        <_>
          8 12 5 6 -1.</_>
        <_>
          8 14 5 2 3.</_></rects>
      <tilted>0</tilted></_>
    <_>
      <rects>
        <_>
          9 4 2 2 -1.</_>
        <_>
          10 4 1 2 2.</_></rects>
      <tilted>0</tilted></_>
    <_>
      <rects>
        <_>
          9 4 2 6 -1.</_>
        <_>
          9 6 2 2 3.</_></rects>
      <tilted>0</tilted></_>
    <_>
      <rects>
        <_>
          9 5 2 9 -1.</_>
        <_>
          9 8 2 3 3.</_></rects>
      <tilted>0</tilted></_>
    <_>
      <rects>
        <_>
          9 7 1 6 -1.</_>
        <_>
          9 9 1 2 3.</_></rects>
      <tilted>0</tilted></_>
    <_>
      <rects>
        <_>
          9 7 4 6 -1.</_>
        <_>
          9 9 4 2 3.</_></rects>
      <tilted>0</tilted></_>
    <_>
      <rects>
        <_>
          9 8 1 2 -1.</_>
        <_>
          9 9 1 1 2.</_></rects>
      <tilted>0</tilted></_>
    <_>
      <rects>
        <_>
          9 10 3 2 -1.</_>
        <_>
          10 10 1 2 3.</_></rects>
      <tilted>0</tilted></_>
    <_>
      <rects>
        <_>
          9 12 3 6 -1.</_>
        <_>
          9 14 3 2 3.</_></rects>
      <tilted>0</tilted></_>
    <_>
      <rects>
        <_>
          9 13 6 3 -1.</_>
        <_>
          12 13 3 3 2.</_></rects>
      <tilted>0</tilted></_>
    <_>
      <rects>
        <_>
          9 14 3 3 -1.</_>
        <_>
          9 15 3 1 3.</_></rects>
      <tilted>0</tilted></_>
    <_>
      <rects>
        <_>
          9 15 3 2 -1.</_>
        <_>
          9 16 3 1 2.</_></rects>
      <tilted>0</tilted></_>
    <_>
      <rects>
        <_>
          10 4 1 6 -1.</_>
        <_>
          10 6 1 2 3.</_></rects>
      <tilted>0</tilted></_>
    <_>
      <rects>
        <_>
          10 7 8 6 -1.</_>
        <_>
          14 7 4 6 2.</_></rects>
      <tilted>0</tilted></_>
    <_>
      <rects>
        <_>
          10 15 2 2 -1.</_>
        <_>
          10 16 2 1 2.</_></rects>
      <tilted>0</tilted></_>
    <_>
      <rects>
        <_>
          11 5 4 10 -1.</_>
        <_>
          11 5 2 5 2.</_>
        <_>
          13 10 2 5 2.</_></rects>
      <tilted>0</tilted></_>
    <_>
      <rects>
        <_>
          12 4 6 5 -1.</_>
        <_>
          14 4 2 5 3.</_></rects>
      <tilted>0</tilted></_>
    <_>
      <rects>
        <_>
          12 4 4 2 -1.</_>
        <_>
          12 5 4 1 2.</_></rects>
      <tilted>0</tilted></_>
    <_>
      <rects>
        <_>
          12 10 2 1 -1.</_>
        <_>
          13 10 1 1 2.</_></rects>
      <tilted>0</tilted></_>
    <_>
      <rects>
        <_>
          13 5 4 7 -1.</_>
        <_>
          15 5 2 7 2.</_></rects>
      <tilted>0</tilted></_>
    <_>
      <rects>
        <_>
          14 5 1 2 -1.</_>
        <_>
          14 6 1 1 2.</_></rects>
      <tilted>0</tilted></_>
    <_>
      <rects>
        <_>
          16 8 3 5 -1.</_>
        <_>
          17 8 1 5 3.</_></rects>
      <tilted>0</tilted></_>
    <_>
      <rects>
        <_>
          16 11 1 3 -1.</_>
        <_>
          16 12 1 1 3.</_></rects>
      <tilted>0</tilted></_>
    <_>
      <rects>
        <_>
          17 6 3 8 -1.</_>
        <_>
          18 6 1 8 3.</_></rects>
      <tilted>0</tilted></_>
    <_>
      <rects>
        <_>
          17 7 2 5 -1.</_>
        <_>
          18 7 1 5 2.</_></rects>
      <tilted>0</tilted></_>
    <_>
      <rects>
        <_>
          17 8 2 3 -1.</_>
        <_>
          18 8 1 3 2.</_></rects>
      <tilted>0</tilted></_>
    <_>
      <rects>
        <_>
          17 8 3 5 -1.</_>
        <_>
          18 8 1 5 3.</_></rects>
      <tilted>0</tilted></_>
    <_>
      <rects>
        <_>
          18 2 2 10 -1.</_>
        <_>
          18 2 1 5 2.</_>
        <_>
          19 7 1 5 2.</_></rects>
      <tilted>0</tilted></_>
    <_>
      <rects>
        <_>
          18 3 1 15 -1.</_>
        <_>
          18 8 1 5 3.</_></rects>
      <tilted>0</tilted></_>
    <_>
      <rects>
        <_>
          18 7 2 5 -1.</_>
        <_>
          19 7 1 5 2.</_></rects>
      <tilted>0</tilted></_>
    <_>
      <rects>
        <_>
          18 8 2 4 -1.</_>
        <_>
          19 8 1 4 2.</_></rects>
      <tilted>0</tilted></_>
    <_>
      <rects>
        <_>
          18 8 2 5 -1.</_>
        <_>
          19 8 1 5 2.</_></rects>
      <tilted>0</tilted></_>
    <_>
      <rects>
        <_>
          18 9 2 3 -1.</_>
        <_>
          19 9 1 3 2.</_></rects>
      <tilted>0</tilted></_>
    <_>
      <rects>
        <_>
          18 9 2 5 -1.</_>
        <_>
          19 9 1 5 2.</_></rects>
      <tilted>0</tilted></_>
    <_>
      <rects>
        <_>
          18 10 2 2 -1.</_>
        <_>
          19 10 1 2 2.</_></rects>
      <tilted>0</tilted></_></features></cascade>
</opencv_storage>
