<?xml version="1.0"?>
<opencv_storage>
<cascade>
  <stageType>BOOST</stageType>
  <featureType>HAAR</featureType>
  <height>40</height>
  <width>120</width>
  <stageParams>
    <boostType>GAB</boostType>
    <minHitRate>9.9900001287460327e-01</minHitRate>
    <maxFalseAlarm>5.0000000000000000e-01</maxFalseAlarm>
    <weightTrimRate>9.4999999999999996e-01</weightTrimRate>
    <maxDepth>1</maxDepth>
    <maxWeakCount>100</maxWeakCount></stageParams>
  <featureParams>
    <maxCatCount>0</maxCatCount>
    <featSize>1</featSize>
    <mode>ALL</mode></featureParams>
  <stageNum>14</stageNum>
  <stages>
    <!-- stage 0 -->
    <_>
      <maxWeakCount>5</maxWeakCount>
      <stageThreshold>-1.6324023008346558e+00</stageThreshold>
      <weakClassifiers>
        <_>
          <internalNodes>
            0 -1 71 -4.7545437701046467e-03</internalNodes>
          <leafValues>
            8.0576920509338379e-01 -7.8214287757873535e-01</leafValues></_>
        <_>
          <internalNodes>
            0 -1 94 1.3406754005700350e-03</internalNodes>
          <leafValues>
            -5.2495604753494263e-01 7.3134726285934448e-01</leafValues></_>
        <_>
          <internalNodes>
            0 -1 70 1.2648226693272591e-03</internalNodes>
          <leafValues>
            -6.2493640184402466e-01 6.1554086208343506e-01</leafValues></_>
        <_>
          <internalNodes>
            0 -1 150 7.5371598359197378e-04</internalNodes>
          <leafValues>
            -4.8637136816978455e-01 6.6125237941741943e-01</leafValues></_>
        <_>
          <internalNodes>
            0 -1 24 -1.7537397070555016e-05</internalNodes>
          <leafValues>
            3.7180852890014648e-01 -8.0190759897232056e-01</leafValues></_></weakClassifiers></_>
    <!-- stage 1 -->
    <_>
      <maxWeakCount>8</maxWeakCount>
      <stageThreshold>-1.3040597438812256e+00</stageThreshold>
      <weakClassifiers>
        <_>
          <internalNodes>
            0 -1 37 7.1188937872648239e-03</internalNodes>
          <leafValues>
            -6.3157892227172852e-01 6.8913859128952026e-01</leafValues></_>
        <_>
          <internalNodes>
            0 -1 119 1.5416874084621668e-03</internalNodes>
          <leafValues>
            -4.8929688334465027e-01 5.2890086174011230e-01</leafValues></_>
        <_>
          <internalNodes>
            0 -1 82 4.9409577623009682e-03</internalNodes>
          <leafValues>
            -3.1994646787643433e-01 7.4352240562438965e-01</leafValues></_>
        <_>
          <internalNodes>
            0 -1 49 7.6702320948243141e-03</internalNodes>
          <leafValues>
            -4.0894547104835510e-01 5.5321049690246582e-01</leafValues></_>
        <_>
          <internalNodes>
            0 -1 171 1.6877049347385764e-03</internalNodes>
          <leafValues>
            -3.6702388525009155e-01 6.8225580453872681e-01</leafValues></_>
        <_>
          <internalNodes>
            0 -1 9 6.1183767393231392e-03</internalNodes>
          <leafValues>
            -3.1646287441253662e-01 7.0898604393005371e-01</leafValues></_>
        <_>
          <internalNodes>
            0 -1 130 -3.3679814077913761e-03</internalNodes>
          <leafValues>
            7.1258777379989624e-01 -3.1972333788871765e-01</leafValues></_>
        <_>
          <internalNodes>
            0 -1 79 1.6041807830333710e-03</internalNodes>
          <leafValues>
            -4.5340088009834290e-01 5.2346926927566528e-01</leafValues></_></weakClassifiers></_>
    <!-- stage 2 -->
    <_>
      <maxWeakCount>10</maxWeakCount>
      <stageThreshold>-1.3834177255630493e+00</stageThreshold>
      <weakClassifiers>
        <_>
          <internalNodes>
            0 -1 52 -1.2554044369608164e-03</internalNodes>
          <leafValues>
            7.2909307479858398e-01 -2.9161119461059570e-01</leafValues></_>
        <_>
          <internalNodes>
            0 -1 98 4.5320694334805012e-04</internalNodes>
          <leafValues>
            -5.6866145133972168e-01 4.3072837591171265e-01</leafValues></_>
        <_>
          <internalNodes>
            0 -1 141 -6.5138237550854683e-04</internalNodes>
          <leafValues>
            6.1690932512283325e-01 -3.8216629624366760e-01</leafValues></_>
        <_>
          <internalNodes>
            0 -1 38 1.0500375181436539e-02</internalNodes>
          <leafValues>
            -5.0468772649765015e-01 4.4755765795707703e-01</leafValues></_>
        <_>
          <internalNodes>
            0 -1 103 9.4219148159027100e-03</internalNodes>
          <leafValues>
            -3.5033428668975830e-01 6.6109591722488403e-01</leafValues></_>
        <_>
          <internalNodes>
            0 -1 32 -7.7646030113101006e-03</internalNodes>
          <leafValues>
            -8.8990449905395508e-01 2.9357206821441650e-01</leafValues></_>
        <_>
          <internalNodes>
            0 -1 131 1.1349369306117296e-03</internalNodes>
          <leafValues>
            -3.4523940086364746e-01 6.6083109378814697e-01</leafValues></_>
        <_>
          <internalNodes>
            0 -1 73 -3.3369339071214199e-03</internalNodes>
          <leafValues>
            6.9801104068756104e-01 -2.5060787796974182e-01</leafValues></_>
        <_>
          <internalNodes>
            0 -1 72 1.5367781743407249e-03</internalNodes>
          <leafValues>
            -2.2842003405094147e-01 8.0377483367919922e-01</leafValues></_>
        <_>
          <internalNodes>
            0 -1 90 -8.9033029507845640e-04</internalNodes>
          <leafValues>
            2.9249307513237000e-01 -8.0279046297073364e-01</leafValues></_></weakClassifiers></_>
    <!-- stage 3 -->
    <_>
      <maxWeakCount>10</maxWeakCount>
      <stageThreshold>-7.5850099325180054e-01</stageThreshold>
      <weakClassifiers>
        <_>
          <internalNodes>
            0 -1 77 -5.6636068038642406e-03</internalNodes>
          <leafValues>
            6.5199160575866699e-01 -3.4365326166152954e-01</leafValues></_>
        <_>
          <internalNodes>
            0 -1 7 -3.8159734103828669e-03</internalNodes>
          <leafValues>
            5.4070186614990234e-01 -3.7884128093719482e-01</leafValues></_>
        <_>
          <internalNodes>
            0 -1 128 -1.4596658293157816e-03</internalNodes>
          <leafValues>
            7.8928565979003906e-01 -2.5530877709388733e-01</leafValues></_>
        <_>
          <internalNodes>
            0 -1 63 4.1798255406320095e-03</internalNodes>
          <leafValues>
            -6.1618453264236450e-01 3.1166201829910278e-01</leafValues></_>
        <_>
          <internalNodes>
            0 -1 144 1.4331596903502941e-03</internalNodes>
          <leafValues>
            -3.1889140605926514e-01 5.4013627767562866e-01</leafValues></_>
        <_>
          <internalNodes>
            0 -1 4 8.1445528194308281e-03</internalNodes>
          <leafValues>
            -2.6615783572196960e-01 5.4030370712280273e-01</leafValues></_>
        <_>
          <internalNodes>
            0 -1 86 4.4266004115343094e-03</internalNodes>
          <leafValues>
            -1.6241909563541412e-01 7.6390343904495239e-01</leafValues></_>
        <_>
          <internalNodes>
            0 -1 65 -2.7129994705319405e-03</internalNodes>
          <leafValues>
            8.2313388586044312e-01 -1.7681229114532471e-01</leafValues></_>
        <_>
          <internalNodes>
            0 -1 34 1.9944435916841030e-03</internalNodes>
          <leafValues>
            -1.9006346166133881e-01 7.2401636838912964e-01</leafValues></_>
        <_>
          <internalNodes>
            0 -1 35 -1.3777806889265776e-03</internalNodes>
          <leafValues>
            -7.6588922739028931e-01 2.1552281081676483e-01</leafValues></_></weakClassifiers></_>
    <!-- stage 4 -->
    <_>
      <maxWeakCount>10</maxWeakCount>
      <stageThreshold>-1.0998543500900269e+00</stageThreshold>
      <weakClassifiers>
        <_>
          <internalNodes>
            0 -1 76 -3.6860834807157516e-03</internalNodes>
          <leafValues>
            5.3791886568069458e-01 -4.5064377784729004e-01</leafValues></_>
        <_>
          <internalNodes>
            0 -1 124 2.5050318799912930e-04</internalNodes>
          <leafValues>
            -3.4632739424705505e-01 5.2271163463592529e-01</leafValues></_>
        <_>
          <internalNodes>
            0 -1 111 1.1873614857904613e-04</internalNodes>
          <leafValues>
            -3.8234645128250122e-01 4.3048700690269470e-01</leafValues></_>
        <_>
          <internalNodes>
            0 -1 21 5.4355878382921219e-03</internalNodes>
          <leafValues>
            -2.3606388270854950e-01 5.9688997268676758e-01</leafValues></_>
        <_>
          <internalNodes>
            0 -1 22 1.2534366920590401e-02</internalNodes>
          <leafValues>
            2.3754614591598511e-01 -6.9893258810043335e-01</leafValues></_>
        <_>
          <internalNodes>
            0 -1 58 7.0623140782117844e-03</internalNodes>
          <leafValues>
            -3.7137308716773987e-01 4.6484473347663879e-01</leafValues></_>
        <_>
          <internalNodes>
            0 -1 46 -7.6502189040184021e-03</internalNodes>
          <leafValues>
            7.6994967460632324e-01 -2.2817386686801910e-01</leafValues></_>
        <_>
          <internalNodes>
            0 -1 53 3.6066789180040359e-03</internalNodes>
          <leafValues>
            3.1852519512176514e-01 -6.7161339521408081e-01</leafValues></_>
        <_>
          <internalNodes>
            0 -1 132 1.2453002855181694e-03</internalNodes>
          <leafValues>
            -2.5748538970947266e-01 7.0589321851730347e-01</leafValues></_>
        <_>
          <internalNodes>
            0 -1 13 2.5220874231308699e-03</internalNodes>
          <leafValues>
            -2.5255081057548523e-01 6.0017275810241699e-01</leafValues></_></weakClassifiers></_>
    <!-- stage 5 -->
    <_>
      <maxWeakCount>13</maxWeakCount>
      <stageThreshold>-1.0776711702346802e+00</stageThreshold>
      <weakClassifiers>
        <_>
          <internalNodes>
            0 -1 51 -3.2349301036447287e-03</internalNodes>
          <leafValues>
            6.6018158197402954e-01 -1.3148371875286102e-01</leafValues></_>
        <_>
          <internalNodes>
            0 -1 84 -5.7204894255846739e-04</internalNodes>
          <leafValues>
            5.2451503276824951e-01 -2.7957633137702942e-01</leafValues></_>
        <_>
          <internalNodes>
            0 -1 25 -4.1052876040339470e-03</internalNodes>
          <leafValues>
            -8.3682894706726074e-01 1.8513134121894836e-01</leafValues></_>
        <_>
          <internalNodes>
            0 -1 154 -1.0855505242943764e-03</internalNodes>
          <leafValues>
            4.6789503097534180e-01 -3.4525868296623230e-01</leafValues></_>
        <_>
          <internalNodes>
            0 -1 159 -8.4840599447488785e-04</internalNodes>
          <leafValues>
            6.6672343015670776e-01 -2.2851780056953430e-01</leafValues></_>
        <_>
          <internalNodes>
            0 -1 163 2.9527696315199137e-03</internalNodes>
          <leafValues>
            -1.6112715005874634e-01 7.8270280361175537e-01</leafValues></_>
        <_>
          <internalNodes>
            0 -1 156 -6.0308864340186119e-03</internalNodes>
          <leafValues>
            7.0622247457504272e-01 -2.1251434087753296e-01</leafValues></_>
        <_>
          <internalNodes>
            0 -1 109 1.7037532234098762e-04</internalNodes>
          <leafValues>
            2.6011234521865845e-01 -5.5725497007369995e-01</leafValues></_>
        <_>
          <internalNodes>
            0 -1 89 1.9353490322828293e-02</internalNodes>
          <leafValues>
            1.6623289883136749e-01 -9.5871937274932861e-01</leafValues></_>
        <_>
          <internalNodes>
            0 -1 135 1.4908155426383018e-02</internalNodes>
          <leafValues>
            1.0935372859239578e-01 -7.7789765596389771e-01</leafValues></_>
        <_>
          <internalNodes>
            0 -1 23 -5.6841522455215454e-03</internalNodes>
          <leafValues>
            7.9467082023620605e-01 -2.0439134538173676e-01</leafValues></_>
        <_>
          <internalNodes>
            0 -1 102 3.6855367943644524e-03</internalNodes>
          <leafValues>
            -2.0312172174453735e-01 5.8818829059600830e-01</leafValues></_>
        <_>
          <internalNodes>
            0 -1 11 1.4457765500992537e-03</internalNodes>
          <leafValues>
            1.7736870050430298e-01 -7.6050907373428345e-01</leafValues></_></weakClassifiers></_>
    <!-- stage 6 -->
    <_>
      <maxWeakCount>13</maxWeakCount>
      <stageThreshold>-1.0315469503402710e+00</stageThreshold>
      <weakClassifiers>
        <_>
          <internalNodes>
            0 -1 127 -3.0040089040994644e-03</internalNodes>
          <leafValues>
            7.3152339458465576e-01 -9.0715050697326660e-02</leafValues></_>
        <_>
          <internalNodes>
            0 -1 179 3.2075531780719757e-03</internalNodes>
          <leafValues>
            -1.5440806746482849e-01 6.9811874628067017e-01</leafValues></_>
        <_>
          <internalNodes>
            0 -1 48 3.2605412416160107e-03</internalNodes>
          <leafValues>
            -1.9098806381225586e-01 7.4940097332000732e-01</leafValues></_>
        <_>
          <internalNodes>
            0 -1 105 1.9601294770836830e-03</internalNodes>
          <leafValues>
            -6.8720042705535889e-01 2.3354598879814148e-01</leafValues></_>
        <_>
          <internalNodes>
            0 -1 101 1.3977373018860817e-03</internalNodes>
          <leafValues>
            -5.9818351268768311e-01 1.9239501655101776e-01</leafValues></_>
        <_>
          <internalNodes>
            0 -1 151 2.1408568136394024e-03</internalNodes>
          <leafValues>
            1.7802882194519043e-01 -7.9653114080429077e-01</leafValues></_>
        <_>
          <internalNodes>
            0 -1 158 -3.9292350993491709e-04</internalNodes>
          <leafValues>
            2.5849664211273193e-01 -5.0961047410964966e-01</leafValues></_>
        <_>
          <internalNodes>
            0 -1 67 1.3961391523480415e-02</internalNodes>
          <leafValues>
            1.6571171581745148e-01 -8.0073934793472290e-01</leafValues></_>
        <_>
          <internalNodes>
            0 -1 181 4.3999534100294113e-03</internalNodes>
          <leafValues>
            -2.4582110345363617e-01 5.8551561832427979e-01</leafValues></_>
        <_>
          <internalNodes>
            0 -1 10 4.9149417318403721e-03</internalNodes>
          <leafValues>
            -2.6533040404319763e-01 5.3194892406463623e-01</leafValues></_>
        <_>
          <internalNodes>
            0 -1 69 -4.5345071703195572e-03</internalNodes>
          <leafValues>
            6.6520386934280396e-01 -1.7844186723232269e-01</leafValues></_>
        <_>
          <internalNodes>
            0 -1 184 -3.2130600884556770e-03</internalNodes>
          <leafValues>
            6.8262398242950439e-01 -1.6356992721557617e-01</leafValues></_>
        <_>
          <internalNodes>
            0 -1 93 3.0523276655003428e-04</internalNodes>
          <leafValues>
            1.6821342706680298e-01 -7.7045059204101562e-01</leafValues></_></weakClassifiers></_>
    <!-- stage 7 -->
    <_>
      <maxWeakCount>13</maxWeakCount>
      <stageThreshold>-1.0395654439926147e+00</stageThreshold>
      <weakClassifiers>
        <_>
          <internalNodes>
            0 -1 78 -4.7226138412952423e-03</internalNodes>
          <leafValues>
            6.0045146942138672e-01 -1.8487395346164703e-01</leafValues></_>
        <_>
          <internalNodes>
            0 -1 148 4.0615716716274619e-04</internalNodes>
          <leafValues>
            -2.5509068369865417e-01 5.2452278137207031e-01</leafValues></_>
        <_>
          <internalNodes>
            0 -1 18 -2.1630758419632912e-03</internalNodes>
          <leafValues>
            4.6986749768257141e-01 -2.5670987367630005e-01</leafValues></_>
        <_>
          <internalNodes>
            0 -1 113 2.2316244430840015e-03</internalNodes>
          <leafValues>
            -2.2845354676246643e-01 6.0376757383346558e-01</leafValues></_>
        <_>
          <internalNodes>
            0 -1 100 -1.0805549100041389e-03</internalNodes>
          <leafValues>
            4.4795015454292297e-01 -2.6690456271171570e-01</leafValues></_>
        <_>
          <internalNodes>
            0 -1 62 7.4226446449756622e-03</internalNodes>
          <leafValues>
            1.4647382497787476e-01 -9.0675389766693115e-01</leafValues></_>
        <_>
          <internalNodes>
            0 -1 43 3.8603757275268435e-04</internalNodes>
          <leafValues>
            -4.7611519694328308e-01 2.6575705409049988e-01</leafValues></_>
        <_>
          <internalNodes>
            0 -1 36 -1.9038233440369368e-03</internalNodes>
          <leafValues>
            4.7122725844383240e-01 -2.9731556773185730e-01</leafValues></_>
        <_>
          <internalNodes>
            0 -1 152 -3.7277163937687874e-03</internalNodes>
          <leafValues>
            7.3204195499420166e-01 -1.7087422311306000e-01</leafValues></_>
        <_>
          <internalNodes>
            0 -1 133 -4.5928702456876636e-04</internalNodes>
          <leafValues>
            -8.0926215648651123e-01 1.8884272873401642e-01</leafValues></_>
        <_>
          <internalNodes>
            0 -1 31 -5.4401592351496220e-03</internalNodes>
          <leafValues>
            -7.9518759250640869e-01 1.2306624650955200e-01</leafValues></_>
        <_>
          <internalNodes>
            0 -1 19 6.2548049027100205e-04</internalNodes>
          <leafValues>
            -2.7439022064208984e-01 5.0306963920593262e-01</leafValues></_>
        <_>
          <internalNodes>
            0 -1 121 7.6361320680007339e-05</internalNodes>
          <leafValues>
            -3.6869072914123535e-01 3.2484263181686401e-01</leafValues></_></weakClassifiers></_>
    <!-- stage 8 -->
    <_>
      <maxWeakCount>13</maxWeakCount>
      <stageThreshold>-1.0164260864257812e+00</stageThreshold>
      <weakClassifiers>
        <_>
          <internalNodes>
            0 -1 166 1.3962776865810156e-03</internalNodes>
          <leafValues>
            -1.9076922535896301e-01 5.5157893896102905e-01</leafValues></_>
        <_>
          <internalNodes>
            0 -1 87 -6.1832587234675884e-03</internalNodes>
          <leafValues>
            7.5429350137710571e-01 -1.5499109029769897e-01</leafValues></_>
        <_>
          <internalNodes>
            0 -1 123 4.2794592445716262e-04</internalNodes>
          <leafValues>
            -2.0701149106025696e-01 5.2683562040328979e-01</leafValues></_>
        <_>
          <internalNodes>
            0 -1 120 1.1233806435484439e-04</internalNodes>
          <leafValues>
            1.9534851610660553e-01 -6.6212683916091919e-01</leafValues></_>
        <_>
          <internalNodes>
            0 -1 74 4.1216257959604263e-03</internalNodes>
          <leafValues>
            -2.9635173082351685e-01 5.5759823322296143e-01</leafValues></_>
        <_>
          <internalNodes>
            0 -1 42 -7.9591413959860802e-03</internalNodes>
          <leafValues>
            -8.3415007591247559e-01 1.9120392203330994e-01</leafValues></_>
        <_>
          <internalNodes>
            0 -1 161 -2.0555183291435242e-03</internalNodes>
          <leafValues>
            7.3876076936721802e-01 -1.9448187947273254e-01</leafValues></_>
        <_>
          <internalNodes>
            0 -1 64 -6.9790403358638287e-03</internalNodes>
          <leafValues>
            -7.7634805440902710e-01 1.8617786467075348e-01</leafValues></_>
        <_>
          <internalNodes>
            0 -1 172 5.6113128084689379e-04</internalNodes>
          <leafValues>
            -3.1303551793098450e-01 4.8694592714309692e-01</leafValues></_>
        <_>
          <internalNodes>
            0 -1 68 -1.3916526921093464e-02</internalNodes>
          <leafValues>
            4.3794468045234680e-01 -3.4843501448631287e-01</leafValues></_>
        <_>
          <internalNodes>
            0 -1 93 -3.9449453470297158e-04</internalNodes>
          <leafValues>
            -8.7244212627410889e-01 1.2642316520214081e-01</leafValues></_>
        <_>
          <internalNodes>
            0 -1 176 -5.5113467387855053e-03</internalNodes>
          <leafValues>
            7.8631061315536499e-01 -1.9344879686832428e-01</leafValues></_>
        <_>
          <internalNodes>
            0 -1 97 1.8410055781714618e-04</internalNodes>
          <leafValues>
            1.8294525146484375e-01 -8.0176490545272827e-01</leafValues></_></weakClassifiers></_>
    <!-- stage 9 -->
    <_>
      <maxWeakCount>13</maxWeakCount>
      <stageThreshold>-8.1388282775878906e-01</stageThreshold>
      <weakClassifiers>
        <_>
          <internalNodes>
            0 -1 16 5.8181313797831535e-03</internalNodes>
          <leafValues>
            -5.4448395967483521e-01 4.1925701498985291e-01</leafValues></_>
        <_>
          <internalNodes>
            0 -1 41 -4.0667182765901089e-03</internalNodes>
          <leafValues>
            7.6996284723281860e-01 -1.7450094223022461e-01</leafValues></_>
        <_>
          <internalNodes>
            0 -1 44 2.3411992006003857e-03</internalNodes>
          <leafValues>
            -1.5965627133846283e-01 6.8284809589385986e-01</leafValues></_>
        <_>
          <internalNodes>
            0 -1 56 3.3119535073637962e-03</internalNodes>
          <leafValues>
            -5.4081004858016968e-01 2.6125884056091309e-01</leafValues></_>
        <_>
          <internalNodes>
            0 -1 12 1.2533619999885559e-02</internalNodes>
          <leafValues>
            -2.7651908993721008e-01 4.8507750034332275e-01</leafValues></_>
        <_>
          <internalNodes>
            0 -1 174 2.5391248054802418e-03</internalNodes>
          <leafValues>
            -1.7883588373661041e-01 6.7382037639617920e-01</leafValues></_>
        <_>
          <internalNodes>
            0 -1 118 3.1266163568943739e-03</internalNodes>
          <leafValues>
            2.7221629023551941e-01 -4.8370620608329773e-01</leafValues></_>
        <_>
          <internalNodes>
            0 -1 173 9.7755203023552895e-04</internalNodes>
          <leafValues>
            -2.4048158526420593e-01 5.6028378009796143e-01</leafValues></_>
        <_>
          <internalNodes>
            0 -1 169 1.0820950847119093e-03</internalNodes>
          <leafValues>
            -1.6997270286083221e-01 6.3452595472335815e-01</leafValues></_>
        <_>
          <internalNodes>
            0 -1 15 9.4128102064132690e-03</internalNodes>
          <leafValues>
            2.0480532944202423e-01 -6.2407374382019043e-01</leafValues></_>
        <_>
          <internalNodes>
            0 -1 26 2.9930345714092255e-02</internalNodes>
          <leafValues>
            1.6595281660556793e-01 -6.9668829441070557e-01</leafValues></_>
        <_>
          <internalNodes>
            0 -1 28 -1.7953492701053619e-02</internalNodes>
          <leafValues>
            7.5881052017211914e-01 -2.1093295514583588e-01</leafValues></_>
        <_>
          <internalNodes>
            0 -1 170 -1.3789335265755653e-02</internalNodes>
          <leafValues>
            -6.9176626205444336e-01 2.3726736009120941e-01</leafValues></_></weakClassifiers></_>
    <!-- stage 10 -->
    <_>
      <maxWeakCount>22</maxWeakCount>
      <stageThreshold>-1.3826727867126465e+00</stageThreshold>
      <weakClassifiers>
        <_>
          <internalNodes>
            0 -1 61 6.1155636794865131e-03</internalNodes>
          <leafValues>
            3.6649215966463089e-02 7.8854626417160034e-01</leafValues></_>
        <_>
          <internalNodes>
            0 -1 138 -2.5581021327525377e-04</internalNodes>
          <leafValues>
            4.5029193162918091e-01 -2.5017994642257690e-01</leafValues></_>
        <_>
          <internalNodes>
            0 -1 153 -6.7454506643116474e-04</internalNodes>
          <leafValues>
            2.9091012477874756e-01 -4.5235505700111389e-01</leafValues></_>
        <_>
          <internalNodes>
            0 -1 183 -1.1049130000174046e-02</internalNodes>
          <leafValues>
            6.6728454828262329e-01 -2.0904357731342316e-01</leafValues></_>
        <_>
          <internalNodes>
            0 -1 112 1.2645733659155667e-04</internalNodes>
          <leafValues>
            -3.4834617376327515e-01 3.2618793845176697e-01</leafValues></_>
        <_>
          <internalNodes>
            0 -1 106 -7.1198423393070698e-04</internalNodes>
          <leafValues>
            -6.4394986629486084e-01 1.7306300997734070e-01</leafValues></_>
        <_>
          <internalNodes>
            0 -1 143 1.8193400464951992e-03</internalNodes>
          <leafValues>
            -2.1512342989444733e-01 5.8861911296844482e-01</leafValues></_>
        <_>
          <internalNodes>
            0 -1 146 -1.0242534335702658e-03</internalNodes>
          <leafValues>
            3.0285730957984924e-01 -3.8906532526016235e-01</leafValues></_>
        <_>
          <internalNodes>
            0 -1 47 -4.8175761476159096e-03</internalNodes>
          <leafValues>
            6.8221372365951538e-01 -1.7168882489204407e-01</leafValues></_>
        <_>
          <internalNodes>
            0 -1 178 2.5316462852060795e-03</internalNodes>
          <leafValues>
            -1.6260354220867157e-01 6.9680446386337280e-01</leafValues></_>
        <_>
          <internalNodes>
            0 -1 115 2.8113144799135625e-04</internalNodes>
          <leafValues>
            1.6178977489471436e-01 -7.4656319618225098e-01</leafValues></_>
        <_>
          <internalNodes>
            0 -1 66 4.7008781693875790e-03</internalNodes>
          <leafValues>
            -1.9771096110343933e-01 6.3583272695541382e-01</leafValues></_>
        <_>
          <internalNodes>
            0 -1 60 -1.6683728899806738e-03</internalNodes>
          <leafValues>
            -6.5521621704101562e-01 2.0121778547763824e-01</leafValues></_>
        <_>
          <internalNodes>
            0 -1 39 7.4898069724440575e-03</internalNodes>
          <leafValues>
            -1.5028908848762512e-01 8.6144477128982544e-01</leafValues></_>
        <_>
          <internalNodes>
            0 -1 33 -1.0267102625221014e-03</internalNodes>
          <leafValues>
            6.0378098487854004e-01 -1.5016955137252808e-01</leafValues></_>
        <_>
          <internalNodes>
            0 -1 125 9.1990549117326736e-04</internalNodes>
          <leafValues>
            -2.2620724141597748e-01 4.9797564744949341e-01</leafValues></_>
        <_>
          <internalNodes>
            0 -1 80 7.3442072607576847e-04</internalNodes>
          <leafValues>
            -3.3049401640892029e-01 3.4969297051429749e-01</leafValues></_>
        <_>
          <internalNodes>
            0 -1 2 3.2941184937953949e-02</internalNodes>
          <leafValues>
            -1.9414412975311279e-01 6.4144337177276611e-01</leafValues></_>
        <_>
          <internalNodes>
            0 -1 6 -2.4861879646778107e-03</internalNodes>
          <leafValues>
            4.9885603785514832e-01 -2.2588323056697845e-01</leafValues></_>
        <_>
          <internalNodes>
            0 -1 126 1.9166173413395882e-02</internalNodes>
          <leafValues>
            -3.3079761266708374e-01 3.4991914033889771e-01</leafValues></_>
        <_>
          <internalNodes>
            0 -1 107 -1.2749355286359787e-02</internalNodes>
          <leafValues>
            5.6845933198928833e-01 -2.3018266260623932e-01</leafValues></_>
        <_>
          <internalNodes>
            0 -1 30 3.7298416718840599e-03</internalNodes>
          <leafValues>
            -4.1823562979698181e-01 3.0546608567237854e-01</leafValues></_></weakClassifiers></_>
    <!-- stage 11 -->
    <_>
      <maxWeakCount>17</maxWeakCount>
      <stageThreshold>-1.1146522760391235e+00</stageThreshold>
      <weakClassifiers>
        <_>
          <internalNodes>
            0 -1 40 6.0172732919454575e-03</internalNodes>
          <leafValues>
            -4.7404062002897263e-02 6.1904764175415039e-01</leafValues></_>
        <_>
          <internalNodes>
            0 -1 182 -1.3577479869127274e-02</internalNodes>
          <leafValues>
            7.1846312284469604e-01 -1.3809517025947571e-01</leafValues></_>
        <_>
          <internalNodes>
            0 -1 29 3.8714201655238867e-03</internalNodes>
          <leafValues>
            -1.6381737589836121e-01 7.0552331209182739e-01</leafValues></_>
        <_>
          <internalNodes>
            0 -1 175 -4.9385256133973598e-03</internalNodes>
          <leafValues>
            6.7360383272171021e-01 -1.5296114981174469e-01</leafValues></_>
        <_>
          <internalNodes>
            0 -1 96 -1.5001821157056838e-04</internalNodes>
          <leafValues>
            -8.5024261474609375e-01 1.4690844714641571e-01</leafValues></_>
        <_>
          <internalNodes>
            0 -1 139 6.4911693334579468e-04</internalNodes>
          <leafValues>
            -2.0242832601070404e-01 5.4612642526626587e-01</leafValues></_>
        <_>
          <internalNodes>
            0 -1 134 2.4791473988443613e-03</internalNodes>
          <leafValues>
            -5.7939743995666504e-01 1.8261714279651642e-01</leafValues></_>
        <_>
          <internalNodes>
            0 -1 136 1.0039797052741051e-03</internalNodes>
          <leafValues>
            1.3392968475818634e-01 -8.7923669815063477e-01</leafValues></_>
        <_>
          <internalNodes>
            0 -1 5 -2.6071267202496529e-03</internalNodes>
          <leafValues>
            -7.5102519989013672e-01 1.0757043212652206e-01</leafValues></_>
        <_>
          <internalNodes>
            0 -1 83 -5.8227824047207832e-03</internalNodes>
          <leafValues>
            -6.2750750780105591e-01 1.7523111402988434e-01</leafValues></_>
        <_>
          <internalNodes>
            0 -1 137 5.7689482346177101e-03</internalNodes>
          <leafValues>
            1.2978897988796234e-01 -8.1699097156524658e-01</leafValues></_>
        <_>
          <internalNodes>
            0 -1 129 -6.7914323881268501e-03</internalNodes>
          <leafValues>
            7.0563656091690063e-01 -1.9390375912189484e-01</leafValues></_>
        <_>
          <internalNodes>
            0 -1 142 1.4955124352127314e-03</internalNodes>
          <leafValues>
            -1.6005784273147583e-01 6.3912761211395264e-01</leafValues></_>
        <_>
          <internalNodes>
            0 -1 162 1.1485325376270339e-04</internalNodes>
          <leafValues>
            1.7658661305904388e-01 -6.8438524007797241e-01</leafValues></_>
        <_>
          <internalNodes>
            0 -1 155 -1.4802109217271209e-03</internalNodes>
          <leafValues>
            6.7065584659576416e-01 -1.9754987955093384e-01</leafValues></_>
        <_>
          <internalNodes>
            0 -1 140 -4.6948087401688099e-04</internalNodes>
          <leafValues>
            4.3565243482589722e-01 -2.6196387410163879e-01</leafValues></_>
        <_>
          <internalNodes>
            0 -1 88 -4.4263684685574844e-05</internalNodes>
          <leafValues>
            -5.3052115440368652e-01 2.5783085823059082e-01</leafValues></_></weakClassifiers></_>
    <!-- stage 12 -->
    <_>
      <maxWeakCount>19</maxWeakCount>
      <stageThreshold>-1.0903941392898560e+00</stageThreshold>
      <weakClassifiers>
        <_>
          <internalNodes>
            0 -1 55 3.1740121543407440e-02</internalNodes>
          <leafValues>
            3.4328359365463257e-01 -8.4126985073089600e-01</leafValues></_>
        <_>
          <internalNodes>
            0 -1 147 -9.2858856078237295e-04</internalNodes>
          <leafValues>
            3.7929406762123108e-01 -2.9607763886451721e-01</leafValues></_>
        <_>
          <internalNodes>
            0 -1 92 -4.0024523623287678e-03</internalNodes>
          <leafValues>
            5.9519904851913452e-01 -1.9663581252098083e-01</leafValues></_>
        <_>
          <internalNodes>
            0 -1 85 7.2786980308592319e-04</internalNodes>
          <leafValues>
            -1.7963294684886932e-01 5.2912276983261108e-01</leafValues></_>
        <_>
          <internalNodes>
            0 -1 50 5.3660250268876553e-03</internalNodes>
          <leafValues>
            -2.1130351722240448e-01 5.2348279953002930e-01</leafValues></_>
        <_>
          <internalNodes>
            0 -1 167 1.2618856271728873e-03</internalNodes>
          <leafValues>
            -1.8413820862770081e-01 5.4130631685256958e-01</leafValues></_>
        <_>
          <internalNodes>
            0 -1 165 2.4718320928514004e-03</internalNodes>
          <leafValues>
            -2.1682435274124146e-01 5.3489822149276733e-01</leafValues></_>
        <_>
          <internalNodes>
            0 -1 45 7.1299653500318527e-03</internalNodes>
          <leafValues>
            -1.2069645524024963e-01 7.2879582643508911e-01</leafValues></_>
        <_>
          <internalNodes>
            0 -1 59 -3.9948690682649612e-03</internalNodes>
          <leafValues>
            6.2594467401504517e-01 -1.6107280552387238e-01</leafValues></_>
        <_>
          <internalNodes>
            0 -1 114 -1.6414272831752896e-03</internalNodes>
          <leafValues>
            1.8157152831554413e-01 -6.3525348901748657e-01</leafValues></_>
        <_>
          <internalNodes>
            0 -1 164 -6.3207454513758421e-04</internalNodes>
          <leafValues>
            3.7161049246788025e-01 -3.1036594510078430e-01</leafValues></_>
        <_>
          <internalNodes>
            0 -1 3 2.0950488746166229e-02</internalNodes>
          <leafValues>
            -2.0971834659576416e-01 5.1903951168060303e-01</leafValues></_>
        <_>
          <internalNodes>
            0 -1 27 2.5546341203153133e-03</internalNodes>
          <leafValues>
            -1.5024456381797791e-01 7.0461142063140869e-01</leafValues></_>
        <_>
          <internalNodes>
            0 -1 20 -1.4452034374698997e-03</internalNodes>
          <leafValues>
            5.2549856901168823e-01 -1.9812984764575958e-01</leafValues></_>
        <_>
          <internalNodes>
            0 -1 57 1.2124769273214042e-04</internalNodes>
          <leafValues>
            -2.5454068183898926e-01 4.3913275003433228e-01</leafValues></_>
        <_>
          <internalNodes>
            0 -1 95 -1.0178794618695974e-03</internalNodes>
          <leafValues>
            -7.4935978651046753e-01 1.4635953307151794e-01</leafValues></_>
        <_>
          <internalNodes>
            0 -1 14 -3.8675285875797272e-02</internalNodes>
          <leafValues>
            -7.8320300579071045e-01 1.2506599724292755e-01</leafValues></_>
        <_>
          <internalNodes>
            0 -1 116 9.1448094462975860e-04</internalNodes>
          <leafValues>
            1.0647948086261749e-01 -8.1464225053787231e-01</leafValues></_>
        <_>
          <internalNodes>
            0 -1 81 -1.5408464241772890e-03</internalNodes>
          <leafValues>
            1.7983496189117432e-01 -5.6028920412063599e-01</leafValues></_></weakClassifiers></_>
    <!-- stage 13 -->
    <_>
      <maxWeakCount>20</maxWeakCount>
      <stageThreshold>-1.1336528062820435e+00</stageThreshold>
      <weakClassifiers>
        <_>
          <internalNodes>
            0 -1 110 2.7056096587330103e-03</internalNodes>
          <leafValues>
            -6.5104164183139801e-02 5.4086536169052124e-01</leafValues></_>
        <_>
          <internalNodes>
            0 -1 17 -9.9840871989727020e-03</internalNodes>
          <leafValues>
            6.0706412792205811e-01 -1.4315825700759888e-01</leafValues></_>
        <_>
          <internalNodes>
            0 -1 8 -1.1302078142762184e-02</internalNodes>
          <leafValues>
            6.6594606637954712e-01 -1.4626152813434601e-01</leafValues></_>
        <_>
          <internalNodes>
            0 -1 122 7.6032313518226147e-04</internalNodes>
          <leafValues>
            -2.1194277703762054e-01 5.1438128948211670e-01</leafValues></_>
        <_>
          <internalNodes>
            0 -1 149 -6.2992041930556297e-03</internalNodes>
          <leafValues>
            -6.9030040502548218e-01 1.7126160860061646e-01</leafValues></_>
        <_>
          <internalNodes>
            0 -1 75 2.3816328030079603e-04</internalNodes>
          <leafValues>
            1.9319936633110046e-01 -6.7024672031402588e-01</leafValues></_>
        <_>
          <internalNodes>
            0 -1 168 -2.4950215592980385e-03</internalNodes>
          <leafValues>
            5.6653702259063721e-01 -2.0718294382095337e-01</leafValues></_>
        <_>
          <internalNodes>
            0 -1 104 7.7892374247312546e-03</internalNodes>
          <leafValues>
            -1.3406133651733398e-01 7.6062119007110596e-01</leafValues></_>
        <_>
          <internalNodes>
            0 -1 177 -2.2486881352961063e-03</internalNodes>
          <leafValues>
            6.2470406293869019e-01 -1.4031817018985748e-01</leafValues></_>
        <_>
          <internalNodes>
            0 -1 157 -1.6226929437834769e-04</internalNodes>
          <leafValues>
            -5.2017045021057129e-01 2.2370193898677826e-01</leafValues></_>
        <_>
          <internalNodes>
            0 -1 54 -2.2065700031816959e-03</internalNodes>
          <leafValues>
            5.5528914928436279e-01 -2.0966647565364838e-01</leafValues></_>
        <_>
          <internalNodes>
            0 -1 1 -1.0043971706181765e-03</internalNodes>
          <leafValues>
            -5.1500755548477173e-01 2.2794508934020996e-01</leafValues></_>
        <_>
          <internalNodes>
            0 -1 108 1.5184795483946800e-03</internalNodes>
          <leafValues>
            -2.2579319775104523e-01 4.8613733053207397e-01</leafValues></_>
        <_>
          <internalNodes>
            0 -1 91 9.5430258661508560e-03</internalNodes>
          <leafValues>
            -2.0058993995189667e-01 5.6280767917633057e-01</leafValues></_>
        <_>
          <internalNodes>
            0 -1 99 4.1785007342696190e-03</internalNodes>
          <leafValues>
            1.5709877014160156e-01 -7.2443515062332153e-01</leafValues></_>
        <_>
          <internalNodes>
            0 -1 145 1.3776624109596014e-03</internalNodes>
          <leafValues>
            -2.6389738917350769e-01 4.4190669059753418e-01</leafValues></_>
        <_>
          <internalNodes>
            0 -1 160 4.5079495757818222e-03</internalNodes>
          <leafValues>
            -1.7430993914604187e-01 6.5730923414230347e-01</leafValues></_>
        <_>
          <internalNodes>
            0 -1 0 2.3742637131363153e-03</internalNodes>
          <leafValues>
            2.5695767998695374e-01 -4.7537192702293396e-01</leafValues></_>
        <_>
          <internalNodes>
            0 -1 180 -9.9538946524262428e-03</internalNodes>
          <leafValues>
            4.0606692433357239e-01 -2.8727656602859497e-01</leafValues></_>
        <_>
          <internalNodes>
            0 -1 117 -7.9978117719292641e-03</internalNodes>
          <leafValues>
            -7.0129662752151489e-01 1.8138447403907776e-01</leafValues></_></weakClassifiers></_></stages>
  <features>
    <_>
      <rects>
        <_>
          0 30 15 10 -1.</_>
        <_>
          0 35 15 5 2.</_></rects>
      <tilted>0</tilted></_>
    <_>
      <rects>
        <_>
          1 7 7 9 -1.</_>
        <_>
          1 10 7 3 3.</_></rects>
      <tilted>0</tilted></_>
    <_>
      <rects>
        <_>
          2 1 20 38 -1.</_>
        <_>
          12 1 10 38 2.</_></rects>
      <tilted>0</tilted></_>
    <_>
      <rects>
        <_>
          2 2 20 35 -1.</_>
        <_>
          12 2 10 35 2.</_></rects>
      <tilted>0</tilted></_>
    <_>
      <rects>
        <_>
          6 1 16 38 -1.</_>
        <_>
          10 1 8 38 2.</_></rects>
      <tilted>0</tilted></_>
    <_>
      <rects>
        <_>
          7 2 8 9 -1.</_>
        <_>
          7 5 8 3 3.</_></rects>
      <tilted>0</tilted></_>
    <_>
      <rects>
        <_>
          9 11 16 6 -1.</_>
        <_>
          17 11 8 6 2.</_></rects>
      <tilted>0</tilted></_>
    <_>
      <rects>
        <_>
          16 4 90 1 -1.</_>
        <_>
          46 4 30 1 3.</_></rects>
      <tilted>0</tilted></_>
    <_>
      <rects>
        <_>
          20 8 9 12 -1.</_>
        <_>
          23 12 3 4 9.</_></rects>
      <tilted>0</tilted></_>
    <_>
      <rects>
        <_>
          23 12 15 22 -1.</_>
        <_>
          28 12 5 22 3.</_></rects>
      <tilted>0</tilted></_>
    <_>
      <rects>
        <_>
          25 8 12 29 -1.</_>
        <_>
          28 8 6 29 2.</_></rects>
      <tilted>0</tilted></_>
    <_>
      <rects>
        <_>
          25 13 70 3 -1.</_>
        <_>
          25 14 70 1 3.</_></rects>
      <tilted>0</tilted></_>
    <_>
      <rects>
        <_>
          26 14 12 18 -1.</_>
        <_>
          30 20 4 6 9.</_></rects>
      <tilted>0</tilted></_>
    <_>
      <rects>
        <_>
          27 5 8 26 -1.</_>
        <_>
          29 5 4 26 2.</_></rects>
      <tilted>0</tilted></_>
    <_>
      <rects>
        <_>
          28 0 27 34 -1.</_>
        <_>
          37 0 9 34 3.</_></rects>
      <tilted>0</tilted></_>
    <_>
      <rects>
        <_>
          28 7 33 24 -1.</_>
        <_>
          39 7 11 24 3.</_></rects>
      <tilted>0</tilted></_>
    <_>
      <rects>
        <_>
          34 9 39 28 -1.</_>
        <_>
          47 9 13 28 3.</_></rects>
      <tilted>0</tilted></_>
    <_>
      <rects>
        <_>
          34 32 30 8 -1.</_>
        <_>
          34 32 15 4 2.</_>
        <_>
          49 36 15 4 2.</_></rects>
      <tilted>0</tilted></_>
    <_>
      <rects>
        <_>
          35 13 3 8 -1.</_>
        <_>
          35 13 3 4 2.</_></rects>
      <tilted>1</tilted></_>
    <_>
      <rects>
        <_>
          35 14 8 4 -1.</_>
        <_>
          34 15 8 2 2.</_></rects>
      <tilted>1</tilted></_>
    <_>
      <rects>
        <_>
          36 6 6 3 -1.</_>
        <_>
          38 8 2 3 3.</_></rects>
      <tilted>1</tilted></_>
    <_>
      <rects>
        <_>
          38 3 36 6 -1.</_>
        <_>
          38 3 18 3 2.</_>
        <_>
          56 6 18 3 2.</_></rects>
      <tilted>0</tilted></_>
    <_>
      <rects>
        <_>
          39 2 30 14 -1.</_>
        <_>
          49 2 10 14 3.</_></rects>
      <tilted>0</tilted></_>
    <_>
      <rects>
        <_>
          39 3 8 8 -1.</_>
        <_>
          41 5 4 8 2.</_></rects>
      <tilted>1</tilted></_>
    <_>
      <rects>
        <_>
          39 10 26 1 -1.</_>
        <_>
          39 10 13 1 2.</_></rects>
      <tilted>1</tilted></_>
    <_>
      <rects>
        <_>
          39 15 39 12 -1.</_>
        <_>
          52 15 13 12 3.</_></rects>
      <tilted>0</tilted></_>
    <_>
      <rects>
        <_>
          41 0 39 27 -1.</_>
        <_>
          54 0 13 27 3.</_></rects>
      <tilted>0</tilted></_>
    <_>
      <rects>
        <_>
          41 26 4 6 -1.</_>
        <_>
          39 28 4 2 3.</_></rects>
      <tilted>1</tilted></_>
    <_>
      <rects>
        <_>
          43 2 36 10 -1.</_>
        <_>
          43 2 18 5 2.</_>
        <_>
          61 7 18 5 2.</_></rects>
      <tilted>0</tilted></_>
    <_>
      <rects>
        <_>
          43 24 7 6 -1.</_>
        <_>
          41 26 7 2 3.</_></rects>
      <tilted>1</tilted></_>
    <_>
      <rects>
        <_>
          44 6 14 18 -1.</_>
        <_>
          44 6 7 9 2.</_>
        <_>
          51 15 7 9 2.</_></rects>
      <tilted>0</tilted></_>
    <_>
      <rects>
        <_>
          44 11 32 28 -1.</_>
        <_>
          52 11 16 28 2.</_></rects>
      <tilted>0</tilted></_>
    <_>
      <rects>
        <_>
          44 12 36 14 -1.</_>
        <_>
          53 12 18 14 2.</_></rects>
      <tilted>0</tilted></_>
    <_>
      <rects>
        <_>
          44 15 4 12 -1.</_>
        <_>
          44 15 2 6 2.</_>
        <_>
          46 21 2 6 2.</_></rects>
      <tilted>0</tilted></_>
    <_>
      <rects>
        <_>
          44 22 3 6 -1.</_>
        <_>
          42 24 3 2 3.</_></rects>
      <tilted>1</tilted></_>
    <_>
      <rects>
        <_>
          45 12 32 11 -1.</_>
        <_>
          53 12 16 11 2.</_></rects>
      <tilted>0</tilted></_>
    <_>
      <rects>
        <_>
          45 20 9 3 -1.</_>
        <_>
          48 21 3 1 9.</_></rects>
      <tilted>0</tilted></_>
    <_>
      <rects>
        <_>
          46 14 21 9 -1.</_>
        <_>
          53 14 7 9 3.</_></rects>
      <tilted>0</tilted></_>
    <_>
      <rects>
        <_>
          46 17 18 13 -1.</_>
        <_>
          52 17 6 13 3.</_></rects>
      <tilted>0</tilted></_>
    <_>
      <rects>
        <_>
          46 21 6 9 -1.</_>
        <_>
          48 24 2 3 9.</_></rects>
      <tilted>0</tilted></_>
    <_>
      <rects>
        <_>
          46 24 15 8 -1.</_>
        <_>
          51 24 5 8 3.</_></rects>
      <tilted>0</tilted></_>
    <_>
      <rects>
        <_>
          47 0 26 4 -1.</_>
        <_>
          47 0 13 2 2.</_>
        <_>
          60 2 13 2 2.</_></rects>
      <tilted>0</tilted></_>
    <_>
      <rects>
        <_>
          47 4 24 18 -1.</_>
        <_>
          55 4 8 18 3.</_></rects>
      <tilted>0</tilted></_>
    <_>
      <rects>
        <_>
          47 14 30 3 -1.</_>
        <_>
          57 14 10 3 3.</_></rects>
      <tilted>0</tilted></_>
    <_>
      <rects>
        <_>
          47 20 9 5 -1.</_>
        <_>
          50 20 3 5 3.</_></rects>
      <tilted>0</tilted></_>
    <_>
      <rects>
        <_>
          47 29 20 6 -1.</_>
        <_>
          47 29 10 3 2.</_>
        <_>
          57 32 10 3 2.</_></rects>
      <tilted>0</tilted></_>
    <_>
      <rects>
        <_>
          48 28 18 10 -1.</_>
        <_>
          48 28 9 5 2.</_>
        <_>
          57 33 9 5 2.</_></rects>
      <tilted>0</tilted></_>
    <_>
      <rects>
        <_>
          49 27 12 10 -1.</_>
        <_>
          49 27 6 5 2.</_>
        <_>
          55 32 6 5 2.</_></rects>
      <tilted>0</tilted></_>
    <_>
      <rects>
        <_>
          49 32 20 4 -1.</_>
        <_>
          49 32 10 2 2.</_>
        <_>
          59 34 10 2 2.</_></rects>
      <tilted>0</tilted></_>
    <_>
      <rects>
        <_>
          50 4 58 3 -1.</_>
        <_>
          79 4 29 3 2.</_></rects>
      <tilted>0</tilted></_>
    <_>
      <rects>
        <_>
          50 5 34 2 -1.</_>
        <_>
          67 5 17 2 2.</_></rects>
      <tilted>0</tilted></_>
    <_>
      <rects>
        <_>
          50 14 16 6 -1.</_>
        <_>
          50 14 8 3 2.</_>
        <_>
          58 17 8 3 2.</_></rects>
      <tilted>0</tilted></_>
    <_>
      <rects>
        <_>
          50 15 16 4 -1.</_>
        <_>
          50 15 8 2 2.</_>
        <_>
          58 17 8 2 2.</_></rects>
      <tilted>0</tilted></_>
    <_>
      <rects>
        <_>
          51 2 36 18 -1.</_>
        <_>
          60 2 18 18 2.</_></rects>
      <tilted>0</tilted></_>
    <_>
      <rects>
        <_>
          51 14 6 12 -1.</_>
        <_>
          51 14 3 6 2.</_>
        <_>
          54 20 3 6 2.</_></rects>
      <tilted>0</tilted></_>
    <_>
      <rects>
        <_>
          51 14 12 18 -1.</_>
        <_>
          55 20 4 6 9.</_></rects>
      <tilted>0</tilted></_>
    <_>
      <rects>
        <_>
          51 17 12 7 -1.</_>
        <_>
          55 17 4 7 3.</_></rects>
      <tilted>0</tilted></_>
    <_>
      <rects>
        <_>
          51 20 4 3 -1.</_>
        <_>
          52 20 2 3 2.</_></rects>
      <tilted>0</tilted></_>
    <_>
      <rects>
        <_>
          51 23 14 16 -1.</_>
        <_>
          51 23 7 8 2.</_>
        <_>
          58 31 7 8 2.</_></rects>
      <tilted>0</tilted></_>
    <_>
      <rects>
        <_>
          51 31 20 6 -1.</_>
        <_>
          51 31 10 3 2.</_>
        <_>
          61 34 10 3 2.</_></rects>
      <tilted>0</tilted></_>
    <_>
      <rects>
        <_>
          51 32 12 7 -1.</_>
        <_>
          54 32 6 7 2.</_></rects>
      <tilted>0</tilted></_>
    <_>
      <rects>
        <_>
          51 32 26 6 -1.</_>
        <_>
          51 32 13 3 2.</_>
        <_>
          64 35 13 3 2.</_></rects>
      <tilted>0</tilted></_>
    <_>
      <rects>
        <_>
          52 1 24 24 -1.</_>
        <_>
          60 1 8 24 3.</_></rects>
      <tilted>0</tilted></_>
    <_>
      <rects>
        <_>
          52 3 6 30 -1.</_>
        <_>
          52 18 6 15 2.</_></rects>
      <tilted>0</tilted></_>
    <_>
      <rects>
        <_>
          52 17 16 12 -1.</_>
        <_>
          52 23 16 6 2.</_></rects>
      <tilted>0</tilted></_>
    <_>
      <rects>
        <_>
          52 24 3 6 -1.</_>
        <_>
          50 26 3 2 3.</_></rects>
      <tilted>1</tilted></_>
    <_>
      <rects>
        <_>
          52 29 20 6 -1.</_>
        <_>
          52 29 10 3 2.</_>
        <_>
          62 32 10 3 2.</_></rects>
      <tilted>0</tilted></_>
    <_>
      <rects>
        <_>
          53 4 27 36 -1.</_>
        <_>
          62 4 9 36 3.</_></rects>
      <tilted>0</tilted></_>
    <_>
      <rects>
        <_>
          53 9 18 21 -1.</_>
        <_>
          59 9 6 21 3.</_></rects>
      <tilted>0</tilted></_>
    <_>
      <rects>
        <_>
          53 15 8 16 -1.</_>
        <_>
          53 15 4 8 2.</_>
        <_>
          57 23 4 8 2.</_></rects>
      <tilted>0</tilted></_>
    <_>
      <rects>
        <_>
          53 16 9 7 -1.</_>
        <_>
          56 16 3 7 3.</_></rects>
      <tilted>0</tilted></_>
    <_>
      <rects>
        <_>
          53 17 14 11 -1.</_>
        <_>
          60 17 7 11 2.</_></rects>
      <tilted>0</tilted></_>
    <_>
      <rects>
        <_>
          53 31 12 4 -1.</_>
        <_>
          53 31 6 2 2.</_>
        <_>
          59 33 6 2 2.</_></rects>
      <tilted>0</tilted></_>
    <_>
      <rects>
        <_>
          55 0 5 12 -1.</_>
        <_>
          55 4 5 4 3.</_></rects>
      <tilted>0</tilted></_>
    <_>
      <rects>
        <_>
          55 1 26 6 -1.</_>
        <_>
          55 1 13 3 2.</_>
        <_>
          68 4 13 3 2.</_></rects>
      <tilted>0</tilted></_>
    <_>
      <rects>
        <_>
          55 2 28 21 -1.</_>
        <_>
          62 2 14 21 2.</_></rects>
      <tilted>0</tilted></_>
    <_>
      <rects>
        <_>
          55 9 16 16 -1.</_>
        <_>
          59 9 8 16 2.</_></rects>
      <tilted>0</tilted></_>
    <_>
      <rects>
        <_>
          55 16 16 9 -1.</_>
        <_>
          59 16 8 9 2.</_></rects>
      <tilted>0</tilted></_>
    <_>
      <rects>
        <_>
          55 17 16 5 -1.</_>
        <_>
          59 17 8 5 2.</_></rects>
      <tilted>0</tilted></_>
    <_>
      <rects>
        <_>
          55 18 6 6 -1.</_>
        <_>
          57 20 2 2 9.</_></rects>
      <tilted>0</tilted></_>
    <_>
      <rects>
        <_>
          55 19 6 3 -1.</_>
        <_>
          57 19 2 3 3.</_></rects>
      <tilted>0</tilted></_>
    <_>
      <rects>
        <_>
          55 19 20 7 -1.</_>
        <_>
          60 19 10 7 2.</_></rects>
      <tilted>0</tilted></_>
    <_>
      <rects>
        <_>
          55 19 11 8 -1.</_>
        <_>
          53 21 11 4 2.</_></rects>
      <tilted>1</tilted></_>
    <_>
      <rects>
        <_>
          55 20 24 4 -1.</_>
        <_>
          67 20 12 4 2.</_></rects>
      <tilted>0</tilted></_>
    <_>
      <rects>
        <_>
          55 21 4 4 -1.</_>
        <_>
          55 21 4 2 2.</_></rects>
      <tilted>1</tilted></_>
    <_>
      <rects>
        <_>
          55 23 8 2 -1.</_>
        <_>
          57 23 4 2 2.</_></rects>
      <tilted>0</tilted></_>
    <_>
      <rects>
        <_>
          55 32 16 6 -1.</_>
        <_>
          55 32 8 3 2.</_>
        <_>
          63 35 8 3 2.</_></rects>
      <tilted>0</tilted></_>
    <_>
      <rects>
        <_>
          56 2 26 6 -1.</_>
        <_>
          56 2 13 3 2.</_>
        <_>
          69 5 13 3 2.</_></rects>
      <tilted>0</tilted></_>
    <_>
      <rects>
        <_>
          56 6 3 17 -1.</_>
        <_>
          57 6 1 17 3.</_></rects>
      <tilted>0</tilted></_>
    <_>
      <rects>
        <_>
          56 7 26 5 -1.</_>
        <_>
          56 7 13 5 2.</_></rects>
      <tilted>1</tilted></_>
    <_>
      <rects>
        <_>
          56 15 12 8 -1.</_>
        <_>
          62 15 6 8 2.</_></rects>
      <tilted>0</tilted></_>
    <_>
      <rects>
        <_>
          57 0 34 8 -1.</_>
        <_>
          57 0 17 4 2.</_>
        <_>
          74 4 17 4 2.</_></rects>
      <tilted>0</tilted></_>
    <_>
      <rects>
        <_>
          57 1 18 6 -1.</_>
        <_>
          57 1 9 3 2.</_>
        <_>
          66 4 9 3 2.</_></rects>
      <tilted>0</tilted></_>
    <_>
      <rects>
        <_>
          57 2 4 7 -1.</_>
        <_>
          58 2 2 7 2.</_></rects>
      <tilted>0</tilted></_>
    <_>
      <rects>
        <_>
          57 2 1 22 -1.</_>
        <_>
          57 13 1 11 2.</_></rects>
      <tilted>0</tilted></_>
    <_>
      <rects>
        <_>
          57 4 8 8 -1.</_>
        <_>
          59 4 4 8 2.</_></rects>
      <tilted>0</tilted></_>
    <_>
      <rects>
        <_>
          57 6 3 2 -1.</_>
        <_>
          58 6 1 2 3.</_></rects>
      <tilted>0</tilted></_>
    <_>
      <rects>
        <_>
          57 6 3 4 -1.</_>
        <_>
          58 6 1 4 3.</_></rects>
      <tilted>0</tilted></_>
    <_>
      <rects>
        <_>
          57 8 1 14 -1.</_>
        <_>
          57 15 1 7 2.</_></rects>
      <tilted>0</tilted></_>
    <_>
      <rects>
        <_>
          57 15 28 13 -1.</_>
        <_>
          64 15 14 13 2.</_></rects>
      <tilted>0</tilted></_>
    <_>
      <rects>
        <_>
          57 18 4 6 -1.</_>
        <_>
          55 20 4 2 3.</_></rects>
      <tilted>1</tilted></_>
    <_>
      <rects>
        <_>
          57 22 11 12 -1.</_>
        <_>
          57 28 11 6 2.</_></rects>
      <tilted>0</tilted></_>
    <_>
      <rects>
        <_>
          57 23 9 6 -1.</_>
        <_>
          55 25 9 2 3.</_></rects>
      <tilted>1</tilted></_>
    <_>
      <rects>
        <_>
          57 25 10 15 -1.</_>
        <_>
          57 30 10 5 3.</_></rects>
      <tilted>0</tilted></_>
    <_>
      <rects>
        <_>
          57 29 28 6 -1.</_>
        <_>
          57 29 14 3 2.</_>
        <_>
          71 32 14 3 2.</_></rects>
      <tilted>0</tilted></_>
    <_>
      <rects>
        <_>
          58 2 18 12 -1.</_>
        <_>
          64 8 6 12 3.</_></rects>
      <tilted>1</tilted></_>
    <_>
      <rects>
        <_>
          58 4 8 7 -1.</_>
        <_>
          60 4 4 7 2.</_></rects>
      <tilted>0</tilted></_>
    <_>
      <rects>
        <_>
          59 0 34 12 -1.</_>
        <_>
          59 0 17 6 2.</_>
        <_>
          76 6 17 6 2.</_></rects>
      <tilted>0</tilted></_>
    <_>
      <rects>
        <_>
          59 1 5 8 -1.</_>
        <_>
          59 5 5 4 2.</_></rects>
      <tilted>0</tilted></_>
    <_>
      <rects>
        <_>
          59 6 3 14 -1.</_>
        <_>
          60 6 1 14 3.</_></rects>
      <tilted>0</tilted></_>
    <_>
      <rects>
        <_>
          59 11 8 9 -1.</_>
        <_>
          59 14 8 3 3.</_></rects>
      <tilted>0</tilted></_>
    <_>
      <rects>
        <_>
          59 12 1 4 -1.</_>
        <_>
          59 14 1 2 2.</_></rects>
      <tilted>0</tilted></_>
    <_>
      <rects>
        <_>
          59 13 9 2 -1.</_>
        <_>
          59 14 9 1 2.</_></rects>
      <tilted>0</tilted></_>
    <_>
      <rects>
        <_>
          59 33 16 4 -1.</_>
        <_>
          59 33 8 2 2.</_>
        <_>
          67 35 8 2 2.</_></rects>
      <tilted>0</tilted></_>
    <_>
      <rects>
        <_>
          60 0 12 26 -1.</_>
        <_>
          60 0 6 26 2.</_></rects>
      <tilted>1</tilted></_>
    <_>
      <rects>
        <_>
          60 1 3 8 -1.</_>
        <_>
          61 1 1 8 3.</_></rects>
      <tilted>0</tilted></_>
    <_>
      <rects>
        <_>
          60 2 6 7 -1.</_>
        <_>
          62 2 2 7 3.</_></rects>
      <tilted>0</tilted></_>
    <_>
      <rects>
        <_>
          60 6 14 26 -1.</_>
        <_>
          67 6 7 26 2.</_></rects>
      <tilted>0</tilted></_>
    <_>
      <rects>
        <_>
          60 7 44 31 -1.</_>
        <_>
          71 7 22 31 2.</_></rects>
      <tilted>0</tilted></_>
    <_>
      <rects>
        <_>
          60 11 6 7 -1.</_>
        <_>
          62 13 2 7 3.</_></rects>
      <tilted>1</tilted></_>
    <_>
      <rects>
        <_>
          60 12 2 3 -1.</_>
        <_>
          60 12 1 3 2.</_></rects>
      <tilted>1</tilted></_>
    <_>
      <rects>
        <_>
          60 17 1 4 -1.</_>
        <_>
          59 18 1 2 2.</_></rects>
      <tilted>1</tilted></_>
    <_>
      <rects>
        <_>
          60 18 4 5 -1.</_>
        <_>
          62 18 2 5 2.</_></rects>
      <tilted>0</tilted></_>
    <_>
      <rects>
        <_>
          60 19 4 4 -1.</_>
        <_>
          62 19 2 4 2.</_></rects>
      <tilted>0</tilted></_>
    <_>
      <rects>
        <_>
          60 20 6 2 -1.</_>
        <_>
          62 20 2 2 3.</_></rects>
      <tilted>0</tilted></_>
    <_>
      <rects>
        <_>
          60 31 3 6 -1.</_>
        <_>
          60 33 3 2 3.</_></rects>
      <tilted>0</tilted></_>
    <_>
      <rects>
        <_>
          61 0 50 18 -1.</_>
        <_>
          86 0 25 18 2.</_></rects>
      <tilted>0</tilted></_>
    <_>
      <rects>
        <_>
          61 14 6 4 -1.</_>
        <_>
          63 16 2 4 3.</_></rects>
      <tilted>1</tilted></_>
    <_>
      <rects>
        <_>
          62 15 4 4 -1.</_>
        <_>
          63 16 2 4 2.</_></rects>
      <tilted>1</tilted></_>
    <_>
      <rects>
        <_>
          62 16 9 13 -1.</_>
        <_>
          65 16 3 13 3.</_></rects>
      <tilted>0</tilted></_>
    <_>
      <rects>
        <_>
          62 22 10 14 -1.</_>
        <_>
          62 22 5 7 2.</_>
        <_>
          67 29 5 7 2.</_></rects>
      <tilted>0</tilted></_>
    <_>
      <rects>
        <_>
          62 24 9 2 -1.</_>
        <_>
          65 24 3 2 3.</_></rects>
      <tilted>0</tilted></_>
    <_>
      <rects>
        <_>
          62 35 10 4 -1.</_>
        <_>
          62 35 5 2 2.</_>
        <_>
          67 37 5 2 2.</_></rects>
      <tilted>0</tilted></_>
    <_>
      <rects>
        <_>
          63 2 4 10 -1.</_>
        <_>
          64 2 2 10 2.</_></rects>
      <tilted>0</tilted></_>
    <_>
      <rects>
        <_>
          63 2 12 13 -1.</_>
        <_>
          66 5 6 13 2.</_></rects>
      <tilted>1</tilted></_>
    <_>
      <rects>
        <_>
          63 8 36 27 -1.</_>
        <_>
          72 8 18 27 2.</_></rects>
      <tilted>0</tilted></_>
    <_>
      <rects>
        <_>
          63 13 3 8 -1.</_>
        <_>
          63 13 3 4 2.</_></rects>
      <tilted>1</tilted></_>
    <_>
      <rects>
        <_>
          63 17 16 6 -1.</_>
        <_>
          71 17 8 6 2.</_></rects>
      <tilted>0</tilted></_>
    <_>
      <rects>
        <_>
          63 18 2 3 -1.</_>
        <_>
          63 18 1 3 2.</_></rects>
      <tilted>1</tilted></_>
    <_>
      <rects>
        <_>
          63 19 4 2 -1.</_>
        <_>
          64 20 2 2 2.</_></rects>
      <tilted>1</tilted></_>
    <_>
      <rects>
        <_>
          63 20 4 10 -1.</_>
        <_>
          64 20 2 10 2.</_></rects>
      <tilted>0</tilted></_>
    <_>
      <rects>
        <_>
          63 20 6 3 -1.</_>
        <_>
          65 20 2 3 3.</_></rects>
      <tilted>0</tilted></_>
    <_>
      <rects>
        <_>
          63 23 8 4 -1.</_>
        <_>
          65 23 4 4 2.</_></rects>
      <tilted>0</tilted></_>
    <_>
      <rects>
        <_>
          63 24 9 3 -1.</_>
        <_>
          66 24 3 3 3.</_></rects>
      <tilted>0</tilted></_>
    <_>
      <rects>
        <_>
          63 25 2 10 -1.</_>
        <_>
          63 30 2 5 2.</_></rects>
      <tilted>0</tilted></_>
    <_>
      <rects>
        <_>
          63 27 2 8 -1.</_>
        <_>
          63 31 2 4 2.</_></rects>
      <tilted>0</tilted></_>
    <_>
      <rects>
        <_>
          64 12 18 5 -1.</_>
        <_>
          70 12 6 5 3.</_></rects>
      <tilted>0</tilted></_>
    <_>
      <rects>
        <_>
          64 13 4 6 -1.</_>
        <_>
          65 14 2 6 2.</_></rects>
      <tilted>1</tilted></_>
    <_>
      <rects>
        <_>
          64 18 3 3 -1.</_>
        <_>
          65 19 1 3 3.</_></rects>
      <tilted>1</tilted></_>
    <_>
      <rects>
        <_>
          65 8 15 5 -1.</_>
        <_>
          70 13 5 5 3.</_></rects>
      <tilted>1</tilted></_>
    <_>
      <rects>
        <_>
          65 13 6 10 -1.</_>
        <_>
          65 13 3 5 2.</_>
        <_>
          68 18 3 5 2.</_></rects>
      <tilted>0</tilted></_>
    <_>
      <rects>
        <_>
          65 13 8 3 -1.</_>
        <_>
          65 13 4 3 2.</_></rects>
      <tilted>1</tilted></_>
    <_>
      <rects>
        <_>
          65 16 6 16 -1.</_>
        <_>
          65 16 3 8 2.</_>
        <_>
          68 24 3 8 2.</_></rects>
      <tilted>0</tilted></_>
    <_>
      <rects>
        <_>
          65 18 10 8 -1.</_>
        <_>
          65 18 5 8 2.</_></rects>
      <tilted>1</tilted></_>
    <_>
      <rects>
        <_>
          65 19 4 16 -1.</_>
        <_>
          65 19 2 8 2.</_>
        <_>
          67 27 2 8 2.</_></rects>
      <tilted>0</tilted></_>
    <_>
      <rects>
        <_>
          65 22 6 9 -1.</_>
        <_>
          67 22 2 9 3.</_></rects>
      <tilted>0</tilted></_>
    <_>
      <rects>
        <_>
          66 0 7 12 -1.</_>
        <_>
          66 4 7 4 3.</_></rects>
      <tilted>0</tilted></_>
    <_>
      <rects>
        <_>
          66 4 4 6 -1.</_>
        <_>
          67 4 2 6 2.</_></rects>
      <tilted>0</tilted></_>
    <_>
      <rects>
        <_>
          66 12 10 7 -1.</_>
        <_>
          71 12 5 7 2.</_></rects>
      <tilted>0</tilted></_>
    <_>
      <rects>
        <_>
          66 22 6 4 -1.</_>
        <_>
          68 22 2 4 3.</_></rects>
      <tilted>0</tilted></_>
    <_>
      <rects>
        <_>
          66 23 6 7 -1.</_>
        <_>
          68 25 2 7 3.</_></rects>
      <tilted>1</tilted></_>
    <_>
      <rects>
        <_>
          66 24 9 3 -1.</_>
        <_>
          69 24 3 3 3.</_></rects>
      <tilted>0</tilted></_>
    <_>
      <rects>
        <_>
          67 7 3 4 -1.</_>
        <_>
          68 7 1 4 3.</_></rects>
      <tilted>0</tilted></_>
    <_>
      <rects>
        <_>
          67 25 6 3 -1.</_>
        <_>
          69 27 2 3 3.</_></rects>
      <tilted>1</tilted></_>
    <_>
      <rects>
        <_>
          68 13 4 11 -1.</_>
        <_>
          70 13 2 11 2.</_></rects>
      <tilted>0</tilted></_>
    <_>
      <rects>
        <_>
          68 24 6 3 -1.</_>
        <_>
          70 26 2 3 3.</_></rects>
      <tilted>1</tilted></_>
    <_>
      <rects>
        <_>
          69 9 6 8 -1.</_>
        <_>
          67 11 6 4 2.</_></rects>
      <tilted>1</tilted></_>
    <_>
      <rects>
        <_>
          69 20 6 8 -1.</_>
        <_>
          69 20 3 4 2.</_>
        <_>
          72 24 3 4 2.</_></rects>
      <tilted>0</tilted></_>
    <_>
      <rects>
        <_>
          69 22 6 4 -1.</_>
        <_>
          71 24 2 4 3.</_></rects>
      <tilted>1</tilted></_>
    <_>
      <rects>
        <_>
          69 24 4 4 -1.</_>
        <_>
          70 25 2 4 2.</_></rects>
      <tilted>1</tilted></_>
    <_>
      <rects>
        <_>
          70 8 12 12 -1.</_>
        <_>
          70 8 6 12 2.</_></rects>
      <tilted>1</tilted></_>
    <_>
      <rects>
        <_>
          70 13 4 6 -1.</_>
        <_>
          68 15 4 2 3.</_></rects>
      <tilted>1</tilted></_>
    <_>
      <rects>
        <_>
          71 16 3 4 -1.</_>
        <_>
          70 17 3 2 2.</_></rects>
      <tilted>1</tilted></_>
    <_>
      <rects>
        <_>
          72 25 4 5 -1.</_>
        <_>
          73 26 2 5 2.</_></rects>
      <tilted>1</tilted></_>
    <_>
      <rects>
        <_>
          73 10 12 6 -1.</_>
        <_>
          73 10 6 3 2.</_>
        <_>
          79 13 6 3 2.</_></rects>
      <tilted>0</tilted></_>
    <_>
      <rects>
        <_>
          73 22 18 6 -1.</_>
        <_>
          73 22 9 3 2.</_>
        <_>
          82 25 9 3 2.</_></rects>
      <tilted>0</tilted></_>
    <_>
      <rects>
        <_>
          74 22 18 6 -1.</_>
        <_>
          74 22 9 3 2.</_>
        <_>
          83 25 9 3 2.</_></rects>
      <tilted>0</tilted></_>
    <_>
      <rects>
        <_>
          75 29 6 4 -1.</_>
        <_>
          77 31 2 4 3.</_></rects>
      <tilted>1</tilted></_>
    <_>
      <rects>
        <_>
          77 23 6 3 -1.</_>
        <_>
          79 25 2 3 3.</_></rects>
      <tilted>1</tilted></_>
    <_>
      <rects>
        <_>
          81 19 6 8 -1.</_>
        <_>
          83 21 2 8 3.</_></rects>
      <tilted>1</tilted></_>
    <_>
      <rects>
        <_>
          82 1 18 24 -1.</_>
        <_>
          82 7 18 12 2.</_></rects>
      <tilted>0</tilted></_>
    <_>
      <rects>
        <_>
          83 20 22 8 -1.</_>
        <_>
          83 20 11 4 2.</_>
        <_>
          94 24 11 4 2.</_></rects>
      <tilted>0</tilted></_>
    <_>
      <rects>
        <_>
          87 13 24 14 -1.</_>
        <_>
          87 13 12 7 2.</_>
        <_>
          99 20 12 7 2.</_></rects>
      <tilted>0</tilted></_>
    <_>
      <rects>
        <_>
          87 15 26 10 -1.</_>
        <_>
          87 15 13 5 2.</_>
        <_>
          100 20 13 5 2.</_></rects>
      <tilted>0</tilted></_>
    <_>
      <rects>
        <_>
          97 18 3 14 -1.</_>
        <_>
          97 25 3 7 2.</_></rects>
      <tilted>0</tilted></_></features></cascade>
</opencv_storage>
