<?xml version="1.0"?>
<opencv_storage>
<cascade>
  <stageType>BOOST</stageType>
  <featureType>LBP</featureType>
  <height>40</height>
  <width>120</width>
  <stageParams>
    <boostType>GAB</boostType>
    <minHitRate>9.9900001287460327e-01</minHitRate>
    <maxFalseAlarm>5.0000000000000000e-01</maxFalseAlarm>
    <weightTrimRate>9.4999999999999996e-01</weightTrimRate>
    <maxDepth>1</maxDepth>
    <maxWeakCount>100</maxWeakCount></stageParams>
  <featureParams>
    <maxCatCount>256</maxCatCount>
    <featSize>1</featSize></featureParams>
  <stageNum>20</stageNum>
  <stages>
    <!-- stage 0 -->
    <_>
      <maxWeakCount>4</maxWeakCount>
      <stageThreshold>-1.3507347106933594e+00</stageThreshold>
      <weakClassifiers>
        <_>
          <internalNodes>
            0 -1 23 368017416 2013263114 1610612675 2144468874 351243402
            -536870993 1090487759 -8305</internalNodes>
          <leafValues>
            -6.9337981939315796e-01 7.7777779102325439e-01</leafValues></_>
        <_>
          <internalNodes>
            0 -1 15 -2063576837 -754905088 151113823 286871811
            -1576877942 -2113273855 11110651 1092291275</internalNodes>
          <leafValues>
            -6.7773413658142090e-01 7.2937148809432983e-01</leafValues></_>
        <_>
          <internalNodes>
            0 -1 53 1493428378 1360330883 541971 1427472395 671324558
            -1987493848 1224851611 2102642767</internalNodes>
          <leafValues>
            -6.4303880929946899e-01 7.0866769552230835e-01</leafValues></_>
        <_>
          <internalNodes>
            0 -1 22 -1744629709 -787398640 -2147221483 -783201638
            940048570 -670400512 -1206286149 141134041</internalNodes>
          <leafValues>
            -7.5875830650329590e-01 6.6341799497604370e-01</leafValues></_></weakClassifiers></_>
    <!-- stage 1 -->
    <_>
      <maxWeakCount>5</maxWeakCount>
      <stageThreshold>-7.2217696905136108e-01</stageThreshold>
      <weakClassifiers>
        <_>
          <internalNodes>
            0 -1 2 -1079392102 -13152256 -1416626177 2133529883
            -1423277938 -81133566 168333454 523978011</internalNodes>
          <leafValues>
            -6.3986015319824219e-01 7.4513620138168335e-01</leafValues></_>
        <_>
          <internalNodes>
            0 -1 20 -774142976 1393639701 1360576512 -245952509
            -1870093686 -2006974189 -1450456950 -105131349</internalNodes>
          <leafValues>
            -7.1597325801849365e-01 6.4618569612503052e-01</leafValues></_>
        <_>
          <internalNodes>
            0 -1 59 -654060822 -250634226 1073780836 1897056914
            1157628043 167837698 570622459 1594327583</internalNodes>
          <leafValues>
            -7.1971434354782104e-01 6.2141007184982300e-01</leafValues></_>
        <_>
          <internalNodes>
            0 -1 68 1838148883 -1530818283 1141985435 -1357807611
            -503113821 -1433956077 1086448305 -813182601</internalNodes>
          <leafValues>
            -6.4700633287429810e-01 6.9553035497665405e-01</leafValues></_>
        <_>
          <internalNodes>
            0 -1 104 -2145842137 823201811 2179359 1351745794
            -2147219093 -1675624446 536890060 -2003517293</internalNodes>
          <leafValues>
            -7.0119428634643555e-01 6.5925270318984985e-01</leafValues></_></weakClassifiers></_>
    <!-- stage 2 -->
    <_>
      <maxWeakCount>4</maxWeakCount>
      <stageThreshold>-1.3032566308975220e+00</stageThreshold>
      <weakClassifiers>
        <_>
          <internalNodes>
            0 -1 82 801013567 -1372586193 -1271818 -25231426 1977578103
            -1 1996455797 -12</internalNodes>
          <leafValues>
            -6.3424122333526611e-01 6.6850829124450684e-01</leafValues></_>
        <_>
          <internalNodes>
            0 -1 56 -1551695357 1368719431 1476436403 1091637505
            -536829447 -213909504 16884619 -444357694</internalNodes>
          <leafValues>
            -7.2291952371597290e-01 5.6984770298004150e-01</leafValues></_>
        <_>
          <internalNodes>
            0 -1 37 1365222403 -1878588469 -1509719792 1150808579
            1208733890 -1997832157 -896894181 -72619837</internalNodes>
          <leafValues>
            -5.9378892183303833e-01 6.9086331129074097e-01</leafValues></_>
        <_>
          <internalNodes>
            0 -1 100 -901029817 -721272570 1073790991 1141031442
            -1064992605 -2147254264 1073996475 1078390395</internalNodes>
          <leafValues>
            -6.5505647659301758e-01 6.3593918085098267e-01</leafValues></_></weakClassifiers></_>
    <!-- stage 3 -->
    <_>
      <maxWeakCount>4</maxWeakCount>
      <stageThreshold>-1.1947706937789917e+00</stageThreshold>
      <weakClassifiers>
        <_>
          <internalNodes>
            0 -1 27 -576722934 1401152298 -788414208 1896972290
            1092219310 134350979 -2137419622 1907348423</internalNodes>
          <leafValues>
            -6.9620251655578613e-01 6.4831262826919556e-01</leafValues></_>
        <_>
          <internalNodes>
            0 -1 61 -4497921 -33156 -40963 2100985724 -1074332172
            -8454147 -570753281 -5089159</internalNodes>
          <leafValues>
            -5.2487337589263916e-01 7.4338036775588989e-01</leafValues></_>
        <_>
          <internalNodes>
            0 -1 72 -1894170313 -1587050286 -712916521 -580532217
            -368242633 -1180073339 -1073493545 -998773293</internalNodes>
          <leafValues>
            -6.4796060323715210e-01 6.1070626974105835e-01</leafValues></_>
        <_>
          <internalNodes>
            0 -1 4 -1191079462 -746434560 -452705795 1930629265
            -1442807574 -2029449199 52955615 -632567329</internalNodes>
          <leafValues>
            -6.7024934291839600e-01 6.3555771112442017e-01</leafValues></_></weakClassifiers></_>
    <!-- stage 4 -->
    <_>
      <maxWeakCount>5</maxWeakCount>
      <stageThreshold>-6.5085083246231079e-01</stageThreshold>
      <weakClassifiers>
        <_>
          <internalNodes>
            0 -1 8 -72691494 -1760886784 -201326601 322001747
            -1970631990 -1962262258 199151615 186371743</internalNodes>
          <leafValues>
            -5.2695649862289429e-01 6.8585366010665894e-01</leafValues></_>
        <_>
          <internalNodes>
            0 -1 64 -703091256 -183039599 -2138455969 -184090140
            545267953 -116243566 566415499 1695804047</internalNodes>
          <leafValues>
            -6.8243277072906494e-01 5.3796911239624023e-01</leafValues></_>
        <_>
          <internalNodes>
            0 -1 5 -1115433975 -787473647 -2129620777 -787361728
            -2001565558 -1476140758 168837274 -77887317</internalNodes>
          <leafValues>
            -5.7475769519805908e-01 6.3411068916320801e-01</leafValues></_>
        <_>
          <internalNodes>
            0 -1 17 -1184870049 -598665207 -1811565217 487801688
            -1424162630 -1962917808 148029646 1244317901</internalNodes>
          <leafValues>
            -6.4321780204772949e-01 5.9160912036895752e-01</leafValues></_>
        <_>
          <internalNodes>
            0 -1 111 -1429001429 1146922 88080389 -1507964860 -746503633
            -100663293 -1439966848 -320089969</internalNodes>
          <leafValues>
            -6.4516460895538330e-01 6.0036337375640869e-01</leafValues></_></weakClassifiers></_>
    <!-- stage 5 -->
    <_>
      <maxWeakCount>5</maxWeakCount>
      <stageThreshold>-8.0058461427688599e-01</stageThreshold>
      <weakClassifiers>
        <_>
          <internalNodes>
            0 -1 65 1369403554 -643209171 738230286 218698498 1610817959
            4194496 1082188171 1108077195</internalNodes>
          <leafValues>
            -6.8941175937652588e-01 5.8978724479675293e-01</leafValues></_>
        <_>
          <internalNodes>
            0 -1 13 -251438898 -675805184 -1589602089 -1861021411
            -2105540402 -1174388144 -1967094053 -552511333</internalNodes>
          <leafValues>
            -6.0723429918289185e-01 5.7651942968368530e-01</leafValues></_>
        <_>
          <internalNodes>
            0 -1 81 -1583385257 -2008899389 1426133441 -739540141
            -1853153581 -914358143 -1563782605 -573969771</internalNodes>
          <leafValues>
            -6.1242258548736572e-01 5.9853202104568481e-01</leafValues></_>
        <_>
          <internalNodes>
            0 -1 96 222102059 -1082165377 -16875521 -1208893577
            1325283326 -285214849 -291508289 -352438795</internalNodes>
          <leafValues>
            -5.9987938404083252e-01 6.5756648778915405e-01</leafValues></_>
        <_>
          <internalNodes>
            0 -1 28 -715959853 -1962651376 16779549 1342849046 202293455
            -1356333046 1212186827 457607553</internalNodes>
          <leafValues>
            -6.8634486198425293e-01 5.3865289688110352e-01</leafValues></_></weakClassifiers></_>
    <!-- stage 6 -->
    <_>
      <maxWeakCount>6</maxWeakCount>
      <stageThreshold>-1.3408880233764648e+00</stageThreshold>
      <weakClassifiers>
        <_>
          <internalNodes>
            0 -1 86 -1342820575 -8075 -13172873 -1116229723 -426745739
            -163849 -1124811017 -453691403</internalNodes>
          <leafValues>
            -5.5294120311737061e-01 6.2568807601928711e-01</leafValues></_>
        <_>
          <internalNodes>
            0 -1 79 -1113711361 -681889455 -2147221029 2097676801
            -1740603201 -796196864 -1970533671 1042291997</internalNodes>
          <leafValues>
            -6.9965428113937378e-01 5.0156784057617188e-01</leafValues></_>
        <_>
          <internalNodes>
            0 -1 26 -385814057 -908525360 2080456789 268435473
            -1933512225 -1945464700 138445531 2131853379</internalNodes>
          <leafValues>
            -5.9630841016769409e-01 6.0130006074905396e-01</leafValues></_>
        <_>
          <internalNodes>
            0 -1 10 -311957363 -81531087 222905364 1195573121
            -1001420597 -4222177 -582132321 -1085387365</internalNodes>
          <leafValues>
            -5.1922464370727539e-01 6.9645291566848755e-01</leafValues></_>
        <_>
          <internalNodes>
            0 -1 43 -1559287821 -879402687 -1987967851 491061509
            -1052766046 -1911389184 1107296903 -431963321</internalNodes>
          <leafValues>
            -6.6051292419433594e-01 5.2160483598709106e-01</leafValues></_>
        <_>
          <internalNodes>
            0 -1 14 -1248505801 -641658868 287604763 -2024337133
            -1996357624 -1945534456 142723279 -1999255047</internalNodes>
          <leafValues>
            -7.2105127573013306e-01 5.0912415981292725e-01</leafValues></_></weakClassifiers></_>
    <!-- stage 7 -->
    <_>
      <maxWeakCount>5</maxWeakCount>
      <stageThreshold>-6.2959843873977661e-01</stageThreshold>
      <weakClassifiers>
        <_>
          <internalNodes>
            0 -1 45 1393191498 1388437583 805904627 1932665498
            1107558467 -2121596924 1880284119 1936978182</internalNodes>
          <leafValues>
            -7.3369562625885010e-01 5.4383116960525513e-01</leafValues></_>
        <_>
          <internalNodes>
            0 -1 9 -92546853 -7386919 -268435489 1999314331 -1414903093
            -343274236 -1677734913 -1690580003</internalNodes>
          <leafValues>
            -4.4589051604270935e-01 7.2298580408096313e-01</leafValues></_>
        <_>
          <internalNodes>
            0 -1 52 -1959573933 -682227849 -1216906437 1897075619
            -1410081861 -5028237 -2022514952 -151801957</internalNodes>
          <leafValues>
            -5.4597556591033936e-01 6.0417973995208740e-01</leafValues></_>
        <_>
          <internalNodes>
            0 -1 55 -148791969 -1339617272 -721202922 -661475050
            -234732967 420479105 -930758519 -24458555</internalNodes>
          <leafValues>
            -5.6046342849731445e-01 6.0496723651885986e-01</leafValues></_>
        <_>
          <internalNodes>
            0 -1 105 -104676414 293642474 1073811528 -78049141
            -1731647286 -536838140 1090603979 1459867823</internalNodes>
          <leafValues>
            -6.5915924310684204e-01 5.3006398677825928e-01</leafValues></_></weakClassifiers></_>
    <!-- stage 8 -->
    <_>
      <maxWeakCount>5</maxWeakCount>
      <stageThreshold>-7.0862066745758057e-01</stageThreshold>
      <weakClassifiers>
        <_>
          <internalNodes>
            0 -1 73 264220655 -1508204545 -1719106795 -1375694456
            -1990690179 -545390593 -537407932 -321519626</internalNodes>
          <leafValues>
            -5.2290076017379761e-01 6.2639403343200684e-01</leafValues></_>
        <_>
          <internalNodes>
            0 -1 113 -1059126409 -523165607 -738176131 1112543242
            -351649261 -327147519 -928831244 -359667165</internalNodes>
          <leafValues>
            -5.8504360914230347e-01 5.5967479944229126e-01</leafValues></_>
        <_>
          <internalNodes>
            0 -1 60 629358491 -7253871 295763999 1897812500 -2013221189
            -1702297599 -1464679733 -634877671</internalNodes>
          <leafValues>
            -5.5915129184722900e-01 5.9877234697341919e-01</leafValues></_>
        <_>
          <internalNodes>
            0 -1 87 -687091198 285913136 -2012651303 -821190571
            -1069498149 -231595990 -939275637 5945613</internalNodes>
          <leafValues>
            -7.0305252075195312e-01 5.0517886877059937e-01</leafValues></_>
        <_>
          <internalNodes>
            0 -1 78 -2011970245 272740387 -1979645155 974176304 34174111
            -1742462917 34275516 -30783231</internalNodes>
          <leafValues>
            -6.3248574733734131e-01 5.6949990987777710e-01</leafValues></_></weakClassifiers></_>
    <!-- stage 9 -->
    <_>
      <maxWeakCount>5</maxWeakCount>
      <stageThreshold>-4.7121024131774902e-01</stageThreshold>
      <weakClassifiers>
        <_>
          <internalNodes>
            0 -1 67 -480141151 -143317003 2146828275 -403331201
            -151668819 -34209817 2004217839 -447352985</internalNodes>
          <leafValues>
            -3.9730134606361389e-01 7.1275454759597778e-01</leafValues></_>
        <_>
          <internalNodes>
            0 -1 70 -1307543297 -217050911 1630634007 1482689477
            -2137488994 -653197072 -343574279 403325167</internalNodes>
          <leafValues>
            -5.7524156570434570e-01 5.8026421070098877e-01</leafValues></_>
        <_>
          <internalNodes>
            0 -1 36 -1988931085 -174366653 -1039892257 -144424511
            -1425753942 -1952776051 -2109500933 -20327501</internalNodes>
          <leafValues>
            -5.3314405679702759e-01 6.1547791957855225e-01</leafValues></_>
        <_>
          <internalNodes>
            0 -1 63 -891046093 -35414237 -1090523137 -1887967246
            -268963914 -419727433 -2064125953 -822609929</internalNodes>
          <leafValues>
            -4.7660899162292480e-01 6.8205386400222778e-01</leafValues></_>
        <_>
          <internalNodes>
            0 -1 102 56568175 286892354 1074365021 1167302852
            -2000451346 -1072693119 -1968534885 -489119551</internalNodes>
          <leafValues>
            -7.4759215116500854e-01 4.9669912457466125e-01</leafValues></_></weakClassifiers></_>
    <!-- stage 10 -->
    <_>
      <maxWeakCount>7</maxWeakCount>
      <stageThreshold>-7.0010918378829956e-01</stageThreshold>
      <weakClassifiers>
        <_>
          <internalNodes>
            0 -1 41 -1949892321 172265731 -2143185646 -905936701
            1623392357 203063427 40567904 -287907663</internalNodes>
          <leafValues>
            -6.3800907135009766e-01 5.8894646167755127e-01</leafValues></_>
        <_>
          <internalNodes>
            0 -1 88 -1946203337 -1677531053 -1936863221 -1177321085
            -938518409 187433474 -620653739 -355475148</internalNodes>
          <leafValues>
            -6.3258492946624756e-01 5.2961242198944092e-01</leafValues></_>
        <_>
          <internalNodes>
            0 -1 76 -1182856073 -1074036741 -16777537 -94179486
            -855879953 -16877569 -940160257 -1191674156</internalNodes>
          <leafValues>
            -5.2190214395523071e-01 6.5110707283020020e-01</leafValues></_>
        <_>
          <internalNodes>
            0 -1 46 1121174799 1981867555 1552499713 1849682987
            -1535673139 -830668897 1178029589 -855900289</internalNodes>
          <leafValues>
            -5.3209292888641357e-01 6.3553881645202637e-01</leafValues></_>
        <_>
          <internalNodes>
            0 -1 77 547160701 -618717041 69309783 -1258061745 1132532955
            -1985986432 -1878310403 -1428260207</internalNodes>
          <leafValues>
            -6.3948667049407959e-01 5.2847659587860107e-01</leafValues></_>
        <_>
          <internalNodes>
            0 -1 1 -106899724 2142827825 1852768255 1866432343
            -1430712181 -1153752285 -1017411105 -140851</internalNodes>
          <leafValues>
            -5.6745439767837524e-01 6.4337539672851562e-01</leafValues></_>
        <_>
          <internalNodes>
            0 -1 97 270264536 1897234457 268580121 1565491305
            -1861527122 143280165 46188575 1595922585</internalNodes>
          <leafValues>
            -6.6637134552001953e-01 5.3899818658828735e-01</leafValues></_></weakClassifiers></_>
    <!-- stage 11 -->
    <_>
      <maxWeakCount>6</maxWeakCount>
      <stageThreshold>-1.2348029613494873e+00</stageThreshold>
      <weakClassifiers>
        <_>
          <internalNodes>
            0 -1 83 9389855 -2133679872 1078018151 -700401526
            -1735701937 -1879005184 -528424351 -221908560</internalNodes>
          <leafValues>
            -5.9731543064117432e-01 5.7849091291427612e-01</leafValues></_>
        <_>
          <internalNodes>
            0 -1 112 -2058376409 537823497 -2130558895 -2104371197
            -1971154669 -1207811453 1619558405 -221271773</internalNodes>
          <leafValues>
            -5.4904514551162720e-01 5.4650890827178955e-01</leafValues></_>
        <_>
          <internalNodes>
            0 -1 98 -1147971591 -687709867 -2126446477 -1660534301
            369269167 -376788864 -1126063699 -1371927379</internalNodes>
          <leafValues>
            -5.9079140424728394e-01 5.4649347066879272e-01</leafValues></_>
        <_>
          <internalNodes>
            0 -1 7 -73805110 -285126656 4357 1460775425 -2146926454
            -1455746792 1526747275 289331341</internalNodes>
          <leafValues>
            -6.4993345737457275e-01 5.1606202125549316e-01</leafValues></_>
        <_>
          <internalNodes>
            0 -1 92 -128204670 -2053262617 -804220863 1074115723
            -837121405 1216479394 -964441973 30396622</internalNodes>
          <leafValues>
            -6.5356844663619995e-01 4.7670581936836243e-01</leafValues></_>
        <_>
          <internalNodes>
            0 -1 84 -348938479 -80216704 838611769 -578831306 1063114165
            356351093 524197051 -558906183</internalNodes>
          <leafValues>
            -5.3595089912414551e-01 6.5197306871414185e-01</leafValues></_></weakClassifiers></_>
    <!-- stage 12 -->
    <_>
      <maxWeakCount>6</maxWeakCount>
      <stageThreshold>-1.4733048677444458e+00</stageThreshold>
      <weakClassifiers>
        <_>
          <internalNodes>
            0 -1 50 643787551 37978373 -984534247 211962626 143070003
            -368541626 -1021637353 -990614749</internalNodes>
          <leafValues>
            -6.4251208305358887e-01 5.6155145168304443e-01</leafValues></_>
        <_>
          <internalNodes>
            0 -1 106 -535597699 1078395143 67449757 -1541992421
            -2071281661 -618856189 671983818 -388076945</internalNodes>
          <leafValues>
            -5.6588685512542725e-01 5.3240060806274414e-01</leafValues></_>
        <_>
          <internalNodes>
            0 -1 25 1469748735 -1895202797 606868573 1343881237
            -1073182709 -1995890151 314671537 1566560504</internalNodes>
          <leafValues>
            -6.5524017810821533e-01 5.0135171413421631e-01</leafValues></_>
        <_>
          <internalNodes>
            0 -1 57 -1005091547 1402050707 -2130046627 -1593342975
            -525841775 -2004711199 310483966 1896186410</internalNodes>
          <leafValues>
            -7.3396265506744385e-01 4.5134937763214111e-01</leafValues></_>
        <_>
          <internalNodes>
            0 -1 85 -1435041058 1427456013 1224818719 1604096063
            -1731810166 -905805754 -2059370294 -1205409644</internalNodes>
          <leafValues>
            -5.6888371706008911e-01 5.8089882135391235e-01</leafValues></_>
        <_>
          <internalNodes>
            0 -1 95 957760767 -108821501 -1073716839 -1176895485
            -2146614835 -1962770421 -1463107409 -1967239096</internalNodes>
          <leafValues>
            -6.7218446731567383e-01 5.0786858797073364e-01</leafValues></_></weakClassifiers></_>
    <!-- stage 13 -->
    <_>
      <maxWeakCount>6</maxWeakCount>
      <stageThreshold>-1.0284261703491211e+00</stageThreshold>
      <weakClassifiers>
        <_>
          <internalNodes>
            0 -1 107 -293638321 1786642431 -268501377 -1434550290 -45187
            -557057 -805897098 -491454473</internalNodes>
          <leafValues>
            -4.2808219790458679e-01 6.3976377248764038e-01</leafValues></_>
        <_>
          <internalNodes>
            0 -1 39 1209994787 1084289538 84993 -653195509 679666337
            2654338 1649664773 -342890209</internalNodes>
          <leafValues>
            -5.8079105615615845e-01 5.1339399814605713e-01</leafValues></_>
        <_>
          <internalNodes>
            0 -1 29 -310128167 -774635517 336643485 1480606721
            -1433755365 -1207631854 148105434 -32841629</internalNodes>
          <leafValues>
            -5.2036684751510620e-01 6.1241060495376587e-01</leafValues></_>
        <_>
          <internalNodes>
            0 -1 110 -1342234765 -1091469441 -3 -583647371 -25723409
            -589826 -51421697 -357900324</internalNodes>
          <leafValues>
            -5.5462568998336792e-01 6.0106968879699707e-01</leafValues></_>
        <_>
          <internalNodes>
            0 -1 12 -1343566177 -550260933 1207980997 1427594595
            -318796722 -603 1330728523 -1612849281</internalNodes>
          <leafValues>
            -5.6370139122009277e-01 5.8896344900131226e-01</leafValues></_>
        <_>
          <internalNodes>
            0 -1 0 -1221340421 -786952041 -1676483499 1359546633
            1477791811 1646788610 151507080 1326174529</internalNodes>
          <leafValues>
            -6.0782146453857422e-01 5.5661118030548096e-01</leafValues></_></weakClassifiers></_>
    <!-- stage 14 -->
    <_>
      <maxWeakCount>6</maxWeakCount>
      <stageThreshold>-1.3315916061401367e+00</stageThreshold>
      <weakClassifiers>
        <_>
          <internalNodes>
            0 -1 93 -1394990315 -393707371 -2147382135 -23314171
            1074401608 -1073184126 -636528025 -858961120</internalNodes>
          <leafValues>
            -6.2186789512634277e-01 5.7967269420623779e-01</leafValues></_>
        <_>
          <internalNodes>
            0 -1 33 -146423806 -989671285 -712963057 -1058717295
            -1878923263 404849474 -653291253 -1058802805</internalNodes>
          <leafValues>
            -5.4579716920852661e-01 5.1184159517288208e-01</leafValues></_>
        <_>
          <internalNodes>
            0 -1 42 -2057872673 1435594824 306598297 1342706450
            151160906 1308688448 92914137 1530578325</internalNodes>
          <leafValues>
            -6.9023799896240234e-01 4.1629958152770996e-01</leafValues></_>
        <_>
          <internalNodes>
            0 -1 40 -1026362448 25494788 2043074576 -720550902 58890963
            1621164168 -402083789 -1031032185</internalNodes>
          <leafValues>
            -6.4369344711303711e-01 4.9270707368850708e-01</leafValues></_>
        <_>
          <internalNodes>
            0 -1 18 1913061451 1897075335 16875529 1024532763 958425771
            -201193373 402702733 -854966005</internalNodes>
          <leafValues>
            -5.4645597934722900e-01 5.6959480047225952e-01</leafValues></_>
        <_>
          <internalNodes>
            0 -1 6 -779890277 -989826551 -1862188782 -669810599
            -1583574519 -1434287090 162032186 -1635082126</internalNodes>
          <leafValues>
            -5.9161728620529175e-01 5.7617336511611938e-01</leafValues></_></weakClassifiers></_>
    <!-- stage 15 -->
    <_>
      <maxWeakCount>5</maxWeakCount>
      <stageThreshold>-6.8175762891769409e-01</stageThreshold>
      <weakClassifiers>
        <_>
          <internalNodes>
            0 -1 24 823591050 1361375506 1342208520 1430487434
            1369030794 -1340030816 283140266 1097201834</internalNodes>
          <leafValues>
            -8.5714286565780640e-01 4.7076460719108582e-01</leafValues></_>
        <_>
          <internalNodes>
            0 -1 49 -1380583561 -308215941 -9 -983171 1325268988
            -1342177281 -1115693067 -663695</internalNodes>
          <leafValues>
            -4.7280338406562805e-01 5.9155720472335815e-01</leafValues></_>
        <_>
          <internalNodes>
            0 -1 35 -486583041 855105584 -129 1416655477 -1413489810
            -1346661517 -1363524871 -46508973</internalNodes>
          <leafValues>
            -4.9169191718101501e-01 6.0152846574783325e-01</leafValues></_>
        <_>
          <internalNodes>
            0 -1 108 -285499537 795869055 -13 -1964048456 2147439957
            -34111489 -33720394 -17301513</internalNodes>
          <leafValues>
            -5.3246343135833740e-01 5.7793611288070679e-01</leafValues></_>
        <_>
          <internalNodes>
            0 -1 75 -1828499432 2002552085 -1073659624 1426399233
            -1454208806 -91045888 545428415 169492633</internalNodes>
          <leafValues>
            -7.1992409229278564e-01 4.4982367753982544e-01</leafValues></_></weakClassifiers></_>
    <!-- stage 16 -->
    <_>
      <maxWeakCount>9</maxWeakCount>
      <stageThreshold>-8.9092665910720825e-01</stageThreshold>
      <weakClassifiers>
        <_>
          <internalNodes>
            0 -1 90 688066869 -1715203887 293689733 -1823929983
            2046847809 -1734246397 -1040064073 -1465618331</internalNodes>
          <leafValues>
            -6.3496142625808716e-01 5.3426921367645264e-01</leafValues></_>
        <_>
          <internalNodes>
            0 -1 16 -1839770529 -212271095 67147991 1494585815
            -2117533686 -1197440760 403546856 219862152</internalNodes>
          <leafValues>
            -6.1972272396087646e-01 4.4323149323463440e-01</leafValues></_>
        <_>
          <internalNodes>
            0 -1 94 -787690002 -1802924991 16863886 84205837 1099145467
            5349656 42721674 579436611</internalNodes>
          <leafValues>
            -5.8514010906219482e-01 5.3069305419921875e-01</leafValues></_>
        <_>
          <internalNodes>
            0 -1 51 -761167981 402728083 -1593697133 -1988034549
            805573587 -1434386430 -1072869373 -641234065</internalNodes>
          <leafValues>
            -5.4776513576507568e-01 5.4148721694946289e-01</leafValues></_>
        <_>
          <internalNodes>
            0 -1 71 -2058671105 1373571530 -2079170533 1469091843
            -804763494 -804257760 -1442727799 -373782279</internalNodes>
          <leafValues>
            -5.6690675020217896e-01 5.2225261926651001e-01</leafValues></_>
        <_>
          <internalNodes>
            0 -1 11 802093855 -1314835711 -1886431720 -1084242553
            -666236240 -1342211145 -1890054513 -73498707</internalNodes>
          <leafValues>
            -4.9390238523483276e-01 6.5241080522537231e-01</leafValues></_>
        <_>
          <internalNodes>
            0 -1 38 -2075664543 -1929338878 -2130591407 -318754559
            -2009048655 -1476326912 -511696672 -805479933</internalNodes>
          <leafValues>
            -5.6168061494827271e-01 5.8301460742950439e-01</leafValues></_>
        <_>
          <internalNodes>
            0 -1 103 1363887695 1393635653 1140850959 1447938695
            -133854974 -134217717 -234716567 576940663</internalNodes>
          <leafValues>
            -6.5856122970581055e-01 5.0678896903991699e-01</leafValues></_>
        <_>
          <internalNodes>
            0 -1 109 251916075 -2038398781 16875792 35295260 365459915
            2014445698 1359566881 -3421455</internalNodes>
          <leafValues>
            -7.0696067810058594e-01 4.7928705811500549e-01</leafValues></_></weakClassifiers></_>
    <!-- stage 17 -->
    <_>
      <maxWeakCount>7</maxWeakCount>
      <stageThreshold>-7.8522586822509766e-01</stageThreshold>
      <weakClassifiers>
        <_>
          <internalNodes>
            0 -1 69 -1396777417 -2101477521 -57409 -2102624479
            1559363861 -268435457 -318898828 -318898250</internalNodes>
          <leafValues>
            -4.3656715750694275e-01 5.9586465358734131e-01</leafValues></_>
        <_>
          <internalNodes>
            0 -1 48 -806665615 -268471439 1987540863 -11257999 729133880
            -277512201 -2088977413 -25692304</internalNodes>
          <leafValues>
            -4.9705049395561218e-01 5.3947460651397705e-01</leafValues></_>
        <_>
          <internalNodes>
            0 -1 114 -644099750 587874320 -251313511 436749267
            -1441947399 436766856 -1736079016 -634729585</internalNodes>
          <leafValues>
            -5.2668613195419312e-01 5.3067773580551147e-01</leafValues></_>
        <_>
          <internalNodes>
            0 -1 101 -741610102 1185715586 822194370 93291035 -360472064
            1074594338 1950728839 1334827654</internalNodes>
          <leafValues>
            -6.5432006120681763e-01 4.3474724888801575e-01</leafValues></_>
        <_>
          <internalNodes>
            0 -1 47 -1300016581 1561142279 222295 1348206849 -1601130325
            -1308155904 1208078553 1247465604</internalNodes>
          <leafValues>
            -6.4754432439804077e-01 4.6036115288734436e-01</leafValues></_>
        <_>
          <internalNodes>
            0 -1 34 1919000833 1442963459 -1073539056 -872308457
            -796133849 -1876842366 -1736206133 -393744297</internalNodes>
          <leafValues>
            -5.9679734706878662e-01 5.3364020586013794e-01</leafValues></_>
        <_>
          <internalNodes>
            0 -1 62 -914225545 -256868267 83995 5816530 -1039103865
            281059794 1228970126 1807057571</internalNodes>
          <leafValues>
            -6.0312271118164062e-01 5.3471958637237549e-01</leafValues></_></weakClassifiers></_>
    <!-- stage 18 -->
    <_>
      <maxWeakCount>7</maxWeakCount>
      <stageThreshold>-6.0358619689941406e-01</stageThreshold>
      <weakClassifiers>
        <_>
          <internalNodes>
            0 -1 91 -1342947531 -545275915 -1073741839 -16395
            -1073971728 -1 -720905 -1342956203</internalNodes>
          <leafValues>
            -4.7600001096725464e-01 5.7999998331069946e-01</leafValues></_>
        <_>
          <internalNodes>
            0 -1 21 -56668803 -17842241 -285278217 1043873791 1593728770
            -8519809 -4099 -1376289</internalNodes>
          <leafValues>
            -4.2847755551338196e-01 6.0646694898605347e-01</leafValues></_>
        <_>
          <internalNodes>
            0 -1 32 1397614336 1140904998 -963115005 -1566717629
            -1610362808 -1072529405 -2137921267 1090228975</internalNodes>
          <leafValues>
            -7.2097945213317871e-01 3.8141080737113953e-01</leafValues></_>
        <_>
          <internalNodes>
            0 -1 54 -799905187 491983665 84186181 -251477946 -1039597560
            335642630 -1862223671 -188039168</internalNodes>
          <leafValues>
            -5.8539927005767822e-01 4.9067154526710510e-01</leafValues></_>
        <_>
          <internalNodes>
            0 -1 74 140136920 353960192 940110637 352387329 -1467969030
            -352121534 -1986465617 -1890956904</internalNodes>
          <leafValues>
            -6.0690832138061523e-01 4.7532954812049866e-01</leafValues></_>
        <_>
          <internalNodes>
            0 -1 30 -861145551 -1665200593 -41091 -566411442 -323103003
            -805373954 -178948740 -681707633</internalNodes>
          <leafValues>
            -4.5707875490188599e-01 6.7230266332626343e-01</leafValues></_>
        <_>
          <internalNodes>
            0 -1 89 1534849250 1526684376 1056896959 -1971651842
            -629419887 -1144044999 1610508785 1610588343</internalNodes>
          <leafValues>
            -4.9575814604759216e-01 6.1675328016281128e-01</leafValues></_></weakClassifiers></_>
    <!-- stage 19 -->
    <_>
      <maxWeakCount>8</maxWeakCount>
      <stageThreshold>-6.6741013526916504e-01</stageThreshold>
      <weakClassifiers>
        <_>
          <internalNodes>
            0 -1 66 -2102189965 -1089679 -1158130963 1381203681
            -1363225073 -25201033 513473786 405947781</internalNodes>
          <leafValues>
            -4.5849803090095520e-01 5.7769650220870972e-01</leafValues></_>
        <_>
          <internalNodes>
            0 -1 58 -1924933172 -981024634 -2129917606 -725413864
            826302479 272793624 16888010 -1557686782</internalNodes>
          <leafValues>
            -5.6095826625823975e-01 4.5526635646820068e-01</leafValues></_>
        <_>
          <internalNodes>
            0 -1 31 -1060714745 431951407 -8390468 -542163441 -428869643
            -1379930121 1509291825 -187433049</internalNodes>
          <leafValues>
            -4.8212715983390808e-01 5.3498047590255737e-01</leafValues></_>
        <_>
          <internalNodes>
            0 -1 44 -1600640427 -1040916272 -1710731043 -1823390651
            -1732245365 -99221404 -1551438677 989924772</internalNodes>
          <leafValues>
            -6.1390411853790283e-01 4.4645145535469055e-01</leafValues></_>
        <_>
          <internalNodes>
            0 -1 99 1372029450 1359044864 196749 -779239039 1774739624
            -1807645568 -121525714 -36775762</internalNodes>
          <leafValues>
            -5.3009694814682007e-01 5.5164480209350586e-01</leafValues></_>
        <_>
          <internalNodes>
            0 -1 3 814940216 -779390861 34721939 1560364416 -1576898560
            -1207811967 -134166902 2130871434</internalNodes>
          <leafValues>
            -7.1613812446594238e-01 4.1568073630332947e-01</leafValues></_>
        <_>
          <internalNodes>
            0 -1 80 -1239970528 -687808507 -242384486 -716881509
            -301934367 -1295974016 -1606235512 275112395</internalNodes>
          <leafValues>
            -7.1952176094055176e-01 4.2150607705116272e-01</leafValues></_>
        <_>
          <internalNodes>
            0 -1 19 -1050673413 197723163 -872414207 1951404049
            -1995843282 -2143157503 176221500 1096008242</internalNodes>
          <leafValues>
            -7.8068226575851440e-01 3.6237117648124695e-01</leafValues></_></weakClassifiers></_></stages>
  <features>
    <_>
      <rect>
        1 1 20 9</rect></_>
    <_>
      <rect>
        12 3 28 12</rect></_>
    <_>
      <rect>
        15 0 27 12</rect></_>
    <_>
      <rect>
        15 14 10 6</rect></_>
    <_>
      <rect>
        16 3 28 11</rect></_>
    <_>
      <rect>
        17 5 24 10</rect></_>
    <_>
      <rect>
        18 6 23 6</rect></_>
    <_>
      <rect>
        19 7 31 9</rect></_>
    <_>
      <rect>
        21 2 30 11</rect></_>
    <_>
      <rect>
        25 0 27 12</rect></_>
    <_>
      <rect>
        25 10 22 8</rect></_>
    <_>
      <rect>
        28 14 22 7</rect></_>
    <_>
      <rect>
        29 15 21 5</rect></_>
    <_>
      <rect>
        30 1 22 11</rect></_>
    <_>
      <rect>
        31 0 12 6</rect></_>
    <_>
      <rect>
        31 0 24 11</rect></_>
    <_>
      <rect>
        33 0 11 5</rect></_>
    <_>
      <rect>
        33 0 12 6</rect></_>
    <_>
      <rect>
        33 21 5 4</rect></_>
    <_>
      <rect>
        35 0 27 7</rect></_>
    <_>
      <rect>
        39 15 11 6</rect></_>
    <_>
      <rect>
        39 28 1 1</rect></_>
    <_>
      <rect>
        40 3 7 5</rect></_>
    <_>
      <rect>
        40 7 10 8</rect></_>
    <_>
      <rect>
        41 9 9 8</rect></_>
    <_>
      <rect>
        42 0 13 3</rect></_>
    <_>
      <rect>
        42 2 19 4</rect></_>
    <_>
      <rect>
        42 14 8 5</rect></_>
    <_>
      <rect>
        44 0 16 5</rect></_>
    <_>
      <rect>
        45 1 15 7</rect></_>
    <_>
      <rect>
        45 13 4 5</rect></_>
    <_>
      <rect>
        45 14 4 5</rect></_>
    <_>
      <rect>
        45 18 6 5</rect></_>
    <_>
      <rect>
        45 20 5 4</rect></_>
    <_>
      <rect>
        47 16 5 5</rect></_>
    <_>
      <rect>
        48 0 16 7</rect></_>
    <_>
      <rect>
        49 4 10 6</rect></_>
    <_>
      <rect>
        49 10 5 7</rect></_>
    <_>
      <rect>
        49 14 2 3</rect></_>
    <_>
      <rect>
        49 15 5 6</rect></_>
    <_>
      <rect>
        49 18 5 3</rect></_>
    <_>
      <rect>
        49 21 1 1</rect></_>
    <_>
      <rect>
        50 0 8 3</rect></_>
    <_>
      <rect>
        50 6 11 7</rect></_>
    <_>
      <rect>
        50 7 3 2</rect></_>
    <_>
      <rect>
        50 11 9 7</rect></_>
    <_>
      <rect>
        50 17 4 5</rect></_>
    <_>
      <rect>
        51 1 4 2</rect></_>
    <_>
      <rect>
        51 5 10 6</rect></_>
    <_>
      <rect>
        51 17 1 1</rect></_>
    <_>
      <rect>
        51 19 1 1</rect></_>
    <_>
      <rect>
        51 19 4 3</rect></_>
    <_>
      <rect>
        52 5 6 5</rect></_>
    <_>
      <rect>
        52 7 8 10</rect></_>
    <_>
      <rect>
        53 1 2 1</rect></_>
    <_>
      <rect>
        54 0 2 1</rect></_>
    <_>
      <rect>
        54 9 6 4</rect></_>
    <_>
      <rect>
        54 13 6 3</rect></_>
    <_>
      <rect>
        54 18 4 2</rect></_>
    <_>
      <rect>
        54 18 7 6</rect></_>
    <_>
      <rect>
        54 34 3 2</rect></_>
    <_>
      <rect>
        55 0 2 2</rect></_>
    <_>
      <rect>
        55 11 5 3</rect></_>
    <_>
      <rect>
        55 13 4 2</rect></_>
    <_>
      <rect>
        55 13 6 4</rect></_>
    <_>
      <rect>
        55 18 6 4</rect></_>
    <_>
      <rect>
        55 34 4 2</rect></_>
    <_>
      <rect>
        56 9 5 5</rect></_>
    <_>
      <rect>
        56 14 3 2</rect></_>
    <_>
      <rect>
        56 21 1 1</rect></_>
    <_>
      <rect>
        57 1 17 10</rect></_>
    <_>
      <rect>
        57 3 1 1</rect></_>
    <_>
      <rect>
        57 15 2 1</rect></_>
    <_>
      <rect>
        57 20 1 1</rect></_>
    <_>
      <rect>
        57 21 13 6</rect></_>
    <_>
      <rect>
        57 31 5 3</rect></_>
    <_>
      <rect>
        57 34 2 1</rect></_>
    <_>
      <rect>
        57 36 1 1</rect></_>
    <_>
      <rect>
        58 0 5 2</rect></_>
    <_>
      <rect>
        58 1 2 2</rect></_>
    <_>
      <rect>
        58 14 5 3</rect></_>
    <_>
      <rect>
        58 16 1 1</rect></_>
    <_>
      <rect>
        58 19 1 1</rect></_>
    <_>
      <rect>
        58 20 1 1</rect></_>
    <_>
      <rect>
        58 27 6 3</rect></_>
    <_>
      <rect>
        59 13 8 5</rect></_>
    <_>
      <rect>
        59 15 2 1</rect></_>
    <_>
      <rect>
        59 15 4 4</rect></_>
    <_>
      <rect>
        59 16 1 1</rect></_>
    <_>
      <rect>
        59 16 3 5</rect></_>
    <_>
      <rect>
        60 15 1 1</rect></_>
    <_>
      <rect>
        61 15 1 1</rect></_>
    <_>
      <rect>
        61 17 3 4</rect></_>
    <_>
      <rect>
        61 19 1 1</rect></_>
    <_>
      <rect>
        61 19 5 3</rect></_>
    <_>
      <rect>
        61 34 1 1</rect></_>
    <_>
      <rect>
        61 37 1 1</rect></_>
    <_>
      <rect>
        62 25 8 4</rect></_>
    <_>
      <rect>
        63 3 2 2</rect></_>
    <_>
      <rect>
        63 12 5 6</rect></_>
    <_>
      <rect>
        63 13 3 5</rect></_>
    <_>
      <rect>
        63 20 3 3</rect></_>
    <_>
      <rect>
        63 37 1 1</rect></_>
    <_>
      <rect>
        64 16 2 3</rect></_>
    <_>
      <rect>
        64 37 2 1</rect></_>
    <_>
      <rect>
        65 16 5 3</rect></_>
    <_>
      <rect>
        66 17 1 1</rect></_>
    <_>
      <rect>
        67 18 1 1</rect></_>
    <_>
      <rect>
        67 22 1 1</rect></_>
    <_>
      <rect>
        67 26 1 1</rect></_>
    <_>
      <rect>
        68 5 1 1</rect></_>
    <_>
      <rect>
        68 21 1 1</rect></_>
    <_>
      <rect>
        68 23 1 1</rect></_>
    <_>
      <rect>
        69 19 1 1</rect></_>
    <_>
      <rect>
        88 10 10 5</rect></_></features></cascade>
</opencv_storage>
