<?xml version="1.0"?>
<opencv_storage>
<stage8>
  <maxWeakCount>7</maxWeakCount>
  <stageThreshold>-9.1643881797790527e-01</stageThreshold>
  <weakClassifiers>
    <_>
      <internalNodes>
        0 -1 27110 -706887488 273777295 8392901 -980565982 159632849
        1132790212 1501770091 1347777110</internalNodes>
      <leafValues>
        -7.6507937908172607e-01 4.9883267283439636e-01</leafValues></_>
    <_>
      <internalNodes>
        0 -1 26072 1017779191 -549883936 -1291985025 1395097076
        413302936 -25272456 -1881866241 -5630519</internalNodes>
      <leafValues>
        -4.5637390017509460e-01 6.5960228443145752e-01</leafValues></_>
    <_>
      <internalNodes>
        0 -1 20927 -1624441636 2069106805 860455005 1426411537
        -1811926849 109740130 43775 2031342195</internalNodes>
      <leafValues>
        -6.6906422376632690e-01 4.3504965305328369e-01</leafValues></_>
    <_>
      <internalNodes>
        0 -1 29668 -72353302 -852497342 -1339834368 1165165288
        -562968359 68709820 -1267531538 -403189809</internalNodes>
      <leafValues>
        -5.1785027980804443e-01 5.8336764574050903e-01</leafValues></_>
    <_>
      <internalNodes>
        0 -1 15517 1451514524 -1656647552 1263642971 422709269 806666888
        -905314240 84048635 975801355</internalNodes>
      <leafValues>
        -6.7292827367782593e-01 4.3943300843238831e-01</leafValues></_>
    <_>
      <internalNodes>
        0 -1 28016 1026692125 166557545 -557269 1358788183 746221244
        -346062851 -1372062213 -1074106916</internalNodes>
      <leafValues>
        -5.2056461572647095e-01 6.0459905862808228e-01</leafValues></_>
    <_>
      <internalNodes>
        0 -1 29610 -641081140 -922660608 -1073741824 1967128774
        -1069424385 -1509916032 -1534541250 2005126666</internalNodes>
      <leafValues>
        -6.3227123022079468e-01 5.1428598165512085e-01</leafValues></_></weakClassifiers></stage8>
</opencv_storage>
