<?xml version="1.0"?>
<opencv_storage>
<stage14>
  <maxWeakCount>8</maxWeakCount>
  <stageThreshold>-7.1562933921813965e-01</stageThreshold>
  <weakClassifiers>
    <_>
      <internalNodes>
        0 -1 214211 -1367192508 -4563755 -8028161 1572539700 750430971
        -9511041 952041407 446841269</internalNodes>
      <leafValues>
        -3.9419087767601013e-01 5.2772808074951172e-01</leafValues></_>
    <_>
      <internalNodes>
        0 -1 187049 -45761629 -389508965 1346536689 1633388051
        -1064499933 -2013265504 -2145639130 97239203</internalNodes>
      <leafValues>
        -5.1504707336425781e-01 4.3031889200210571e-01</leafValues></_>
    <_>
      <internalNodes>
        0 -1 73041 2041148893 -88704743 -557002802 -655130743
        -1449952610 -780502765 868565487 -140256833</internalNodes>
      <leafValues>
        -3.2747611403465271e-01 6.6008275747299194e-01</leafValues></_>
    <_>
      <internalNodes>
        0 -1 193650 -919386825 -581479069 922483637 -1074563271
        -1954437207 -269252633 599641785 -969161733</internalNodes>
      <leafValues>
        -3.9484760165214539e-01 5.5520361661911011e-01</leafValues></_>
    <_>
      <internalNodes>
        0 -1 128248 -1894333285 -606910437 -3777071 -989264854
        -830567402 -79793365 -699377429 -860721797</internalNodes>
      <leafValues>
        -4.4965276122093201e-01 5.5212497711181641e-01</leafValues></_>
    <_>
      <internalNodes>
        0 -1 190734 -422848517 119350967 2074212338 -130831178
        -254233175 1308446061 -2002050934 -222560334</internalNodes>
      <leafValues>
        -3.9174860715866089e-01 6.4657884836196899e-01</leafValues></_>
    <_>
      <internalNodes>
        0 -1 142038 -1981200944 1466190224 -1874669217 -1023385216
        -1996443333 -1132361575 771860633 1597567653</internalNodes>
      <leafValues>
        -5.7454246282577515e-01 4.5815503597259521e-01</leafValues></_>
    <_>
      <internalNodes>
        0 -1 214105 1663011338 -229268667 818192451 285364288
        -1072856960 289419267 1547788481 -70377853</internalNodes>
      <leafValues>
        -5.2296763658523560e-01 5.3893005847930908e-01</leafValues></_></weakClassifiers></stage14>
</opencv_storage>
