<?xml version="1.0"?>
<opencv_storage>
<stage9>
  <maxWeakCount>9</maxWeakCount>
  <stageThreshold>-1.1595089435577393e+00</stageThreshold>
  <weakClassifiers>
    <_>
      <internalNodes>
        0 -1 200654 -1572757485 1568516023 -16976393 -732940299
        -713713958 -67201025 880147448 -1006251145</internalNodes>
      <leafValues>
        -2.4184782803058624e-01 6.6898149251937866e-01</leafValues></_>
    <_>
      <internalNodes>
        0 -1 215597 -1691690776 -605658096 -1851244216 1441879405
        -1344184917 62935012 344838143 -290499123</internalNodes>
      <leafValues>
        -4.5149478316307068e-01 5.2244478464126587e-01</leafValues></_>
    <_>
      <internalNodes>
        0 -1 194607 -1662263557 -1313219032 2058537151 965810739
        -2140253781 -551951991 -1446016018 -1626694272</internalNodes>
      <leafValues>
        -3.5181879997253418e-01 6.8266981840133667e-01</leafValues></_>
    <_>
      <internalNodes>
        0 -1 113448 -1349025 -2144247741 1481460557 -45062894 -390356424
        -268714372 -1889595410 -538981669</internalNodes>
      <leafValues>
        -4.3058916926383972e-01 6.0599941015243530e-01</leafValues></_>
    <_>
      <internalNodes>
        0 -1 183497 -743308984 1903190050 1586316037 -578254693
        1417855196 966789217 455613371 1377699887</internalNodes>
      <leafValues>
        -6.1590373516082764e-01 4.3142527341842651e-01</leafValues></_>
    <_>
      <internalNodes>
        0 -1 190277 -618560750 -1055768448 1350677973 -544653101
        -2000172877 -744880000 1611778247 -1681014573</internalNodes>
      <leafValues>
        -4.8470348119735718e-01 5.6252771615982056e-01</leafValues></_>
    <_>
      <internalNodes>
        0 -1 190942 2087839223 1502080804 -104911 -14160096 1860799692
        -436899969 -1594935672 -381821705</internalNodes>
      <leafValues>
        -4.5109108090400696e-01 6.3519358634948730e-01</leafValues></_>
    <_>
      <internalNodes>
        0 -1 42537 -115289910 -1822275311 -318107644 1467224081
        -2004319541 -1419739134 -1702495553 1465293003</internalNodes>
      <leafValues>
        -6.2135523557662964e-01 4.8711487650871277e-01</leafValues></_>
    <_>
      <internalNodes>
        0 -1 221708 126891210 1442959571 86048840 -649789429 -1543433522
        1948354688 556064202 1405965961</internalNodes>
      <leafValues>
        -6.8500941991806030e-01 4.6802657842636108e-01</leafValues></_></weakClassifiers></stage9>
</opencv_storage>
