<?xml version="1.0"?>
<opencv_storage>
<stage4>
  <maxWeakCount>6</maxWeakCount>
  <stageThreshold>-1.0547401905059814e+00</stageThreshold>
  <weakClassifiers>
    <_>
      <internalNodes>
        0 -1 25021 -1040198774 -62054129 285352515 373878787 -2033978673
        -1314188778 555951663 392644163</internalNodes>
      <leafValues>
        -7.1134018898010254e-01 5.5775576829910278e-01</leafValues></_>
    <_>
      <internalNodes>
        0 -1 24394 -961552433 930086831 -535862784 -1477465471 -50
        365297423 1139523585 -16967</internalNodes>
      <leafValues>
        -5.2843749523162842e-01 6.4427518844604492e-01</leafValues></_>
    <_>
      <internalNodes>
        0 -1 17551 -707312753 -538210560 1600004061 1325455569
        -1616343382 -1059799 -1920294950 -1339495</internalNodes>
      <leafValues>
        -5.2022248506546021e-01 6.4165753126144409e-01</leafValues></_>
    <_>
      <internalNodes>
        0 -1 27756 -488454057 -1217743601 -838898561 2036236253
        840206856 -1694314292 1141827759 -98920821</internalNodes>
      <leafValues>
        -4.8926874995231628e-01 6.6452819108963013e-01</leafValues></_>
    <_>
      <internalNodes>
        0 -1 13163 -67134893 -137667478 1432869665 1937506291
        -2004886848 1827624476 465349516 -1846943997</internalNodes>
      <leafValues>
        -5.2828025817871094e-01 6.2373948097229004e-01</leafValues></_>
    <_>
      <internalNodes>
        0 -1 639 -1069383424 -214650800 1140867080 1183207566
        -1601649941 -1986936815 1569140441 -538161506</internalNodes>
      <leafValues>
        -6.9830679893493652e-01 5.0763928890228271e-01</leafValues></_></weakClassifiers></stage4>
</opencv_storage>
