<?xml version="1.0"?>
<opencv_storage>
<stage6>
  <maxWeakCount>7</maxWeakCount>
  <stageThreshold>-5.8019340038299561e-01</stageThreshold>
  <weakClassifiers>
    <_>
      <internalNodes>
        0 -1 17625 1607452120 -541892728 167819349 -551922340
        -1880584726 -1073773425 -2069752355 -1081421812</internalNodes>
      <leafValues>
        -4.7504621744155884e-01 6.2039661407470703e-01</leafValues></_>
    <_>
      <internalNodes>
        0 -1 26580 1476582307 -511360943 151802462 1066516612 290620426
        473956934 -1862184728 -208412275</internalNodes>
      <leafValues>
        -5.3784775733947754e-01 5.5575716495513916e-01</leafValues></_>
    <_>
      <internalNodes>
        0 -1 20925 -584256273 1463194129 1971322495 1165303121
        -789266370 988990064 -26116097 -117975809</internalNodes>
      <leafValues>
        -4.7193121910095215e-01 6.8212246894836426e-01</leafValues></_>
    <_>
      <internalNodes>
        0 -1 27756 -1241348865 415629689 -1801434023 357338065
        1075611778 -1172305588 1082689771 445268559</internalNodes>
      <leafValues>
        -5.9140723943710327e-01 5.2459275722503662e-01</leafValues></_>
    <_>
      <internalNodes>
        0 -1 83 1821296810 -585945066 -535821698 1882660500 581673630
        -304426974 684491004 -36004413</internalNodes>
      <leafValues>
        -5.9532940387725830e-01 5.2405065298080444e-01</leafValues></_>
    <_>
      <internalNodes>
        0 -1 26903 -988683501 1162152965 558465111 -778058477
        -1060974693 -387659774 1983955072 -1706583453</internalNodes>
      <leafValues>
        -5.7223188877105713e-01 5.8599144220352173e-01</leafValues></_>
    <_>
      <internalNodes>
        0 -1 25341 -1743758312 -753909739 156599771 2110656653 63473912
        518553792 1821874367 -633716339</internalNodes>
      <leafValues>
        -6.4144742488861084e-01 5.2807456254959106e-01</leafValues></_></weakClassifiers></stage6>
</opencv_storage>
