<?xml version="1.0"?>
<opencv_storage>
<stage17>
  <maxWeakCount>7</maxWeakCount>
  <stageThreshold>-7.8522586822509766e-01</stageThreshold>
  <weakClassifiers>
    <_>
      <internalNodes>
        0 -1 448343 -1396777417 -2101477521 -57409 -2102624479
        1559363861 -268435457 -318898828 -318898250</internalNodes>
      <leafValues>
        -4.3656715750694275e-01 5.9586465358734131e-01</leafValues></_>
    <_>
      <internalNodes>
        0 -1 417010 -806665615 -268471439 1987540863 -11257999 729133880
        -277512201 -2088977413 -25692304</internalNodes>
      <leafValues>
        -4.9705049395561218e-01 5.3947460651397705e-01</leafValues></_>
    <_>
      <internalNodes>
        0 -1 577144 -644099750 587874320 -251313511 436749267
        -1441947399 436766856 -1736079016 -634729585</internalNodes>
      <leafValues>
        -5.2668613195419312e-01 5.3067773580551147e-01</leafValues></_>
    <_>
      <internalNodes>
        0 -1 484237 -741610102 1185715586 822194370 93291035 -360472064
        1074594338 1950728839 1334827654</internalNodes>
      <leafValues>
        -6.5432006120681763e-01 4.3474724888801575e-01</leafValues></_>
    <_>
      <internalNodes>
        0 -1 415819 -1300016581 1561142279 222295 1348206849 -1601130325
        -1308155904 1208078553 1247465604</internalNodes>
      <leafValues>
        -6.4754432439804077e-01 4.6036115288734436e-01</leafValues></_>
    <_>
      <internalNodes>
        0 -1 395108 1919000833 1442963459 -1073539056 -872308457
        -796133849 -1876842366 -1736206133 -393744297</internalNodes>
      <leafValues>
        -5.9679734706878662e-01 5.3364020586013794e-01</leafValues></_>
    <_>
      <internalNodes>
        0 -1 441283 -914225545 -256868267 83995 5816530 -1039103865
        281059794 1228970126 1807057571</internalNodes>
      <leafValues>
        -6.0312271118164062e-01 5.3471958637237549e-01</leafValues></_></weakClassifiers></stage17>
</opencv_storage>
