<?xml version="1.0"?>
<opencv_storage>
<stage3>
  <maxWeakCount>6</maxWeakCount>
  <stageThreshold>-1.3987371921539307e+00</stageThreshold>
  <weakClassifiers>
    <_>
      <internalNodes>
        0 -1 157067 -1320172022 1497424198 -805298176 1910089984
        1087930824 -98500607 1359986904 2044451787</internalNodes>
      <leafValues>
        -6.8341708183288574e-01 5.5906820297241211e-01</leafValues></_>
    <_>
      <internalNodes>
        0 -1 182374 1625973446 1967642698 1091374998 1540421794
        -1565908853 402673793 1375838859 1414521839</internalNodes>
      <leafValues>
        -7.2935116291046143e-01 4.5077636837959290e-01</leafValues></_>
    <_>
      <internalNodes>
        0 -1 309 -1842620196 2108643743 -1817247749 -1321505414
        -1476658981 -1082764850 1261024763 1596674318</internalNodes>
      <leafValues>
        -5.1662331819534302e-01 6.2254482507705688e-01</leafValues></_>
    <_>
      <internalNodes>
        0 -1 178853 -793774349 1969743364 1275156498 771882802 145745128
        -692194219 1073971251 -357045809</internalNodes>
      <leafValues>
        -4.8200109601020813e-01 7.0577508211135864e-01</leafValues></_>
    <_>
      <internalNodes>
        0 -1 178067 -2146746269 -1655633920 151101465 -715831295
        -1472164990 -1500905472 16879817 1944834266</internalNodes>
      <leafValues>
        -6.8925410509109497e-01 5.0492227077484131e-01</leafValues></_>
    <_>
      <internalNodes>
        0 -1 79575 -2126390310 -721305600 67158424 2017817480
        -2146989112 1209073928 17875679 688849899</internalNodes>
      <leafValues>
        -6.8211054801940918e-01 5.0773316621780396e-01</leafValues></_></weakClassifiers></stage3>
</opencv_storage>
