<?xml version="1.0"?>
<opencv_storage>
<stage16>
  <maxWeakCount>9</maxWeakCount>
  <stageThreshold>-8.9092665910720825e-01</stageThreshold>
  <weakClassifiers>
    <_>
      <internalNodes>
        0 -1 468600 688066869 -1715203887 293689733 -1823929983
        2046847809 -1734246397 -1040064073 -1465618331</internalNodes>
      <leafValues>
        -6.3496142625808716e-01 5.3426921367645264e-01</leafValues></_>
    <_>
      <internalNodes>
        0 -1 294714 -1839770529 -212271095 67147991 1494585815
        -2117533686 -1197440760 403546856 219862152</internalNodes>
      <leafValues>
        -6.1972272396087646e-01 4.4323149323463440e-01</leafValues></_>
    <_>
      <internalNodes>
        0 -1 474240 -787690002 -1802924991 16863886 84205837 1099145467
        5349656 42721674 579436611</internalNodes>
      <leafValues>
        -5.8514010906219482e-01 5.3069305419921875e-01</leafValues></_>
    <_>
      <internalNodes>
        0 -1 419873 -761167981 402728083 -1593697133 -1988034549
        805573587 -1434386430 -1072869373 -641234065</internalNodes>
      <leafValues>
        -5.4776513576507568e-01 5.4148721694946289e-01</leafValues></_>
    <_>
      <internalNodes>
        0 -1 450338 -2058671105 1373571530 -2079170533 1469091843
        -804763494 -804257760 -1442727799 -373782279</internalNodes>
      <leafValues>
        -5.6690675020217896e-01 5.2225261926651001e-01</leafValues></_>
    <_>
      <internalNodes>
        0 -1 260834 802093855 -1314835711 -1886431720 -1084242553
        -666236240 -1342211145 -1890054513 -73498707</internalNodes>
      <leafValues>
        -4.9390238523483276e-01 6.5241080522537231e-01</leafValues></_>
    <_>
      <internalNodes>
        0 -1 407026 -2075664543 -1929338878 -2130591407 -318754559
        -2009048655 -1476326912 -511696672 -805479933</internalNodes>
      <leafValues>
        -5.6168061494827271e-01 5.8301460742950439e-01</leafValues></_>
    <_>
      <internalNodes>
        0 -1 488454 1363887695 1393635653 1140850959 1447938695
        -133854974 -134217717 -234716567 576940663</internalNodes>
      <leafValues>
        -6.5856122970581055e-01 5.0678896903991699e-01</leafValues></_>
    <_>
      <internalNodes>
        0 -1 503370 251916075 -2038398781 16875792 35295260 365459915
        2014445698 1359566881 -3421455</internalNodes>
      <leafValues>
        -7.0696067810058594e-01 4.7928705811500549e-01</leafValues></_></weakClassifiers></stage16>
</opencv_storage>
