<?xml version="1.0"?>
<opencv_storage>
<stage15>
  <maxWeakCount>8</maxWeakCount>
  <stageThreshold>-1.0372353792190552e+00</stageThreshold>
  <weakClassifiers>
    <_>
      <internalNodes>
        0 -1 23645 -788022388 -579399167 1762597006 -83704822
        -2128509568 779092416 -1472113938 1880301571</internalNodes>
      <leafValues>
        -7.0158731937408447e-01 4.8326846957206726e-01</leafValues></_>
    <_>
      <internalNodes>
        0 -1 23353 -1214876071 -145010424 -553158409 -550019243
        -541948182 -1343246654 -871702773 -569680993</internalNodes>
      <leafValues>
        -3.8508582115173340e-01 6.3215345144271851e-01</leafValues></_>
    <_>
      <internalNodes>
        0 -1 26580 1362353067 286402584 -511684138 859901219 1174538579
        -381933311 -245360438 -74473261</internalNodes>
      <leafValues>
        -4.4904401898384094e-01 5.1534372568130493e-01</leafValues></_>
    <_>
      <internalNodes>
        0 -1 21749 -781171489 -81643088 872395601 1989555025 -59159550
        -592514 -33892389 -616061445</internalNodes>
      <leafValues>
        -4.8397037386894226e-01 5.2775770425796509e-01</leafValues></_>
    <_>
      <internalNodes>
        0 -1 30730 -767047505 -180846314 33882240 -614154214 159606933
        538083332 -263993197 1126160861</internalNodes>
      <leafValues>
        -5.6163948774337769e-01 4.7124212980270386e-01</leafValues></_>
    <_>
      <internalNodes>
        0 -1 20581 -2029932195 1379439744 -2147203641 -1824250442
        -1574894976 -1499454350 78276858 -892910573</internalNodes>
      <leafValues>
        -5.4426854848861694e-01 5.1812016963958740e-01</leafValues></_>
    <_>
      <internalNodes>
        0 -1 26765 -731362663 464224124 -336069001 1933180150 473464462
        -1208156163 1048337739 -340126212</internalNodes>
      <leafValues>
        -4.5953559875488281e-01 5.8702397346496582e-01</leafValues></_>
    <_>
      <internalNodes>
        0 -1 29034 -823481072 -151294147 -16777217 2004844543 19545983
        -17383493 939288319 -72732745</internalNodes>
      <leafValues>
        -4.8029080033302307e-01 6.0602831840515137e-01</leafValues></_></weakClassifiers></stage15>
</opencv_storage>
