<?xml version="1.0"?>
<opencv_storage>
<stage3>
  <maxWeakCount>4</maxWeakCount>
  <stageThreshold>-1.1947706937789917e+00</stageThreshold>
  <weakClassifiers>
    <_>
      <internalNodes>
        0 -1 362552 -576722934 1401152298 -788414208 1896972290
        1092219310 134350979 -2137419622 1907348423</internalNodes>
      <leafValues>
        -6.9620251655578613e-01 6.4831262826919556e-01</leafValues></_>
    <_>
      <internalNodes>
        0 -1 438634 -4497921 -33156 -40963 2100985724 -1074332172
        -8454147 -570753281 -5089159</internalNodes>
      <leafValues>
        -5.2487337589263916e-01 7.4338036775588989e-01</leafValues></_>
    <_>
      <internalNodes>
        0 -1 452908 -1894170313 -1587050286 -712916521 -580532217
        -368242633 -1180073339 -1073493545 -998773293</internalNodes>
      <leafValues>
        -6.4796060323715210e-01 6.1070626974105835e-01</leafValues></_>
    <_>
      <internalNodes>
        0 -1 156326 -1191079462 -746434560 -452705795 1930629265
        -1442807574 -2029449199 52955615 -632567329</internalNodes>
      <leafValues>
        -6.7024934291839600e-01 6.3555771112442017e-01</leafValues></_></weakClassifiers></stage3>
</opencv_storage>
