<?xml version="1.0"?>
<opencv_storage>
<stage12>
  <maxWeakCount>8</maxWeakCount>
  <stageThreshold>-5.7510507106781006e-01</stageThreshold>
  <weakClassifiers>
    <_>
      <internalNodes>
        0 -1 24393 -657993600 432419024 310415360 228778274 -1853744510
        276824611 -1042716598 -287673775</internalNodes>
      <leafValues>
        -6.6016715764999390e-01 5.1329571008682251e-01</leafValues></_>
    <_>
      <internalNodes>
        0 -1 24177 -7167967 1553940672 -1073704621 -602602447
        -1165390904 -44400510 -2097088353 -1705819677</internalNodes>
      <leafValues>
        -4.9194556474685669e-01 5.0654768943786621e-01</leafValues></_>
    <_>
      <internalNodes>
        0 -1 117 956419786 -299526464 420569303 285542544 -1065022805
        -1366630263 -761745222 -256155577</internalNodes>
      <leafValues>
        -5.3025609254837036e-01 5.3317135572433472e-01</leafValues></_>
    <_>
      <internalNodes>
        0 -1 27106 -1140841967 1766507267 21922053 -1339811772 615043
        -805298048 -872297977 -891333551</internalNodes>
      <leafValues>
        -6.7643272876739502e-01 4.0015566349029541e-01</leafValues></_>
    <_>
      <internalNodes>
        0 -1 7687 -732427984 1896236848 -1676917423 -540376492 427851806
        1621789878 -1925035828 -1079345104</internalNodes>
      <leafValues>
        -6.6443127393722534e-01 3.9247304201126099e-01</leafValues></_>
    <_>
      <internalNodes>
        0 -1 24487 2002583423 -1992174397 67595267 -1945777491
        -263793725 -1342141732 1109646663 -355737605</internalNodes>
      <leafValues>
        -5.4379320144653320e-01 5.4155927896499634e-01</leafValues></_>
    <_>
      <internalNodes>
        0 -1 28602 -1458033552 -1843834744 23138713 -1751580351
        -2097047333 696256648 176853274 289290637</internalNodes>
      <leafValues>
        -6.9740569591522217e-01 4.4622451066970825e-01</leafValues></_>
    <_>
      <internalNodes>
        0 -1 26819 2107645695 1507131752 1226279729 1059849301
        -1970766054 -89520024 -573697621 -31850424</internalNodes>
      <leafValues>
        -5.7312858104705811e-01 5.1788246631622314e-01</leafValues></_></weakClassifiers></stage12>
</opencv_storage>
