<?xml version="1.0"?>
<opencv_storage>
<stage7>
  <maxWeakCount>5</maxWeakCount>
  <stageThreshold>-6.2959843873977661e-01</stageThreshold>
  <weakClassifiers>
    <_>
      <internalNodes>
        0 -1 412453 1393191498 1388437583 805904627 1932665498
        1107558467 -2121596924 1880284119 1936978182</internalNodes>
      <leafValues>
        -7.3369562625885010e-01 5.4383116960525513e-01</leafValues></_>
    <_>
      <internalNodes>
        0 -1 232269 -92546853 -7386919 -268435489 1999314331 -1414903093
        -343274236 -1677734913 -1690580003</internalNodes>
      <leafValues>
        -4.4589051604270935e-01 7.2298580408096313e-01</leafValues></_>
    <_>
      <internalNodes>
        0 -1 422883 -1959573933 -682227849 -1216906437 1897075619
        -1410081861 -5028237 -2022514952 -151801957</internalNodes>
      <leafValues>
        -5.4597556591033936e-01 6.0417973995208740e-01</leafValues></_>
    <_>
      <internalNodes>
        0 -1 432913 -148791969 -1339617272 -721202922 -661475050
        -234732967 420479105 -930758519 -24458555</internalNodes>
      <leafValues>
        -5.6046342849731445e-01 6.0496723651885986e-01</leafValues></_>
    <_>
      <internalNodes>
        0 -1 493158 -104676414 293642474 1073811528 -78049141
        -1731647286 -536838140 1090603979 1459867823</internalNodes>
      <leafValues>
        -6.5915924310684204e-01 5.3006398677825928e-01</leafValues></_></weakClassifiers></stage7>
</opencv_storage>
