<?xml version="1.0"?>
<opencv_storage>
<stage5>
  <maxWeakCount>7</maxWeakCount>
  <stageThreshold>-6.4413982629776001e-01</stageThreshold>
  <weakClassifiers>
    <_>
      <internalNodes>
        0 -1 152068 1065783560 1371791490 -2113908672 1468389384 8651950
        -935870258 153716870 -1747726900</internalNodes>
      <leafValues>
        -6.3934427499771118e-01 5.1377636194229126e-01</leafValues></_>
    <_>
      <internalNodes>
        0 -1 130888 -1334084385 334461949 -1345356033 53164877
        -1074827890 -3146140 -1345847555 -1693821924</internalNodes>
      <leafValues>
        -4.0901640057563782e-01 6.1336666345596313e-01</leafValues></_>
    <_>
      <internalNodes>
        0 -1 182837 -957373837 1118941499 1302519313 -286808534
        1321255987 -438893067 -1066418142 -294912397</internalNodes>
      <leafValues>
        -4.8823824524879456e-01 5.6493073701858521e-01</leafValues></_>
    <_>
      <internalNodes>
        0 -1 94886 -595505413 897667464 -751913206 1936875435
        -2102728710 -1089790757 -1683234849 -1959076131</internalNodes>
      <leafValues>
        -4.4553038477897644e-01 6.4000833034515381e-01</leafValues></_>
    <_>
      <internalNodes>
        0 -1 214488 -1602157413 2039825776 -780029551 1888626327
        -2092404455 1497366541 1078818987 1432170763</internalNodes>
      <leafValues>
        -5.9554654359817505e-01 4.9726635217666626e-01</leafValues></_>
    <_>
      <internalNodes>
        0 -1 79725 -1935981411 -1299252650 -1632929223 1311923673
        -2003976115 -1623721413 1550195933 -548970499</internalNodes>
      <leafValues>
        -5.4045563936233521e-01 5.7658678293228149e-01</leafValues></_>
    <_>
      <internalNodes>
        0 -1 212054 -283403542 -742542228 17008258 318886402 473033644
        461967624 1653197753 532007839</internalNodes>
      <leafValues>
        -6.9437330961227417e-01 4.7721236944198608e-01</leafValues></_></weakClassifiers></stage5>
</opencv_storage>
