<?xml version="1.0"?>
<opencv_storage>
<stage10>
  <maxWeakCount>7</maxWeakCount>
  <stageThreshold>-6.9322776794433594e-01</stageThreshold>
  <weakClassifiers>
    <_>
      <internalNodes>
        0 -1 181474 -1153806326 -42001328 -1885700485 1898864125
        -1967194544 -365898 34762201 187354549</internalNodes>
      <leafValues>
        -3.7638375163078308e-01 5.7088845968246460e-01</leafValues></_>
    <_>
      <internalNodes>
        0 -1 193660 -521935197 -722081929 1719123839 -940033 -939673873
        -747266185 -327421973 1618468475</internalNodes>
      <leafValues>
        -4.3749612569808960e-01 5.2650815248489380e-01</leafValues></_>
    <_>
      <internalNodes>
        0 -1 121737 -1080947826 2076397826 38830023 1409500160 662946728
        1505837344 -1608063298 991677569</internalNodes>
      <leafValues>
        -6.2836205959320068e-01 3.9135602116584778e-01</leafValues></_>
    <_>
      <internalNodes>
        0 -1 157477 -1830976824 1976820100 1896286475 995185181
        -593330014 1489158154 824299977 1464312751</internalNodes>
      <leafValues>
        -5.8170849084854126e-01 4.0526410937309265e-01</leafValues></_>
    <_>
      <internalNodes>
        0 -1 179076 -588723373 -402235136 -2023627713 -393129819
        -1022893360 276893893 1108426785 -500437201</internalNodes>
      <leafValues>
        -5.1957559585571289e-01 5.1170688867568970e-01</leafValues></_>
    <_>
      <internalNodes>
        0 -1 181167 1664079605 -214617870 930610139 943421997
        -1074040517 -5015956 442686713 -1424074532</internalNodes>
      <leafValues>
        -4.6065625548362732e-01 5.7811278104782104e-01</leafValues></_>
    <_>
      <internalNodes>
        0 -1 139400 -1609212870 -783068400 -1778345955 453575238
        -760733496 -670990295 -1878143441 -1654243328</internalNodes>
      <leafValues>
        -5.8729451894760132e-01 4.7101551294326782e-01</leafValues></_></weakClassifiers></stage10>
</opencv_storage>
