<?xml version="1.0"?>
<opencv_storage>
<stage11>
  <maxWeakCount>6</maxWeakCount>
  <stageThreshold>-1.2348029613494873e+00</stageThreshold>
  <weakClassifiers>
    <_>
      <internalNodes>
        0 -1 458940 9389855 -2133679872 1078018151 -700401526
        -1735701937 -1879005184 -528424351 -221908560</internalNodes>
      <leafValues>
        -5.9731543064117432e-01 5.7849091291427612e-01</leafValues></_>
    <_>
      <internalNodes>
        0 -1 507535 -2058376409 537823497 -2130558895 -2104371197
        -1971154669 -1207811453 1619558405 -221271773</internalNodes>
      <leafValues>
        -5.4904514551162720e-01 5.4650890827178955e-01</leafValues></_>
    <_>
      <internalNodes>
        0 -1 481215 -1147971591 -687709867 -2126446477 -1660534301
        369269167 -376788864 -1126063699 -1371927379</internalNodes>
      <leafValues>
        -5.9079140424728394e-01 5.4649347066879272e-01</leafValues></_>
    <_>
      <internalNodes>
        0 -1 184330 -73805110 -285126656 4357 1460775425 -2146926454
        -1455746792 1526747275 289331341</internalNodes>
      <leafValues>
        -6.4993345737457275e-01 5.1606202125549316e-01</leafValues></_>
    <_>
      <internalNodes>
        0 -1 473961 -128204670 -2053262617 -804220863 1074115723
        -837121405 1216479394 -964441973 30396622</internalNodes>
      <leafValues>
        -6.5356844663619995e-01 4.7670581936836243e-01</leafValues></_>
    <_>
      <internalNodes>
        0 -1 459702 -348938479 -80216704 838611769 -578831306 1063114165
        356351093 524197051 -558906183</internalNodes>
      <leafValues>
        -5.3595089912414551e-01 6.5197306871414185e-01</leafValues></_></weakClassifiers></stage11>
</opencv_storage>
