<?xml version="1.0"?>
<opencv_storage>
<stage4>
  <maxWeakCount>7</maxWeakCount>
  <stageThreshold>-5.5421364307403564e-01</stageThreshold>
  <weakClassifiers>
    <_>
      <internalNodes>
        0 -1 190534 -358718902 -48791219 285329618 1963563283 -253574362
        269508632 1644413179 1966285483</internalNodes>
      <leafValues>
        -7.0078742504119873e-01 5.4716980457305908e-01</leafValues></_>
    <_>
      <internalNodes>
        0 -1 1599 -803538232 -551550378 -1827557153 1901155481
        -2009038630 2023752192 680045195 155648735</internalNodes>
      <leafValues>
        -5.9988504648208618e-01 5.0634860992431641e-01</leafValues></_>
    <_>
      <internalNodes>
        0 -1 155150 -1559668237 -209239230 1539046839 1596528475
        -1882354449 -1141158195 -1813708817 -1886728984</internalNodes>
      <leafValues>
        -4.5198357105255127e-01 6.7970818281173706e-01</leafValues></_>
    <_>
      <internalNodes>
        0 -1 157589 -1073746175 1467437855 -320454526 -216009857
        810482607 -782076226 342743246 -635437105</internalNodes>
      <leafValues>
        -5.4627752304077148e-01 6.2053775787353516e-01</leafValues></_>
    <_>
      <internalNodes>
        0 -1 190847 -5767765 -139661630 -545589389 -962527245 -800226909
        319035906 883901951 -34603529</internalNodes>
      <leafValues>
        -4.8651951551437378e-01 7.1383744478225708e-01</leafValues></_>
    <_>
      <internalNodes>
        0 -1 211870 1359134954 1996685568 1157627986 2005287182
        -804540278 558536714 -1472167490 -318002278</internalNodes>
      <leafValues>
        -6.0594439506530762e-01 5.4651707410812378e-01</leafValues></_>
    <_>
      <internalNodes>
        0 -1 192794 -1660003327 -686595887 -1795157929 1951402255
        -1474236472 -1178498040 983734425 -12969476</internalNodes>
      <leafValues>
        -5.7052767276763916e-01 5.9925836324691772e-01</leafValues></_></weakClassifiers></stage4>
</opencv_storage>
