<?xml version="1.0"?>
<opencv_storage>
<stage9>
  <maxWeakCount>5</maxWeakCount>
  <stageThreshold>-4.7121024131774902e-01</stageThreshold>
  <weakClassifiers>
    <_>
      <internalNodes>
        0 -1 446329 -480141151 -143317003 2146828275 -403331201
        -151668819 -34209817 2004217839 -447352985</internalNodes>
      <leafValues>
        -3.9730134606361389e-01 7.1275454759597778e-01</leafValues></_>
    <_>
      <internalNodes>
        0 -1 450030 -1307543297 -217050911 1630634007 1482689477
        -2137488994 -653197072 -343574279 403325167</internalNodes>
      <leafValues>
        -5.7524156570434570e-01 5.8026421070098877e-01</leafValues></_>
    <_>
      <internalNodes>
        0 -1 404783 -1988931085 -174366653 -1039892257 -144424511
        -1425753942 -1952776051 -2109500933 -20327501</internalNodes>
      <leafValues>
        -5.3314405679702759e-01 6.1547791957855225e-01</leafValues></_>
    <_>
      <internalNodes>
        0 -1 441651 -891046093 -35414237 -1090523137 -1887967246
        -268963914 -419727433 -2064125953 -822609929</internalNodes>
      <leafValues>
        -4.7660899162292480e-01 6.8205386400222778e-01</leafValues></_>
    <_>
      <internalNodes>
        0 -1 485401 56568175 286892354 1074365021 1167302852 -2000451346
        -1072693119 -1968534885 -489119551</internalNodes>
      <leafValues>
        -7.4759215116500854e-01 4.9669912457466125e-01</leafValues></_></weakClassifiers></stage9>
</opencv_storage>
