<?xml version="1.0"?>
<opencv_storage>
<stage10>
  <maxWeakCount>7</maxWeakCount>
  <stageThreshold>-7.0010918378829956e-01</stageThreshold>
  <weakClassifiers>
    <_>
      <internalNodes>
        0 -1 408189 -1949892321 172265731 -2143185646 -905936701
        1623392357 203063427 40567904 -287907663</internalNodes>
      <leafValues>
        -6.3800907135009766e-01 5.8894646167755127e-01</leafValues></_>
    <_>
      <internalNodes>
        0 -1 463560 -1946203337 -1677531053 -1936863221 -1177321085
        -938518409 187433474 -620653739 -355475148</internalNodes>
      <leafValues>
        -6.3258492946624756e-01 5.2961242198944092e-01</leafValues></_>
    <_>
      <internalNodes>
        0 -1 454897 -1182856073 -1074036741 -16777537 -94179486
        -855879953 -16877569 -940160257 -1191674156</internalNodes>
      <leafValues>
        -5.2190214395523071e-01 6.5110707283020020e-01</leafValues></_>
    <_>
      <internalNodes>
        0 -1 413573 1121174799 1981867555 1552499713 1849682987
        -1535673139 -830668897 1178029589 -855900289</internalNodes>
      <leafValues>
        -5.3209292888641357e-01 6.3553881645202637e-01</leafValues></_>
    <_>
      <internalNodes>
        0 -1 454958 547160701 -618717041 69309783 -1258061745 1132532955
        -1985986432 -1878310403 -1428260207</internalNodes>
      <leafValues>
        -6.3948667049407959e-01 5.2847659587860107e-01</leafValues></_>
    <_>
      <internalNodes>
        0 -1 119743 -106899724 2142827825 1852768255 1866432343
        -1430712181 -1153752285 -1017411105 -140851</internalNodes>
      <leafValues>
        -5.6745439767837524e-01 6.4337539672851562e-01</leafValues></_>
    <_>
      <internalNodes>
        0 -1 479853 270264536 1897234457 268580121 1565491305
        -1861527122 143280165 46188575 1595922585</internalNodes>
      <leafValues>
        -6.6637134552001953e-01 5.3899818658828735e-01</leafValues></_></weakClassifiers></stage10>
</opencv_storage>
