<?xml version="1.0"?>
<opencv_storage>
<stage5>
  <maxWeakCount>4</maxWeakCount>
  <stageThreshold>-3.3389145135879517e-01</stageThreshold>
  <weakClassifiers>
    <_>
      <internalNodes>
        0 -1 133295 -518000137 -214181216 -2096560881 -138311200
        -101112325 -376732887 -762740577 -69600593</internalNodes>
      <leafValues>
        -8.5267037153244019e-01 8.1646168231964111e-01</leafValues></_>
    <_>
      <internalNodes>
        0 -1 166589 -788016897 -644669157 336957898 -102825982
        -1927177787 -91715392 -781082192 -74206729</internalNodes>
      <leafValues>
        -8.6480861902236938e-01 7.2391378879547119e-01</leafValues></_>
    <_>
      <internalNodes>
        0 -1 190739 1553923646 -174325616 53401 -656604535 -1545958997
        -1951723384 420731583 -5637</internalNodes>
      <leafValues>
        -9.1857546567916870e-01 6.1912333965301514e-01</leafValues></_>
    <_>
      <internalNodes>
        0 -1 107213 -787096641 -2083551710 -2147286779 1607008487
        1090736267 680231435 -1207500773 -118844469</internalNodes>
      <leafValues>
        -7.4072325229644775e-01 7.6446413993835449e-01</leafValues></_></weakClassifiers></stage5>
</opencv_storage>
