<?xml version="1.0"?>
<opencv_storage>
<stage0>
  <maxWeakCount>4</maxWeakCount>
  <stageThreshold>-1.3507347106933594e+00</stageThreshold>
  <weakClassifiers>
    <_>
      <internalNodes>
        0 -1 347310 368017416 2013263114 1610612675 2144468874 351243402
        -536870993 1090487759 -8305</internalNodes>
      <leafValues>
        -6.9337981939315796e-01 7.7777779102325439e-01</leafValues></_>
    <_>
      <internalNodes>
        0 -1 279809 -2063576837 -754905088 151113823 286871811
        -1576877942 -2113273855 11110651 1092291275</internalNodes>
      <leafValues>
        -6.7773413658142090e-01 7.2937148809432983e-01</leafValues></_>
    <_>
      <internalNodes>
        0 -1 423394 1493428378 1360330883 541971 1427472395 671324558
        -1987493848 1224851611 2102642767</internalNodes>
      <leafValues>
        -6.4303880929946899e-01 7.0866769552230835e-01</leafValues></_>
    <_>
      <internalNodes>
        0 -1 346084 -1744629709 -787398640 -2147221483 -783201638
        940048570 -670400512 -1206286149 141134041</internalNodes>
      <leafValues>
        -7.5875830650329590e-01 6.6341799497604370e-01</leafValues></_></weakClassifiers></stage0>
</opencv_storage>
