<?xml version="1.0"?>
<opencv_storage>
<stage13>
  <maxWeakCount>6</maxWeakCount>
  <stageThreshold>-1.0284261703491211e+00</stageThreshold>
  <weakClassifiers>
    <_>
      <internalNodes>
        0 -1 502571 -293638321 1786642431 -268501377 -1434550290 -45187
        -557057 -805897098 -491454473</internalNodes>
      <leafValues>
        -4.2808219790458679e-01 6.3976377248764038e-01</leafValues></_>
    <_>
      <internalNodes>
        0 -1 407237 1209994787 1084289538 84993 -653195509 679666337
        2654338 1649664773 -342890209</internalNodes>
      <leafValues>
        -5.8079105615615845e-01 5.1339399814605713e-01</leafValues></_>
    <_>
      <internalNodes>
        0 -1 378813 -310128167 -774635517 336643485 1480606721
        -1433755365 -1207631854 148105434 -32841629</internalNodes>
      <leafValues>
        -5.2036684751510620e-01 6.1241060495376587e-01</leafValues></_>
    <_>
      <internalNodes>
        0 -1 504934 -1342234765 -1091469441 -3 -583647371 -25723409
        -589826 -51421697 -357900324</internalNodes>
      <leafValues>
        -5.5462568998336792e-01 6.0106968879699707e-01</leafValues></_>
    <_>
      <internalNodes>
        0 -1 268864 -1343566177 -550260933 1207980997 1427594595
        -318796722 -603 1330728523 -1612849281</internalNodes>
      <leafValues>
        -5.6370139122009277e-01 5.8896344900131226e-01</leafValues></_>
    <_>
      <internalNodes>
        0 -1 11162 -1221340421 -786952041 -1676483499 1359546633
        1477791811 1646788610 151507080 1326174529</internalNodes>
      <leafValues>
        -6.0782146453857422e-01 5.5661118030548096e-01</leafValues></_></weakClassifiers></stage13>
</opencv_storage>
