<?xml version="1.0"?>
<opencv_storage>
<stage11>
  <maxWeakCount>8</maxWeakCount>
  <stageThreshold>-9.2970770597457886e-01</stageThreshold>
  <weakClassifiers>
    <_>
      <internalNodes>
        0 -1 29004 -76546142 1193620018 1785645770 1132880394 -176818800
        623375854 2133260287 1095745759</internalNodes>
      <leafValues>
        -4.9036401510238647e-01 5.5516326427459717e-01</leafValues></_>
    <_>
      <internalNodes>
        0 -1 25368 -1104571215 917172080 -1090592647 1135041016
        -1967367012 -428162 -1623273762 -6644263</internalNodes>
      <leafValues>
        -4.2131158709526062e-01 6.1483156681060791e-01</leafValues></_>
    <_>
      <internalNodes>
        0 -1 287 -1501147314 -83737277 278106258 -12582906 -865908021
        -1182202720 -1002220759 -805663836</internalNodes>
      <leafValues>
        -5.3495985269546509e-01 4.9581220746040344e-01</leafValues></_>
    <_>
      <internalNodes>
        0 -1 20840 2106610907 -1039048550 1946681631 -112310000
        -2006931448 -1022254592 -1461416789 -1690900666</internalNodes>
      <leafValues>
        -5.1457208395004272e-01 5.2724939584732056e-01</leafValues></_>
    <_>
      <internalNodes>
        0 -1 24182 -76852005 1009948897 533263867 1966496213 -17128741
        -1086971206 -949828148 -619053956</internalNodes>
      <leafValues>
        -4.4308745861053467e-01 6.5394276380538940e-01</leafValues></_>
    <_>
      <internalNodes>
        0 -1 26578 -1647333455 -1116238093 -809695 2050170499 -36700927
        1073724927 77852810 1329308987</internalNodes>
      <leafValues>
        -4.7925427556037903e-01 5.8340871334075928e-01</leafValues></_>
    <_>
      <internalNodes>
        0 -1 31105 113640652 1544056959 -1048092487 1095828746
        -1061428822 2032271535 134251403 389986619</internalNodes>
      <leafValues>
        -6.6079628467559814e-01 4.3755492568016052e-01</leafValues></_>
    <_>
      <internalNodes>
        0 -1 15028 -841376522 -1174586071 -77924839 -314407416
        -322072691 -1079122053 -19411237 -3696352</internalNodes>
      <leafValues>
        -5.0885409116744995e-01 5.9512084722518921e-01</leafValues></_></weakClassifiers></stage11>
</opencv_storage>
