<?xml version="1.0"?>
<opencv_storage>
<stage1>
  <maxWeakCount>5</maxWeakCount>
  <stageThreshold>-7.2217696905136108e-01</stageThreshold>
  <weakClassifiers>
    <_>
      <internalNodes>
        0 -1 145949 -1079392102 -13152256 -1416626177 2133529883
        -1423277938 -81133566 168333454 523978011</internalNodes>
      <leafValues>
        -6.3986015319824219e-01 7.4513620138168335e-01</leafValues></_>
    <_>
      <internalNodes>
        0 -1 342405 -774142976 1393639701 1360576512 -245952509
        -1870093686 -2006974189 -1450456950 -105131349</internalNodes>
      <leafValues>
        -7.1597325801849365e-01 6.4618569612503052e-01</leafValues></_>
    <_>
      <internalNodes>
        0 -1 436973 -654060822 -250634226 1073780836 1897056914
        1157628043 167837698 570622459 1594327583</internalNodes>
      <leafValues>
        -7.1971434354782104e-01 6.2141007184982300e-01</leafValues></_>
    <_>
      <internalNodes>
        0 -1 447289 1838148883 -1530818283 1141985435 -1357807611
        -503113821 -1433956077 1086448305 -813182601</internalNodes>
      <leafValues>
        -6.4700633287429810e-01 6.9553035497665405e-01</leafValues></_>
    <_>
      <internalNodes>
        0 -1 490083 -2145842137 823201811 2179359 1351745794 -2147219093
        -1675624446 536890060 -2003517293</internalNodes>
      <leafValues>
        -7.0119428634643555e-01 6.5925270318984985e-01</leafValues></_></weakClassifiers></stage1>
</opencv_storage>
