<?xml version="1.0"?>
<opencv_storage>
<stage19>
  <maxWeakCount>8</maxWeakCount>
  <stageThreshold>-4.4687414169311523e-01</stageThreshold>
  <weakClassifiers>
    <_>
      <internalNodes>
        0 -1 19520 -380918646 -669925375 -954691304 -633231360
        -964328798 -721362677 -2075130010 -665788080</internalNodes>
      <leafValues>
        -5.8192092180252075e-01 4.8635634779930115e-01</leafValues></_>
    <_>
      <internalNodes>
        0 -1 26072 -1103420929 -817893391 -218308611 1362051069
        -2002726682 -1879146629 -1084709127 -1612046887</internalNodes>
      <leafValues>
        -3.7759625911712646e-01 5.8085608482360840e-01</leafValues></_>
    <_>
      <internalNodes>
        0 -1 29574 -691986770 27658624 17072936 1465356812 -456857140
        -392099318 -1006178385 2041481963</internalNodes>
      <leafValues>
        -5.2010643482208252e-01 4.4400489330291748e-01</leafValues></_>
    <_>
      <internalNodes>
        0 -1 9787 96544360 306643425 1049433169 1887585280 1795469803
        589988123 841482779 1873441745</internalNodes>
      <leafValues>
        -6.3849759101867676e-01 3.6340129375457764e-01</leafValues></_>
    <_>
      <internalNodes>
        0 -1 20117 -605467143 -46942424 1069463347 403912593 -596130806
        -617417550 -193202445 -355820581</internalNodes>
      <leafValues>
        -4.8065343499183655e-01 5.3775215148925781e-01</leafValues></_>
    <_>
      <internalNodes>
        0 -1 29570 -931470844 -1282014814 4202496 276856866 1497999597
        -796917631 1119912907 1116718058</internalNodes>
      <leafValues>
        -6.9908142089843750e-01 3.8406303524971008e-01</leafValues></_>
    <_>
      <internalNodes>
        0 -1 23416 -1793604985 -648838000 -997392357 -1724559355
        -1308081523 -91651520 507679979 -502791758</internalNodes>
      <leafValues>
        -5.3880834579467773e-01 5.0988912582397461e-01</leafValues></_>
    <_>
      <internalNodes>
        0 -1 29101 -976487766 -306018262 -1056960310 1415154499
        1271361792 202113161 1342795331 1962909339</internalNodes>
      <leafValues>
        -6.3906210660934448e-01 4.0537440776824951e-01</leafValues></_></weakClassifiers></stage19>
</opencv_storage>
