<?xml version="1.0"?>
<opencv_storage>
<stage9>
  <maxWeakCount>7</maxWeakCount>
  <stageThreshold>-7.3550415039062500e-01</stageThreshold>
  <weakClassifiers>
    <_>
      <internalNodes>
        0 -1 24912 -1477081458 -184450987 599098331 -2147315629
        1610720387 -2002769895 -427717497 1919046150</internalNodes>
      <leafValues>
        -6.2694299221038818e-01 5.2883028984069824e-01</leafValues></_>
    <_>
      <internalNodes>
        0 -1 12736 -619607589 2132348760 474808149 2131359772 -123023698
        -1610623569 -880238821 -1148459297</internalNodes>
      <leafValues>
        -4.1371852159500122e-01 6.3500797748565674e-01</leafValues></_>
    <_>
      <internalNodes>
        0 -1 25153 -4453 -1892831485 1814384177 18129141 1609514979
        -1208487959 306529793 -1289224201</internalNodes>
      <leafValues>
        -4.8972374200820923e-01 5.2758330106735229e-01</leafValues></_>
    <_>
      <internalNodes>
        0 -1 22662 -717885750 1531072648 303612495 1360642378
        -2141648178 536870970 814001193 1141106670</internalNodes>
      <leafValues>
        -7.2928982973098755e-01 3.9345121383666992e-01</leafValues></_>
    <_>
      <internalNodes>
        0 -1 27504 1929140343 696276497 830538763 385958464 -586922901
        -1448079348 -1341576598 1380060197</internalNodes>
      <leafValues>
        -7.2708123922348022e-01 3.8882523775100708e-01</leafValues></_>
    <_>
      <internalNodes>
        0 -1 15032 -45239045 1564275369 -551232939 -682758377 -852498260
        -1073758281 -1740582961 -28587894</internalNodes>
      <leafValues>
        -5.1407688856124878e-01 6.2353062629699707e-01</leafValues></_>
    <_>
      <internalNodes>
        0 -1 25067 -349581438 -6034639 -297075361 -548800529 -275985206
        2140782377 -867402321 -1910954661</internalNodes>
      <leafValues>
        -5.0095999240875244e-01 5.9386157989501953e-01</leafValues></_></weakClassifiers></stage9>
</opencv_storage>
