<?xml version="1.0"?>
<opencv_storage>
<stage15>
  <maxWeakCount>5</maxWeakCount>
  <stageThreshold>-6.8175762891769409e-01</stageThreshold>
  <weakClassifiers>
    <_>
      <internalNodes>
        0 -1 354597 823591050 1361375506 1342208520 1430487434
        1369030794 -1340030816 283140266 1097201834</internalNodes>
      <leafValues>
        -8.5714286565780640e-01 4.7076460719108582e-01</leafValues></_>
    <_>
      <internalNodes>
        0 -1 419528 -1380583561 -308215941 -9 -983171 1325268988
        -1342177281 -1115693067 -663695</internalNodes>
      <leafValues>
        -4.7280338406562805e-01 5.9155720472335815e-01</leafValues></_>
    <_>
      <internalNodes>
        0 -1 397481 -486583041 855105584 -129 1416655477 -1413489810
        -1346661517 -1363524871 -46508973</internalNodes>
      <leafValues>
        -4.9169191718101501e-01 6.0152846574783325e-01</leafValues></_>
    <_>
      <internalNodes>
        0 -1 503013 -285499537 795869055 -13 -1964048456 2147439957
        -34111489 -33720394 -17301513</internalNodes>
      <leafValues>
        -5.3246343135833740e-01 5.7793611288070679e-01</leafValues></_>
    <_>
      <internalNodes>
        0 -1 454762 -1828499432 2002552085 -1073659624 1426399233
        -1454208806 -91045888 545428415 169492633</internalNodes>
      <leafValues>
        -7.1992409229278564e-01 4.4982367753982544e-01</leafValues></_></weakClassifiers></stage15>
</opencv_storage>
