<?xml version="1.0"?>
<opencv_storage>
<stage2>
  <maxWeakCount>4</maxWeakCount>
  <stageThreshold>-1.3032566308975220e+00</stageThreshold>
  <weakClassifiers>
    <_>
      <internalNodes>
        0 -1 458800 801013567 -1372586193 -1271818 -25231426 1977578103
        -1 1996455797 -12</internalNodes>
      <leafValues>
        -6.3424122333526611e-01 6.6850829124450684e-01</leafValues></_>
    <_>
      <internalNodes>
        0 -1 435263 -1551695357 1368719431 1476436403 1091637505
        -536829447 -213909504 16884619 -444357694</internalNodes>
      <leafValues>
        -7.2291952371597290e-01 5.6984770298004150e-01</leafValues></_>
    <_>
      <internalNodes>
        0 -1 406211 1365222403 -1878588469 -1509719792 1150808579
        1208733890 -1997832157 -896894181 -72619837</internalNodes>
      <leafValues>
        -5.9378892183303833e-01 6.9086331129074097e-01</leafValues></_>
    <_>
      <internalNodes>
        0 -1 483219 -901029817 -721272570 1073790991 1141031442
        -1064992605 -2147254264 1073996475 1078390395</internalNodes>
      <leafValues>
        -6.5505647659301758e-01 6.3593918085098267e-01</leafValues></_></weakClassifiers></stage2>
</opencv_storage>
