<?xml version="1.0"?>
<opencv_storage>
<stage5>
  <maxWeakCount>5</maxWeakCount>
  <stageThreshold>-8.0058461427688599e-01</stageThreshold>
  <weakClassifiers>
    <_>
      <internalNodes>
        0 -1 442501 1369403554 -643209171 738230286 218698498 1610817959
        4194496 1082188171 1108077195</internalNodes>
      <leafValues>
        -6.8941175937652588e-01 5.8978724479675293e-01</leafValues></_>
    <_>
      <internalNodes>
        0 -1 272373 -251438898 -675805184 -1589602089 -1861021411
        -2105540402 -1174388144 -1967094053 -552511333</internalNodes>
      <leafValues>
        -6.0723429918289185e-01 5.7651942968368530e-01</leafValues></_>
    <_>
      <internalNodes>
        0 -1 458360 -1583385257 -2008899389 1426133441 -739540141
        -1853153581 -914358143 -1563782605 -573969771</internalNodes>
      <leafValues>
        -6.1242258548736572e-01 5.9853202104568481e-01</leafValues></_>
    <_>
      <internalNodes>
        0 -1 475521 222102059 -1082165377 -16875521 -1208893577
        1325283326 -285214849 -291508289 -352438795</internalNodes>
      <leafValues>
        -5.9987938404083252e-01 6.5756648778915405e-01</leafValues></_>
    <_>
      <internalNodes>
        0 -1 371999 -715959853 -1962651376 16779549 1342849046 202293455
        -1356333046 1212186827 457607553</internalNodes>
      <leafValues>
        -6.8634486198425293e-01 5.3865289688110352e-01</leafValues></_></weakClassifiers></stage5>
</opencv_storage>
