<?xml version="1.0"?>
<opencv_storage>
<stage13>
  <maxWeakCount>6</maxWeakCount>
  <stageThreshold>-1.6708226203918457e+00</stageThreshold>
  <weakClassifiers>
    <_>
      <internalNodes>
        0 -1 86301 289005055 1494287763 423647230 -34546984 898158990
        -1063518036 -1979612498 -85395202</internalNodes>
      <leafValues>
        -7.4218750000000000e-01 7.1691179275512695e-01</leafValues></_>
    <_>
      <internalNodes>
        0 -1 194644 1066973944 -278529 -33579645 -1646273057 -576148248
        -1178879349 -1156939638 -618934049</internalNodes>
      <leafValues>
        -6.8371516466140747e-01 7.3247593641281128e-01</leafValues></_>
    <_>
      <internalNodes>
        0 -1 207844 -1811172461 -81557101 -1727725033 -619592699
        -518335762 -265093120 -332616726 -8396184</internalNodes>
      <leafValues>
        -7.5896292924880981e-01 6.3556987047195435e-01</leafValues></_>
    <_>
      <internalNodes>
        0 -1 246741 -772276995 -1343422467 -201359369 1886488317
        1979636977 1198413173 -681610257 1666187215</internalNodes>
      <leafValues>
        -6.6602647304534912e-01 7.3607301712036133e-01</leafValues></_>
    <_>
      <internalNodes>
        0 -1 186741 323018958 -1685583743 18944501 499978509 -1610569718
        998310280 809967803 -82849078</internalNodes>
      <leafValues>
        -7.3033690452575684e-01 6.5214550495147705e-01</leafValues></_>
    <_>
      <internalNodes>
        0 -1 208741 -481292071 -1285422654 -1862205041 285736964
        285389427 -1593179861 1359841163 1528501899</internalNodes>
      <leafValues>
        -8.9349269866943359e-01 5.1587361097335815e-01</leafValues></_></weakClassifiers></stage13>
</opencv_storage>
