<?xml version="1.0"?>
<opencv_storage>
<stage16>
  <maxWeakCount>8</maxWeakCount>
  <stageThreshold>-3.3475691080093384e-01</stageThreshold>
  <weakClassifiers>
    <_>
      <internalNodes>
        0 -1 201820 -1367880277 1652228054 -1090536253 -83951746
        1022301503 1619001151 366436723 -179486924</internalNodes>
      <leafValues>
        -4.1841003298759460e-01 5.3475934267044067e-01</leafValues></_>
    <_>
      <internalNodes>
        0 -1 193793 -1306447870 1379991570 1360003213 1259405833
        -1339967456 -1149107648 689080457 55238798</internalNodes>
      <leafValues>
        -6.4273518323898315e-01 3.5050252079963684e-01</leafValues></_>
    <_>
      <internalNodes>
        0 -1 322 1369593050 -1080557296 -2127490863 -709764587
        -2139039339 -264621823 -2078732119 387010830</internalNodes>
      <leafValues>
        -5.3914135694503784e-01 4.7081625461578369e-01</leafValues></_>
    <_>
      <internalNodes>
        0 -1 174699 -1059851598 1078322311 201389057 -1056923358
        -1072823605 142672000 -98545629 -822515581</internalNodes>
      <leafValues>
        -6.2009984254837036e-01 4.1453185677528381e-01</leafValues></_>
    <_>
      <internalNodes>
        0 -1 160856 -1096646727 -776400768 1511009727 -1686956731
        -1413804958 -369390408 156430041 -1145443</internalNodes>
      <leafValues>
        -4.2476549744606018e-01 6.0627382993698120e-01</leafValues></_>
    <_>
      <internalNodes>
        0 -1 147892 -1626075169 -114244525 -775129060 965738704
        -762330996 -1844805108 -1895608773 1367601306</internalNodes>
      <leafValues>
        -5.1104849576950073e-01 5.0592803955078125e-01</leafValues></_>
    <_>
      <internalNodes>
        0 -1 193544 -1989562320 1074985493 -938966847 -448590328
        -1534953792 730431505 243448015 -632983516</internalNodes>
      <leafValues>
        -5.5743902921676636e-01 4.7111743688583374e-01</leafValues></_>
    <_>
      <internalNodes>
        0 -1 194252 -1694052861 -1054420831 -2130130413 1078240451
        1182425472 -1342160760 -134042933 1936318119</internalNodes>
      <leafValues>
        -5.9445869922637939e-01 4.4348633289337158e-01</leafValues></_></weakClassifiers></stage16>
</opencv_storage>
