<?xml version="1.0"?>
<opencv_storage>
<stage14>
  <maxWeakCount>6</maxWeakCount>
  <stageThreshold>-1.3315916061401367e+00</stageThreshold>
  <weakClassifiers>
    <_>
      <internalNodes>
        0 -1 474210 -1394990315 -393707371 -2147382135 -23314171
        1074401608 -1073184126 -636528025 -858961120</internalNodes>
      <leafValues>
        -6.2186789512634277e-01 5.7967269420623779e-01</leafValues></_>
    <_>
      <internalNodes>
        0 -1 383252 -146423806 -989671285 -712963057 -1058717295
        -1878923263 404849474 -653291253 -1058802805</internalNodes>
      <leafValues>
        -5.4579716920852661e-01 5.1184159517288208e-01</leafValues></_>
    <_>
      <internalNodes>
        0 -1 409593 -2057872673 1435594824 306598297 1342706450
        151160906 1308688448 92914137 1530578325</internalNodes>
      <leafValues>
        -6.9023799896240234e-01 4.1629958152770996e-01</leafValues></_>
    <_>
      <internalNodes>
        0 -1 407759 -1026362448 25494788 2043074576 -720550902 58890963
        1621164168 -402083789 -1031032185</internalNodes>
      <leafValues>
        -6.4369344711303711e-01 4.9270707368850708e-01</leafValues></_>
    <_>
      <internalNodes>
        0 -1 300494 1913061451 1897075335 16875529 1024532763 958425771
        -201193373 402702733 -854966005</internalNodes>
      <leafValues>
        -5.4645597934722900e-01 5.6959480047225952e-01</leafValues></_>
    <_>
      <internalNodes>
        0 -1 175109 -779890277 -989826551 -1862188782 -669810599
        -1583574519 -1434287090 162032186 -1635082126</internalNodes>
      <leafValues>
        -5.9161728620529175e-01 5.7617336511611938e-01</leafValues></_></weakClassifiers></stage14>
</opencv_storage>
