<?xml version="1.0"?>
<opencv_storage>
<stage19>
  <maxWeakCount>9</maxWeakCount>
  <stageThreshold>-7.2237998247146606e-01</stageThreshold>
  <weakClassifiers>
    <_>
      <internalNodes>
        0 -1 107774 -1393602358 1414803194 913718265 1196785302
        -285213733 -1879149068 1510651834 1434385407</internalNodes>
      <leafValues>
        -3.4716981649398804e-01 5.4579436779022217e-01</leafValues></_>
    <_>
      <internalNodes>
        0 -1 201722 1657779935 -1360592921 -65538 -134447113 58146751
        -629145675 2010609491 -283249289</internalNodes>
      <leafValues>
        -4.1371142864227295e-01 5.2140980958938599e-01</leafValues></_>
    <_>
      <internalNodes>
        0 -1 204880 -1994384111 -1347326091 -1107886209 -184549380
        -1082152324 -436731907 -1493385219 -541180419</internalNodes>
      <leafValues>
        -4.1194173693656921e-01 5.1232999563217163e-01</leafValues></_>
    <_>
      <internalNodes>
        0 -1 165276 -1081347093 -843498144 1157672445 -1320202155
        -1442100534 -1612027136 307414173 -821308166</internalNodes>
      <leafValues>
        -3.9963716268539429e-01 5.4326009750366211e-01</leafValues></_>
    <_>
      <internalNodes>
        0 -1 139224 1558213322 1916960967 1216398468 436429058
        -1112028948 -1797029776 -1287585637 1867143759</internalNodes>
      <leafValues>
        -5.9949356317520142e-01 4.0867346525192261e-01</leafValues></_>
    <_>
      <internalNodes>
        0 -1 212047 -201047926 -400840566 -2115728888 1966018306
        545312900 402661481 1921667250 1441774159</internalNodes>
      <leafValues>
        -6.4895957708358765e-01 3.9250054955482483e-01</leafValues></_>
    <_>
      <internalNodes>
        0 -1 218103 -1862277362 -1744477965 25267516 -242535608
        1978681533 1360566473 1957737372 1927794819</internalNodes>
      <leafValues>
        -6.0210108757019043e-01 4.2104569077491760e-01</leafValues></_>
    <_>
      <internalNodes>
        0 -1 125715 -1126150435 1804328698 -1074855937 879648123
        -1422476247 -545891409 -1076988681 -553067011</internalNodes>
      <leafValues>
        -4.9565955996513367e-01 5.5303913354873657e-01</leafValues></_>
    <_>
      <internalNodes>
        0 -1 74291 150624666 -661237572 -1885046972 882611456
        -2012342860 -2008870887 -1475692416 -42564680</internalNodes>
      <leafValues>
        -6.2914294004440308e-01 4.3793711066246033e-01</leafValues></_></weakClassifiers></stage19>
</opencv_storage>
