<?xml version="1.0"?>
<opencv_storage>
<stage7>
  <maxWeakCount>7</maxWeakCount>
  <stageThreshold>-5.2160316705703735e-01</stageThreshold>
  <weakClassifiers>
    <_>
      <internalNodes>
        0 -1 194137 -954011872 -109336718 -270532609 1499940839
        804503540 -606079019 -1380597773 1835488597</internalNodes>
      <leafValues>
        -4.6586346626281738e-01 5.7350271940231323e-01</leafValues></_>
    <_>
      <internalNodes>
        0 -1 205293 -782503230 -1786511350 -2143217916 285622400
        -989673341 142671945 14738586 1204794059</internalNodes>
      <leafValues>
        -5.7228672504425049e-01 4.4504797458648682e-01</leafValues></_>
    <_>
      <internalNodes>
        0 -1 205187 -320174078 2046802534 1728013282 447462622
        -1413812498 779544414 2097004541 -572552305</internalNodes>
      <leafValues>
        -4.9213412404060364e-01 5.4650962352752686e-01</leafValues></_>
    <_>
      <internalNodes>
        0 -1 107091 -14461812 -745449455 332029916 1363410445
        -1410676550 -1151137157 -1395667493 -391130978</internalNodes>
      <leafValues>
        -4.8848828673362732e-01 5.4434043169021606e-01</leafValues></_>
    <_>
      <internalNodes>
        0 -1 211777 -671821958 1455246458 1732504921 -1781453989
        -1351954806 -1490055678 -1913466998 -100937850</internalNodes>
      <leafValues>
        -4.7584697604179382e-01 5.9951305389404297e-01</leafValues></_>
    <_>
      <internalNodes>
        0 -1 201649 1997795702 1099059266 1300406392 1556228126
        1757963662 1250578452 1090683885 462943995</internalNodes>
      <leafValues>
        -5.8926749229431152e-01 5.1680785417556763e-01</leafValues></_>
    <_>
      <internalNodes>
        0 -1 179902 -1613073638 -1861008376 1140932755 1433682053
        -1660104487 839549002 160091371 -351645799</internalNodes>
      <leafValues>
        -5.2724570035934448e-01 5.7516884803771973e-01</leafValues></_></weakClassifiers></stage7>
</opencv_storage>
