<?xml version="1.0"?>
<opencv_storage>
<stage13>
  <maxWeakCount>7</maxWeakCount>
  <stageThreshold>-6.5793561935424805e-01</stageThreshold>
  <weakClassifiers>
    <_>
      <internalNodes>
        0 -1 214885 2044917128 2005340613 1503849672 1363612893
        -1165408246 1191907167 -1743749110 -1693744053</internalNodes>
      <leafValues>
        -3.8229754567146301e-01 5.6407856941223145e-01</leafValues></_>
    <_>
      <internalNodes>
        0 -1 192782 -2012522027 -174962236 -788410081 436601028
        486784818 -1103491583 455395512 -900071023</internalNodes>
      <leafValues>
        -4.7733548283576965e-01 4.8304587602615356e-01</leafValues></_>
    <_>
      <internalNodes>
        0 -1 95016 -1080853385 -994241000 -876735107 1632468451
        -134461362 -1906406908 215927037 -1636107107</internalNodes>
      <leafValues>
        -4.4101047515869141e-01 5.3158843517303467e-01</leafValues></_>
    <_>
      <internalNodes>
        0 -1 155356 -1005848822 -1692441317 -1350565955 -1810475773
        -357662729 -545259601 -1355808771 -1290935393</internalNodes>
      <leafValues>
        -4.4399607181549072e-01 5.3731215000152588e-01</leafValues></_>
    <_>
      <internalNodes>
        0 -1 192515 -2027926315 -1652620220 1078781437 290869988
        -1390530605 -1248689951 10006715 206574824</internalNodes>
      <leafValues>
        -6.7060333490371704e-01 3.7930801510810852e-01</leafValues></_>
    <_>
      <internalNodes>
        0 -1 62424 -1312865048 1901790272 270098438 1963213737
        -2104487224 1782202368 -1467811621 -120962664</internalNodes>
      <leafValues>
        -5.8019620180130005e-01 4.5238047838211060e-01</leafValues></_>
    <_>
      <internalNodes>
        0 -1 205747 -1848053632 -217989087 -2130698235 1367933009
        512162731 -1677684600 571119931 -1660008283</internalNodes>
      <leafValues>
        -5.5056214332580566e-01 5.1667106151580811e-01</leafValues></_></weakClassifiers></stage13>
</opencv_storage>
