<?xml version="1.0"?>
<opencv_storage>
<stage4>
  <maxWeakCount>10</maxWeakCount>
  <stageThreshold>-1.0998543500900269e+00</stageThreshold>
  <weakClassifiers>
    <_>
      <internalNodes>
        0 -1 11324882 -3.6860834807157516e-03</internalNodes>
      <leafValues>
        5.3791886568069458e-01 -4.5064377784729004e-01</leafValues></_>
    <_>
      <internalNodes>
        0 -1 12110927 2.5050318799912930e-04</internalNodes>
      <leafValues>
        -3.4632739424705505e-01 5.2271163463592529e-01</leafValues></_>
    <_>
      <internalNodes>
        0 -1 11933418 1.1873614857904613e-04</internalNodes>
      <leafValues>
        -3.8234645128250122e-01 4.3048700690269470e-01</leafValues></_>
    <_>
      <internalNodes>
        0 -1 8394657 5.4355878382921219e-03</internalNodes>
      <leafValues>
        -2.3606388270854950e-01 5.9688997268676758e-01</leafValues></_>
    <_>
      <internalNodes>
        0 -1 8570608 1.2534366920590401e-02</internalNodes>
      <leafValues>
        2.3754614591598511e-01 -6.9893258810043335e-01</leafValues></_>
    <_>
      <internalNodes>
        0 -1 10765356 7.0623140782117844e-03</internalNodes>
      <leafValues>
        -3.7137308716773987e-01 4.6484473347663879e-01</leafValues></_>
    <_>
      <internalNodes>
        0 -1 10291700 -7.6502189040184021e-03</internalNodes>
      <leafValues>
        7.6994967460632324e-01 -2.2817386686801910e-01</leafValues></_>
    <_>
      <internalNodes>
        0 -1 10649934 3.6066789180040359e-03</internalNodes>
      <leafValues>
        3.1852519512176514e-01 -6.7161339521408081e-01</leafValues></_>
    <_>
      <internalNodes>
        0 -1 12419299 1.2453002855181694e-03</internalNodes>
      <leafValues>
        -2.5748538970947266e-01 7.0589321851730347e-01</leafValues></_>
    <_>
      <internalNodes>
        0 -1 6229090 2.5220874231308699e-03</internalNodes>
      <leafValues>
        -2.5255081057548523e-01 6.0017275810241699e-01</leafValues></_></weakClassifiers></stage4>
</opencv_storage>
