<?xml version="1.0"?>
<opencv_storage>
<stage13>
  <maxWeakCount>20</maxWeakCount>
  <stageThreshold>-1.1336528062820435e+00</stageThreshold>
  <weakClassifiers>
    <_>
      <internalNodes>
        0 -1 11929811 2.7056096587330103e-03</internalNodes>
      <leafValues>
        -6.5104164183139801e-02 5.4086536169052124e-01</leafValues></_>
    <_>
      <internalNodes>
        0 -1 7783622 -9.9840871989727020e-03</internalNodes>
      <leafValues>
        6.0706412792205811e-01 -1.4315825700759888e-01</leafValues></_>
    <_>
      <internalNodes>
        0 -1 4752205 -1.1302078142762184e-02</internalNodes>
      <leafValues>
        6.6594606637954712e-01 -1.4626152813434601e-01</leafValues></_>
    <_>
      <internalNodes>
        0 -1 12103705 7.6032313518226147e-04</internalNodes>
      <leafValues>
        -2.1194277703762054e-01 5.1438128948211670e-01</leafValues></_>
    <_>
      <internalNodes>
        0 -1 12742815 -6.2992041930556297e-03</internalNodes>
      <leafValues>
        -6.9030040502548218e-01 1.7126160860061646e-01</leafValues></_>
    <_>
      <internalNodes>
        0 -1 11278109 2.3816328030079603e-04</internalNodes>
      <leafValues>
        1.9319936633110046e-01 -6.7024672031402588e-01</leafValues></_>
    <_>
      <internalNodes>
        0 -1 13308564 -2.4950215592980385e-03</internalNodes>
      <leafValues>
        5.6653702259063721e-01 -2.0718294382095337e-01</leafValues></_>
    <_>
      <internalNodes>
        0 -1 11701544 7.7892374247312546e-03</internalNodes>
      <leafValues>
        -1.3406133651733398e-01 7.6062119007110596e-01</leafValues></_>
    <_>
      <internalNodes>
        0 -1 14024578 -2.2486881352961063e-03</internalNodes>
      <leafValues>
        6.2470406293869019e-01 -1.4031817018985748e-01</leafValues></_>
    <_>
      <internalNodes>
        0 -1 12849552 -1.6226929437834769e-04</internalNodes>
      <leafValues>
        -5.2017045021057129e-01 2.2370193898677826e-01</leafValues></_>
    <_>
      <internalNodes>
        0 -1 10727288 -2.2065700031816959e-03</internalNodes>
      <leafValues>
        5.5528914928436279e-01 -2.0966647565364838e-01</leafValues></_>
    <_>
      <internalNodes>
        0 -1 320599 -1.0043971706181765e-03</internalNodes>
      <leafValues>
        -5.1500755548477173e-01 2.2794508934020996e-01</leafValues></_>
    <_>
      <internalNodes>
        0 -1 11865666 1.5184795483946800e-03</internalNodes>
      <leafValues>
        -2.2579319775104523e-01 4.8613733053207397e-01</leafValues></_>
    <_>
      <internalNodes>
        0 -1 11567168 9.5430258661508560e-03</internalNodes>
      <leafValues>
        -2.0058993995189667e-01 5.6280767917633057e-01</leafValues></_>
    <_>
      <internalNodes>
        0 -1 11657456 4.1785007342696190e-03</internalNodes>
      <leafValues>
        1.5709877014160156e-01 -7.2443515062332153e-01</leafValues></_>
    <_>
      <internalNodes>
        0 -1 12544586 1.3776624109596014e-03</internalNodes>
      <leafValues>
        -2.6389738917350769e-01 4.4190669059753418e-01</leafValues></_>
    <_>
      <internalNodes>
        0 -1 12932389 4.5079495757818222e-03</internalNodes>
      <leafValues>
        -1.7430993914604187e-01 6.5730923414230347e-01</leafValues></_>
    <_>
      <internalNodes>
        0 -1 228451 2.3742637131363153e-03</internalNodes>
      <leafValues>
        2.5695767998695374e-01 -4.7537192702293396e-01</leafValues></_>
    <_>
      <internalNodes>
        0 -1 14668853 -9.9538946524262428e-03</internalNodes>
      <leafValues>
        4.0606692433357239e-01 -2.8727656602859497e-01</leafValues></_>
    <_>
      <internalNodes>
        0 -1 12044567 -7.9978117719292641e-03</internalNodes>
      <leafValues>
        -7.0129662752151489e-01 1.8138447403907776e-01</leafValues></_></weakClassifiers></stage13>
</opencv_storage>
