<?xml version="1.0"?>
<opencv_storage>
<cascade>
  <stageType>BOOST</stageType>
  <featureType>LBP</featureType>
  <height>40</height>
  <width>80</width>
  <stageParams>
    <boostType>GAB</boostType>
    <minHitRate>9.9900001287460327e-01</minHitRate>
    <maxFalseAlarm>5.0000000000000000e-01</maxFalseAlarm>
    <weightTrimRate>9.4999999999999996e-01</weightTrimRate>
    <maxDepth>1</maxDepth>
    <maxWeakCount>100</maxWeakCount></stageParams>
  <featureParams>
    <maxCatCount>256</maxCatCount>
    <featSize>1</featSize></featureParams>
  <stageNum>20</stageNum>
  <stages>
    <!-- stage 0 -->
    <_>
      <maxWeakCount>5</maxWeakCount>
      <stageThreshold>-8.7687820196151733e-01</stageThreshold>
      <weakClassifiers>
        <_>
          <internalNodes>
            0 -1 43 285712522 1427739906 1359102016 1560477960 269058218
            -913686327 1073905706 -176176497</internalNodes>
          <leafValues>
            -7.3469388484954834e-01 6.8468469381332397e-01</leafValues></_>
        <_>
          <internalNodes>
            0 -1 73 1537395278 1897521351 406888531 1564563859 276897999
            1484849153 1342391951 1998540939</internalNodes>
          <leafValues>
            -6.6369336843490601e-01 6.0745310783386230e-01</leafValues></_>
        <_>
          <internalNodes>
            0 -1 126 -607456630 -1861627888 4296832 1426276355
            -905408373 1090650120 310941835 520868767</internalNodes>
          <leafValues>
            -6.5745002031326294e-01 5.9370827674865723e-01</leafValues></_>
        <_>
          <internalNodes>
            0 -1 8 -1610559808 -653066229 1207992448 1363152992
            -2138996198 -1442181070 -2113355057 -1754295917</internalNodes>
          <leafValues>
            -6.7361956834793091e-01 5.8129847049713135e-01</leafValues></_>
        <_>
          <internalNodes>
            0 -1 116 -1201670429 1896941576 268517377 -2024695296
            1091145931 659456 -1065121377 1629969039</internalNodes>
          <leafValues>
            -6.5349769592285156e-01 6.4204466342926025e-01</leafValues></_></weakClassifiers></_>
    <!-- stage 1 -->
    <_>
      <maxWeakCount>6</maxWeakCount>
      <stageThreshold>-1.1348611116409302e+00</stageThreshold>
      <weakClassifiers>
        <_>
          <internalNodes>
            0 -1 46 -15497718 1564574858 -805289968 895570432 1082818696
            -820993780 1346558408 1239007951</internalNodes>
          <leafValues>
            -6.9058293104171753e-01 6.1351817846298218e-01</leafValues></_>
        <_>
          <internalNodes>
            0 -1 62 -1544334351 -638361327 2004451327 -615154313
            -1950835784 -8668643 -2025479285 -27839645</internalNodes>
          <leafValues>
            -4.7462788224220276e-01 7.2570884227752686e-01</leafValues></_>
        <_>
          <internalNodes>
            0 -1 31 -1466347312 -645910496 1430376665 1392579697
            -1577023334 970719266 -1993797701 1528547887</internalNodes>
          <leafValues>
            -5.9603083133697510e-01 6.0367769002914429e-01</leafValues></_>
        <_>
          <internalNodes>
            0 -1 124 -716913174 -717094902 1073742860 1393037320
            -1820306294 -1818230776 1619053135 -165686645</internalNodes>
          <leafValues>
            -6.1230653524398804e-01 5.7437044382095337e-01</leafValues></_>
        <_>
          <internalNodes>
            0 -1 113 -90079533 -80386000 -1904280005 305553276 137856168
            -1700333699 112521181 -1106577921</internalNodes>
          <leafValues>
            -5.2428221702575684e-01 7.1892440319061279e-01</leafValues></_>
        <_>
          <internalNodes>
            0 -1 42 -203980790 1955009024 269306897 893477251 -939335286
            -930987996 2022820232 2022297762</internalNodes>
          <leafValues>
            -6.8469667434692383e-01 5.7629239559173584e-01</leafValues></_></weakClassifiers></_>
    <!-- stage 2 -->
    <_>
      <maxWeakCount>5</maxWeakCount>
      <stageThreshold>-4.5001393556594849e-01</stageThreshold>
      <weakClassifiers>
        <_>
          <internalNodes>
            0 -1 3 -1851599672 -1715839864 -1465978641 1427840867
            -1281129816 286998904 522558943 456875547</internalNodes>
          <leafValues>
            -5.5087721347808838e-01 6.9320386648178101e-01</leafValues></_>
        <_>
          <internalNodes>
            0 -1 45 -1836120958 -678363136 -654163885 -149876584
            555745451 -1880555373 -2012706673 -1077180273</internalNodes>
          <leafValues>
            -6.2549006938934326e-01 6.0423529148101807e-01</leafValues></_>
        <_>
          <internalNodes>
            0 -1 79 -227029061 149991971 1325088515 -671930607
            -1001976672 -806040267 2425857 -557848705</internalNodes>
          <leafValues>
            -5.7482093572616577e-01 6.3859850168228149e-01</leafValues></_>
        <_>
          <internalNodes>
            0 -1 57 -1298701570 -100792192 858418039 874600053
            -1188791298 -9498356 321117596 -885370664</internalNodes>
          <leafValues>
            -6.1483120918273926e-01 6.3877356052398682e-01</leafValues></_>
        <_>
          <internalNodes>
            0 -1 10 -106177250 -829420 -1125232649 -144093943
            -1440006002 -1145167752 462839757 -608186149</internalNodes>
          <leafValues>
            -5.2713936567306519e-01 7.6890051364898682e-01</leafValues></_></weakClassifiers></_>
    <!-- stage 3 -->
    <_>
      <maxWeakCount>7</maxWeakCount>
      <stageThreshold>-5.0988310575485229e-01</stageThreshold>
      <weakClassifiers>
        <_>
          <internalNodes>
            0 -1 86 -431021330 -145375377 2142633193 2145746879
            1693938926 517273461 1966602239 1935144951</internalNodes>
          <leafValues>
            -5.3816044330596924e-01 6.1983472108840942e-01</leafValues></_>
        <_>
          <internalNodes>
            0 -1 136 -758914878 1564942600 16826466 1367621927
            1152446696 537002641 1115695258 -544476465</internalNodes>
          <leafValues>
            -5.4580169916152954e-01 5.9019452333450317e-01</leafValues></_>
        <_>
          <internalNodes>
            0 -1 16 -1466180211 -553444080 -864919573 -549203173
            -1461534545 -1088943971 185313739 -78654214</internalNodes>
          <leafValues>
            -4.4341078400611877e-01 6.9635570049285889e-01</leafValues></_>
        <_>
          <internalNodes>
            0 -1 55 -616040574 290664870 -351645688 -586419693
            1082475750 18235402 -2122278645 -758908541</internalNodes>
          <leafValues>
            -6.2295198440551758e-01 5.3003388643264771e-01</leafValues></_>
        <_>
          <internalNodes>
            0 -1 29 -1312108076 -741117863 805327197 -486060029
            -2145803538 -2006810624 167791275 -1156623991</internalNodes>
          <leafValues>
            -5.9486973285675049e-01 5.9813648462295532e-01</leafValues></_>
        <_>
          <internalNodes>
            0 -1 133 -1282158374 -1821290231 268470043 -750563049
            1149898955 -738148352 336118479 1414185199</internalNodes>
          <leafValues>
            -6.0479742288589478e-01 6.2516093254089355e-01</leafValues></_>
        <_>
          <internalNodes>
            0 -1 80 -939268045 -1871691648 -1874851817 -1055408125
            1795794345 -502464381 33636359 -909786853</internalNodes>
          <leafValues>
            -6.0686820745468140e-01 5.9742689132690430e-01</leafValues></_></weakClassifiers></_>
    <!-- stage 4 -->
    <_>
      <maxWeakCount>6</maxWeakCount>
      <stageThreshold>-1.3534885644912720e+00</stageThreshold>
      <weakClassifiers>
        <_>
          <internalNodes>
            0 -1 87 -801053886 1453314846 1224737894 -954261117
            -527203996 1048646 848421279 1997783195</internalNodes>
          <leafValues>
            -7.0526313781738281e-01 5.4754096269607544e-01</leafValues></_>
        <_>
          <internalNodes>
            0 -1 75 -1034985101 1107411969 1744921616 134975507
            142975168 -175165368 1073823809 -270534297</internalNodes>
          <leafValues>
            -5.4768961668014526e-01 5.3276276588439941e-01</leafValues></_>
        <_>
          <internalNodes>
            0 -1 4 -1846676840 1972175072 67785140 1439256845
            -1576000376 142606656 -1333478181 1004473115</internalNodes>
          <leafValues>
            -6.3564944267272949e-01 4.6071079373359680e-01</leafValues></_>
        <_>
          <internalNodes>
            0 -1 139 -704494304 1976779025 -2130433381 2013462529
            1493323802 -1174206456 1350749163 385949903</internalNodes>
          <leafValues>
            -6.7576110363006592e-01 4.5100462436676025e-01</leafValues></_>
        <_>
          <internalNodes>
            0 -1 49 -150219698 -686735293 151011336 -105021284
            -503227988 536887432 570818687 1326303467</internalNodes>
          <leafValues>
            -6.2155109643936157e-01 4.5776692032814026e-01</leafValues></_>
        <_>
          <internalNodes>
            0 -1 9 -375011137 -215870941 -1756301491 -502688912
            174839851 -545362373 240975695 -573603973</internalNodes>
          <leafValues>
            -5.1673853397369385e-01 6.2798744440078735e-01</leafValues></_></weakClassifiers></_>
    <!-- stage 5 -->
    <_>
      <maxWeakCount>7</maxWeakCount>
      <stageThreshold>-6.5524113178253174e-01</stageThreshold>
      <weakClassifiers>
        <_>
          <internalNodes>
            0 -1 94 -933058016 -159366705 -1295875181 933333267
            -1493098307 1410390032 29426827 855708451</internalNodes>
          <leafValues>
            -7.4592834711074829e-01 4.8646557331085205e-01</leafValues></_>
        <_>
          <internalNodes>
            0 -1 61 -1809624107 -105939561 -5283905 -1279103778
            -134418946 -40962 -88409681 -351791187</internalNodes>
          <leafValues>
            -4.1664332151412964e-01 6.4351642131805420e-01</leafValues></_>
        <_>
          <internalNodes>
            0 -1 53 1551362560 1615065419 294158976 1015927088
            1077539398 847822917 1101423782 -135269690</internalNodes>
          <leafValues>
            -6.7471700906753540e-01 4.1315233707427979e-01</leafValues></_>
        <_>
          <internalNodes>
            0 -1 112 -2080370437 2064715984 29459737 1477263629
            545435787 -617533248 940622521 -1087241315</internalNodes>
          <leafValues>
            -5.2362525463104248e-01 5.5031138658523560e-01</leafValues></_>
        <_>
          <internalNodes>
            0 -1 21 -644624129 1561023992 2120740681 822173057
            -1462205989 -1089480306 -1718884786 -827620945</internalNodes>
          <leafValues>
            -3.8907650113105774e-01 7.6601511240005493e-01</leafValues></_>
        <_>
          <internalNodes>
            0 -1 14 -2104668131 -2020113375 93643151 1037932677
            1271433497 -386793464 976894880 1003258904</internalNodes>
          <leafValues>
            -5.6544423103332520e-01 5.2415043115615845e-01</leafValues></_>
        <_>
          <internalNodes>
            0 -1 26 1381891343 -786690943 335728907 1963917604
            -953862422 -661041151 -528367366 293329546</internalNodes>
          <leafValues>
            -5.7743024826049805e-01 5.4299890995025635e-01</leafValues></_></weakClassifiers></_>
    <!-- stage 6 -->
    <_>
      <maxWeakCount>7</maxWeakCount>
      <stageThreshold>-7.5839799642562866e-01</stageThreshold>
      <weakClassifiers>
        <_>
          <internalNodes>
            0 -1 82 168698626 1435381882 540203139 991765091 -2003614845
            -1071611744 1221427352 1182220823</internalNodes>
          <leafValues>
            -7.0716512203216553e-01 4.9022674560546875e-01</leafValues></_>
        <_>
          <internalNodes>
            0 -1 134 -741900158 1593970946 1375774854 1470579730
            -75069312 543163520 1073916586 -3152182</internalNodes>
          <leafValues>
            -5.7250630855560303e-01 4.6460175514221191e-01</leafValues></_>
        <_>
          <internalNodes>
            0 -1 103 -1162643301 -1624043408 -1875459539 -261008383
            -1992584049 -1161915381 981139407 -569502641</internalNodes>
          <leafValues>
            -4.3740755319595337e-01 6.3820475339889526e-01</leafValues></_>
        <_>
          <internalNodes>
            0 -1 107 1154413803 -1974599482 -1052765883 -178487294
            78250075 1208123520 33751303 -10526141</internalNodes>
          <leafValues>
            -5.5765658617019653e-01 5.1906728744506836e-01</leafValues></_>
        <_>
          <internalNodes>
            0 -1 22 -552642055 2097172056 -1729569314 -719652727
            -1146436918 -1145367729 -340595521 -639929969</internalNodes>
          <leafValues>
            -4.2812970280647278e-01 7.0661848783493042e-01</leafValues></_>
        <_>
          <internalNodes>
            0 -1 115 1442956834 -1574305778 -738065134 1351160354
            -1064611347 1256464578 8500589 1269787311</internalNodes>
          <leafValues>
            -6.8885755538940430e-01 4.2411541938781738e-01</leafValues></_>
        <_>
          <internalNodes>
            0 -1 34 -2132713422 -1618144608 -2146163527 1912705093
            -2109562350 -385810295 -1035982082 -1767456639</internalNodes>
          <leafValues>
            -6.1836403608322144e-01 4.8324379324913025e-01</leafValues></_></weakClassifiers></_>
    <!-- stage 7 -->
    <_>
      <maxWeakCount>7</maxWeakCount>
      <stageThreshold>-1.4156898260116577e+00</stageThreshold>
      <weakClassifiers>
        <_>
          <internalNodes>
            0 -1 54 469736194 2145384147 -1069230010 -806945279 66580394
            185661435 1167221418 2145177618</internalNodes>
          <leafValues>
            -4.7033897042274475e-01 5.5141842365264893e-01</leafValues></_>
        <_>
          <internalNodes>
            0 -1 68 -4456461 -1337789661 -1475952121 -1344276607
            -504378944 1641416159 1682081602 -974399489</internalNodes>
          <leafValues>
            -4.6045342087745667e-01 5.4619002342224121e-01</leafValues></_>
        <_>
          <internalNodes>
            0 -1 123 -183005526 329089032 1157669264 -775478975
            -1715108726 -1019936640 -2004874742 -875935549</internalNodes>
          <leafValues>
            -5.1214331388473511e-01 5.2858024835586548e-01</leafValues></_>
        <_>
          <internalNodes>
            0 -1 18 -1456240695 -612123024 -1964056424 -1192625771
            -922548033 -1422255841 -909284242 -642807523</internalNodes>
          <leafValues>
            -4.8500859737396240e-01 5.8894520998001099e-01</leafValues></_>
        <_>
          <internalNodes>
            0 -1 81 -266862861 -921141152 151109979 1352073492
            -1593120672 -1212120056 428443975 1362879755</internalNodes>
          <leafValues>
            -5.7900464534759521e-01 4.8645937442779541e-01</leafValues></_>
        <_>
          <internalNodes>
            0 -1 32 -1622454183 1424558338 -2129584865 226300063
            -1117761523 -1689952192 268464573 1284168172</internalNodes>
          <leafValues>
            -5.9645050764083862e-01 4.8274010419845581e-01</leafValues></_>
        <_>
          <internalNodes>
            0 -1 110 -1421872517 1486592612 -1683438471 354976617
            -1893785928 -935378412 -2056848195 -904931371</internalNodes>
          <leafValues>
            -4.5170816779136658e-01 6.7217528820037842e-01</leafValues></_></weakClassifiers></_>
    <!-- stage 8 -->
    <_>
      <maxWeakCount>7</maxWeakCount>
      <stageThreshold>-1.4589204788208008e+00</stageThreshold>
      <weakClassifiers>
        <_>
          <internalNodes>
            0 -1 25 -1938280562 290319916 1408080634 1368391613
            -1110843845 1415309006 -583155814 1431174713</internalNodes>
          <leafValues>
            -4.8471614718437195e-01 5.4465848207473755e-01</leafValues></_>
        <_>
          <internalNodes>
            0 -1 91 -1363648939 -268607748 -1074282505 -69239303
            -1188628806 -269025539 -1976381763 -1087220351</internalNodes>
          <leafValues>
            -4.3788501620292664e-01 5.5953961610794067e-01</leafValues></_>
        <_>
          <internalNodes>
            0 -1 120 -1861171798 1599275008 17891424 1434910865
            807033023 1696716939 243375 2093994413</internalNodes>
          <leafValues>
            -5.7706123590469360e-01 4.5116233825683594e-01</leafValues></_>
        <_>
          <internalNodes>
            0 -1 122 331809476 -545978278 590024 2063697927 1216788430
            131338 1212278927 -481297970</internalNodes>
          <leafValues>
            -6.0130268335342407e-01 4.2910775542259216e-01</leafValues></_>
        <_>
          <internalNodes>
            0 -1 51 62606903 -1148507648 875754335 1483931589 1244428474
            -1402065344 1155718399 -107291708</internalNodes>
          <leafValues>
            -4.6041890978813171e-01 6.2697857618331909e-01</leafValues></_>
        <_>
          <internalNodes>
            0 -1 20 834386905 1507303959 -1610563535 -2092657662
            -1606371954 -1727442942 -1836521461 57131685</internalNodes>
          <leafValues>
            -5.7095968723297119e-01 5.1100713014602661e-01</leafValues></_>
        <_>
          <internalNodes>
            0 -1 90 -1247030021 2012962936 -614469795 1510628477
            304278691 -8915418 278305279 -636756839</internalNodes>
          <leafValues>
            -4.4219785928726196e-01 6.5627044439315796e-01</leafValues></_></weakClassifiers></_>
    <!-- stage 9 -->
    <_>
      <maxWeakCount>7</maxWeakCount>
      <stageThreshold>-5.9553658962249756e-01</stageThreshold>
      <weakClassifiers>
        <_>
          <internalNodes>
            0 -1 0 -156579638 -101986206 -1343333393 -1619716611
            -1698713306 -148689037 456261375 858870905</internalNodes>
          <leafValues>
            -3.9194139838218689e-01 5.8254271745681763e-01</leafValues></_>
        <_>
          <internalNodes>
            0 -1 72 -2119143293 -921059311 -2130643519 -786316783
            -1710714141 -1803020156 268665051 -148127330</internalNodes>
          <leafValues>
            -4.8268115520477295e-01 5.1822185516357422e-01</leafValues></_>
        <_>
          <internalNodes>
            0 -1 98 -1175036552 -42083085 -1074861190 -537309260
            -1610871574 -1628127617 -1111949893 -1612147219</internalNodes>
          <leafValues>
            -4.1743314266204834e-01 5.9330117702484131e-01</leafValues></_>
        <_>
          <internalNodes>
            0 -1 125 -1662265146 -2134244062 -20989790 1374669890
            -827808540 258741800 1077089091 -1013197125</internalNodes>
          <leafValues>
            -5.0613462924957275e-01 5.3909200429916382e-01</leafValues></_>
        <_>
          <internalNodes>
            0 -1 19 1149853898 -1732365182 -1853828543 1902053635
            -1037499154 246063108 -1298658610 161599721</internalNodes>
          <leafValues>
            -6.4430022239685059e-01 4.2743194103240967e-01</leafValues></_>
        <_>
          <internalNodes>
            0 -1 129 -1789136200 -11157306 117634088 1529561179
            553773773 -2143256560 1074326155 1399443011</internalNodes>
          <leafValues>
            -5.6899970769882202e-01 5.0010335445404053e-01</leafValues></_>
        <_>
          <internalNodes>
            0 -1 39 -1739964157 -251576048 -2129620781 1565073412
            -669464469 -1198833653 -2009028360 -656715667</internalNodes>
          <leafValues>
            -6.0466009378433228e-01 5.1512247323989868e-01</leafValues></_></weakClassifiers></_>
    <!-- stage 10 -->
    <_>
      <maxWeakCount>7</maxWeakCount>
      <stageThreshold>-6.2577033042907715e-01</stageThreshold>
      <weakClassifiers>
        <_>
          <internalNodes>
            0 -1 108 -1359491925 1793785846 -16827149 -218202244
            2121211703 1082130357 131559795 -145883212</internalNodes>
          <leafValues>
            -4.2314991354942322e-01 5.8061510324478149e-01</leafValues></_>
        <_>
          <internalNodes>
            0 -1 114 -648678654 1384812577 -1221468769 -1867254
            -654137161 -1441625973 -1039417139 1087079050</internalNodes>
          <leafValues>
            -4.9508827924728394e-01 4.9254706501960754e-01</leafValues></_>
        <_>
          <internalNodes>
            0 -1 135 -686862142 1602289871 -670366838 -749404005
            1711283119 1520042502 1409391498 -750059121</internalNodes>
          <leafValues>
            -5.0349903106689453e-01 4.8927119374275208e-01</leafValues></_>
        <_>
          <internalNodes>
            0 -1 60 -203455741 1918235278 -1006446319 -954744669
            -934612474 2232448 -945065617 -1421155333</internalNodes>
          <leafValues>
            -4.8141643404960632e-01 5.1667666435241699e-01</leafValues></_>
        <_>
          <internalNodes>
            0 -1 30 -1683764020 -53018560 -2146171903 -665837416
            616614511 -1404027767 698499753 -1171580773</internalNodes>
          <leafValues>
            -6.3975721597671509e-01 4.1758850216865540e-01</leafValues></_>
        <_>
          <internalNodes>
            0 -1 15 -67270117 372501050 1801339593 1100437019
            -1895897427 -536877465 -459596146 -1911290801</internalNodes>
          <leafValues>
            -4.0453672409057617e-01 6.5516853332519531e-01</leafValues></_>
        <_>
          <internalNodes>
            0 -1 130 -934815668 1153875202 1126416602 298549378
            1443079075 1157825153 -892886334 1459571523</internalNodes>
          <leafValues>
            -6.7295104265213013e-01 4.1271069645881653e-01</leafValues></_></weakClassifiers></_>
    <!-- stage 11 -->
    <_>
      <maxWeakCount>8</maxWeakCount>
      <stageThreshold>-1.0141746997833252e+00</stageThreshold>
      <weakClassifiers>
        <_>
          <internalNodes>
            0 -1 44 891535498 1561645707 1426129920 1417777549
            1359798666 1895924880 1351333322 1956627439</internalNodes>
          <leafValues>
            -6.0547947883605957e-01 5.0283402204513550e-01</leafValues></_>
        <_>
          <internalNodes>
            0 -1 99 -1162923975 -138870727 -801900193 859004187
            -1171880805 -1150860072 2117791630 -552932209</internalNodes>
          <leafValues>
            -3.5040810704231262e-01 6.5669256448745728e-01</leafValues></_>
        <_>
          <internalNodes>
            0 -1 58 -1414442543 -1610884271 1073289567 2087911735
            -1346848808 -1140851951 943104987 -276646025</internalNodes>
          <leafValues>
            -3.9436423778533936e-01 5.6937313079833984e-01</leafValues></_>
        <_>
          <internalNodes>
            0 -1 74 -1039430533 1610982179 1409304833 -1879040000
            1141630660 -1862151625 828819495 -147868105</internalNodes>
          <leafValues>
            -4.5703878998756409e-01 5.2997618913650513e-01</leafValues></_>
        <_>
          <internalNodes>
            0 -1 132 -583318421 277170328 -1240919662 1497432158
            -2146336101 856172961 549795017 1393442895</internalNodes>
          <leafValues>
            -6.0804504156112671e-01 4.5820337533950806e-01</leafValues></_>
        <_>
          <internalNodes>
            0 -1 5 2112084959 -459255528 -2063561280 256956885 157958806
            674373649 -612247105 -744633671</internalNodes>
          <leafValues>
            -5.0312662124633789e-01 5.7311463356018066e-01</leafValues></_>
        <_>
          <internalNodes>
            0 -1 12 -1216802702 67209480 -2033676911 2022375457
            278059435 1358995755 1359091803 1336625200</internalNodes>
          <leafValues>
            -6.4067482948303223e-01 4.4983220100402832e-01</leafValues></_>
        <_>
          <internalNodes>
            0 -1 37 321755835 -1750874984 1502597164 -720117866
            1593788167 -1094189906 -619479576 -1726775937</internalNodes>
          <leafValues>
            -4.9212411046028137e-01 6.0746335983276367e-01</leafValues></_></weakClassifiers></_>
    <!-- stage 12 -->
    <_>
      <maxWeakCount>8</maxWeakCount>
      <stageThreshold>-1.2016389369964600e+00</stageThreshold>
      <weakClassifiers>
        <_>
          <internalNodes>
            0 -1 137 -645870462 1553219809 -1072401760 320408629
            1880096974 1275068418 1090707431 1930452619</internalNodes>
          <leafValues>
            -5.6544500589370728e-01 5.0574713945388794e-01</leafValues></_>
        <_>
          <internalNodes>
            0 -1 63 -269747493 -269619275 58225207 1882345749 -326116854
            -1687706100 803066831 -551562933</internalNodes>
          <leafValues>
            -3.6539176106452942e-01 6.1040097475051880e-01</leafValues></_>
        <_>
          <internalNodes>
            0 -1 84 -1064360191 -237021758 38533335 -846479118
            1099369372 -1739537920 -1515921247 587936515</internalNodes>
          <leafValues>
            -5.9730488061904907e-01 4.2038196325302124e-01</leafValues></_>
        <_>
          <internalNodes>
            0 -1 40 -987677990 -888130352 210243746 1247572368 402686027
            -1988050929 675320326 1595782379</internalNodes>
          <leafValues>
            -6.6689586639404297e-01 3.7259367108345032e-01</leafValues></_>
        <_>
          <internalNodes>
            0 -1 97 -1340124019 -134513719 -1084227585 -710726138
            -1254899717 -16941905 -1258627073 -541444903</internalNodes>
          <leafValues>
            -4.7062167525291443e-01 5.6441235542297363e-01</leafValues></_>
        <_>
          <internalNodes>
            0 -1 93 -1022967232 -175406446 -1037446065 -1861943149
            1747821012 -1736261498 -1463567901 843518467</internalNodes>
          <leafValues>
            -7.2686588764190674e-01 4.0552014112472534e-01</leafValues></_>
        <_>
          <internalNodes>
            0 -1 65 -719557938 -242110078 -653064116 285233219
            -1101525845 1510752256 1761648303 1588281755</internalNodes>
          <leafValues>
            -5.7337021827697754e-01 4.7310233116149902e-01</leafValues></_>
        <_>
          <internalNodes>
            0 -1 89 1101724121 -633341592 250797439 1471785707
            -663234410 -1635318947 525528527 -1350370024</internalNodes>
          <leafValues>
            -4.7435581684112549e-01 6.3550031185150146e-01</leafValues></_></weakClassifiers></_>
    <!-- stage 13 -->
    <_>
      <maxWeakCount>9</maxWeakCount>
      <stageThreshold>-7.3132127523422241e-01</stageThreshold>
      <weakClassifiers>
        <_>
          <internalNodes>
            0 -1 78 47338240 -908995581 -196534270 1757487186 1097456775
            211894512 1476677714 1802203715</internalNodes>
          <leafValues>
            -6.5584415197372437e-01 4.6594426035881042e-01</leafValues></_>
        <_>
          <internalNodes>
            0 -1 70 -1173139246 1360740352 -1991442177 269749145
            -1300069696 -83836807 134250648 455754189</internalNodes>
          <leafValues>
            -6.5072768926620483e-01 3.4332084655761719e-01</leafValues></_>
        <_>
          <internalNodes>
            0 -1 66 -1864905761 -948623561 -889518055 1308044837
            -261673721 -2077982921 1145521251 -406331913</internalNodes>
          <leafValues>
            -4.0240168571472168e-01 6.0666221380233765e-01</leafValues></_>
        <_>
          <internalNodes>
            0 -1 11 -987934340 -165836656 -1444130412 1438503368
            -1597317906 13177756 -1325161777 447447490</internalNodes>
          <leafValues>
            -5.3492259979248047e-01 4.5768207311630249e-01</leafValues></_>
        <_>
          <internalNodes>
            0 -1 24 -1111194611 -644874138 1073776920 487086147
            -1961321831 -379584511 -1098851649 -102211363</internalNodes>
          <leafValues>
            -4.9306946992874146e-01 5.1624995470046997e-01</leafValues></_>
        <_>
          <internalNodes>
            0 -1 67 -549503101 1462435408 1087195228 -341438738
            -186389200 1699102485 541999997 -216531105</internalNodes>
          <leafValues>
            -4.8721608519554138e-01 5.2935177087783813e-01</leafValues></_>
        <_>
          <internalNodes>
            0 -1 38 -1031666614 -68091901 9440277 1408960832 285214832
            939524112 1761773903 992100397</internalNodes>
          <leafValues>
            -6.1454653739929199e-01 4.3430098891258240e-01</leafValues></_>
        <_>
          <internalNodes>
            0 -1 33 -1871344469 1362476553 455271226 -576472950
            -956441365 -620566798 -105316887 -814259029</internalNodes>
          <leafValues>
            -5.2855229377746582e-01 5.5170810222625732e-01</leafValues></_>
        <_>
          <internalNodes>
            0 -1 92 -600619513 -587126507 -1991159536 -636895158
            1090699401 -402358125 -939220861 -1574731005</internalNodes>
          <leafValues>
            -5.1339530944824219e-01 5.3006708621978760e-01</leafValues></_></weakClassifiers></_>
    <!-- stage 14 -->
    <_>
      <maxWeakCount>7</maxWeakCount>
      <stageThreshold>-4.7078049182891846e-01</stageThreshold>
      <weakClassifiers>
        <_>
          <internalNodes>
            0 -1 118 -1364974000 -487653386 -73905 -17891466 259866494
            780136447 -1073908396 -536953420</internalNodes>
          <leafValues>
            -4.2138364911079407e-01 5.3517365455627441e-01</leafValues></_>
        <_>
          <internalNodes>
            0 -1 41 -72498617 286343360 -402281989 285825673 -1476123998
            -1104117620 218211007 -1105274473</internalNodes>
          <leafValues>
            -4.1064193844795227e-01 5.3457963466644287e-01</leafValues></_>
        <_>
          <internalNodes>
            0 -1 48 -1720747395 -641115588 2118123327 1569420405
            -1180039080 -96700682 -16842785 -1913717431</internalNodes>
          <leafValues>
            -3.8738617300987244e-01 5.8298170566558838e-01</leafValues></_>
        <_>
          <internalNodes>
            0 -1 69 -1726069537 -2023757487 1090773325 91300292 5254191
            -1439018454 1378285980 2114474425</internalNodes>
          <leafValues>
            -5.2940046787261963e-01 4.7521045804023743e-01</leafValues></_>
        <_>
          <internalNodes>
            0 -1 117 303165906 -202155032 1233023161 830578545
            2008405449 -397351970 -562387957 -1382289731</internalNodes>
          <leafValues>
            -4.4475439190864563e-01 6.1622726917266846e-01</leafValues></_>
        <_>
          <internalNodes>
            0 -1 35 -1280223240 -1118780829 1363691415 -826277672
            -1598420129 813945098 162589193 -914112310</internalNodes>
          <leafValues>
            -5.1236075162887573e-01 5.0877404212951660e-01</leafValues></_>
        <_>
          <internalNodes>
            0 -1 102 -1525023192 419729450 1879064798 -83358939
            1090574600 319176718 -1887189280 1582519023</internalNodes>
          <leafValues>
            -6.7124289274215698e-01 3.9584243297576904e-01</leafValues></_></weakClassifiers></_>
    <!-- stage 15 -->
    <_>
      <maxWeakCount>9</maxWeakCount>
      <stageThreshold>-1.1696368455886841e+00</stageThreshold>
      <weakClassifiers>
        <_>
          <internalNodes>
            0 -1 85 -1440667937 -8433574 37174749 528434463 -1509783384
            -82422236 436833487 1628917247</internalNodes>
          <leafValues>
            -2.5072047114372253e-01 6.3355410099029541e-01</leafValues></_>
        <_>
          <internalNodes>
            0 -1 128 -689449405 1096578679 -363925778 1922758571
            -680560274 -1216905377 -361073090 1130359807</internalNodes>
          <leafValues>
            -4.2920202016830444e-01 4.9519613385200500e-01</leafValues></_>
        <_>
          <internalNodes>
            0 -1 1 -217390372 -784579112 -1870112685 1056981250
            -117280758 1645872161 805362763 1400324371</internalNodes>
          <leafValues>
            -5.7961714267730713e-01 3.8437902927398682e-01</leafValues></_>
        <_>
          <internalNodes>
            0 -1 64 -2008077237 570795151 1192511489 -1583755205
            -234816124 -1064695144 -1251094910 -1315177969</internalNodes>
          <leafValues>
            -5.1677548885345459e-01 4.5039039850234985e-01</leafValues></_>
        <_>
          <internalNodes>
            0 -1 96 -217326639 2080059064 246885559 1337344524
            1535276986 -548421779 -1943280722 -892610097</internalNodes>
          <leafValues>
            -3.7500405311584473e-01 7.0582032203674316e-01</leafValues></_>
        <_>
          <internalNodes>
            0 -1 71 -7677251 1864657609 2047920765 -919416555 -57716214
            -1709186780 -1689802773 958356381</internalNodes>
          <leafValues>
            -4.1824698448181152e-01 5.9274005889892578e-01</leafValues></_>
        <_>
          <internalNodes>
            0 -1 23 716386061 -1693396902 269522969 -1846103526
            1480655066 -1721695734 -368342949 90221320</internalNodes>
          <leafValues>
            -5.5383968353271484e-01 4.7929489612579346e-01</leafValues></_>
        <_>
          <internalNodes>
            0 -1 109 -668480064 -129658879 37881995 -1845448627
            -628569171 -1308078068 1918829743 1718348421</internalNodes>
          <leafValues>
            -5.5375224351882935e-01 5.0362128019332886e-01</leafValues></_>
        <_>
          <internalNodes>
            0 -1 105 -1248332746 -1304423329 201689555 -251066175
            -1606918004 -65003391 -928874373 -1752375075</internalNodes>
          <leafValues>
            -5.2823519706726074e-01 5.4998844861984253e-01</leafValues></_></weakClassifiers></_>
    <!-- stage 16 -->
    <_>
      <maxWeakCount>7</maxWeakCount>
      <stageThreshold>-6.4382666349411011e-01</stageThreshold>
      <weakClassifiers>
        <_>
          <internalNodes>
            0 -1 104 -2134597595 1130797053 -126028041 -419956937
            -1787838761 2053680831 -1821508643 1430357823</internalNodes>
          <leafValues>
            -3.9637827873229980e-01 5.4125112295150757e-01</leafValues></_>
        <_>
          <internalNodes>
            0 -1 52 -1617856293 -1012703920 -1679853569 2137735253
            -1910324549 -834970404 305854203 -49839916</internalNodes>
          <leafValues>
            -3.6294367909431458e-01 5.7242596149444580e-01</leafValues></_>
        <_>
          <internalNodes>
            0 -1 121 929002638 1563685202 -972983080 2139212648
            -429271928 -1023176284 1648394410 2072931019</internalNodes>
          <leafValues>
            -5.4145210981369019e-01 4.1889804601669312e-01</leafValues></_>
        <_>
          <internalNodes>
            0 -1 127 -2052959689 -1654958832 1342187285 1376879917
            -1341976501 -567766912 -1475427460 -1093098363</internalNodes>
          <leafValues>
            -4.4077298045158386e-01 5.1312881708145142e-01</leafValues></_>
        <_>
          <internalNodes>
            0 -1 27 -290194306 -39166689 -330539300 -956080136 254446299
            -1149558965 -827666534 -310685766</internalNodes>
          <leafValues>
            -4.6638053655624390e-01 5.4589962959289551e-01</leafValues></_>
        <_>
          <internalNodes>
            0 -1 106 887080450 822200468 2030580737 -1765609416
            -1827962173 278596045 68918091 101370251</internalNodes>
          <leafValues>
            -7.0313239097595215e-01 3.7006333470344543e-01</leafValues></_>
        <_>
          <internalNodes>
            0 -1 131 -1459576328 -1962309552 115079 1469612092
            -2137477653 405029028 327385144 536824317</internalNodes>
          <leafValues>
            -6.4302641153335571e-01 3.9630967378616333e-01</leafValues></_></weakClassifiers></_>
    <!-- stage 17 -->
    <_>
      <maxWeakCount>8</maxWeakCount>
      <stageThreshold>-1.1655211448669434e+00</stageThreshold>
      <weakClassifiers>
        <_>
          <internalNodes>
            0 -1 108 779607471 543883222 -1090549293 2048270271
            2121209716 1082130229 123684211 -217612368</internalNodes>
          <leafValues>
            -4.4690266251564026e-01 5.2439022064208984e-01</leafValues></_>
        <_>
          <internalNodes>
            0 -1 95 -1607253114 540676489 -1659829762 -16186944 553135
            939788418 344662788 -712261497</internalNodes>
          <leafValues>
            -5.5439990758895874e-01 3.8530579209327698e-01</leafValues></_>
        <_>
          <internalNodes>
            0 -1 77 -1719444902 -786628608 631344413 2117153355
            -2147306886 -1606967158 1610619599 -1155869987</internalNodes>
          <leafValues>
            -4.9220436811447144e-01 4.5724830031394958e-01</leafValues></_>
        <_>
          <internalNodes>
            0 -1 50 -32615692 -1215495978 -1073068468 1059235907
            849477768 1476445440 -2112963507 255358347</internalNodes>
          <leafValues>
            -6.4441686868667603e-01 3.9617109298706055e-01</leafValues></_>
        <_>
          <internalNodes>
            0 -1 6 -93349941 -1305305205 -1911644197 -631447622
            234724833 -1502236576 186615275 -16792205</internalNodes>
          <leafValues>
            -4.1578391194343567e-01 6.3708829879760742e-01</leafValues></_>
        <_>
          <internalNodes>
            0 -1 59 -1995091725 -810532543 78101 1979790453 215552057
            -1400893336 -1731872721 -361689038</internalNodes>
          <leafValues>
            -5.2012908458709717e-01 4.9489614367485046e-01</leafValues></_>
        <_>
          <internalNodes>
            0 -1 2 -73215542 -618020380 1074991139 991248535 -247420786
            1627392142 -2117567841 51022538</internalNodes>
          <leafValues>
            -6.3674843311309814e-01 4.2853400111198425e-01</leafValues></_>
        <_>
          <internalNodes>
            0 -1 101 1262774719 689160320 276840822 -44951284 -510768499
            1879064645 310538397 -1231756666</internalNodes>
          <leafValues>
            -4.8728823661804199e-01 5.6477034091949463e-01</leafValues></_></weakClassifiers></_>
    <!-- stage 18 -->
    <_>
      <maxWeakCount>8</maxWeakCount>
      <stageThreshold>-1.0949738025665283e+00</stageThreshold>
      <weakClassifiers>
        <_>
          <internalNodes>
            0 -1 119 -39456768 363709723 -1946021888 -2138439670
            -991039155 632880 135463938 34547817</internalNodes>
          <leafValues>
            -5.7357358932495117e-01 4.6645620465278625e-01</leafValues></_>
        <_>
          <internalNodes>
            0 -1 28 -801741241 -720619096 1202679036 1604546145
            -731747322 1944207214 -1469142930 -1532311153</internalNodes>
          <leafValues>
            -4.3609881401062012e-01 4.9456521868705750e-01</leafValues></_>
        <_>
          <internalNodes>
            0 -1 138 268671224 -667877292 -1862227967 1573601281
            302211903 56329737 629443306 1498109065</internalNodes>
          <leafValues>
            -5.3342187404632568e-01 4.4978055357933044e-01</leafValues></_>
        <_>
          <internalNodes>
            0 -1 36 -1495531689 -2031440378 1995439922 -1107625616
            872210406 -939589707 -33557050 -1444154180</internalNodes>
          <leafValues>
            -4.4202932715415955e-01 5.3958725929260254e-01</leafValues></_>
        <_>
          <internalNodes>
            0 -1 88 1564044735 1434713903 -33671631 -600985799
            -454435634 -990023681 -259559026 -390603278</internalNodes>
          <leafValues>
            -3.5302612185478210e-01 6.7452412843704224e-01</leafValues></_>
        <_>
          <internalNodes>
            0 -1 141 -220753778 -107396746 1426596998 453083230
            -815406964 218103919 1241686671 269108143</internalNodes>
          <leafValues>
            -6.2919878959655762e-01 4.1941380500793457e-01</leafValues></_>
        <_>
          <internalNodes>
            0 -1 142 67324090 -1630272022 528749591 1610625601
            -2003031653 -1719131992 765628064 -398486979</internalNodes>
          <leafValues>
            -5.3699886798858643e-01 4.9148249626159668e-01</leafValues></_>
        <_>
          <internalNodes>
            0 -1 7 -703971302 -1564412160 19940372 -1000279028
            -2013044675 -1439037176 67285212 -1417744360</internalNodes>
          <leafValues>
            -7.0344018936157227e-01 3.7755849957466125e-01</leafValues></_></weakClassifiers></_>
    <!-- stage 19 -->
    <_>
      <maxWeakCount>9</maxWeakCount>
      <stageThreshold>-7.1031594276428223e-01</stageThreshold>
      <weakClassifiers>
        <_>
          <internalNodes>
            0 -1 83 -947822460 1170015826 -926398424 -914148055
            -488202095 1157779458 -1403983120 1976426606</internalNodes>
          <leafValues>
            -5.5000001192092896e-01 4.8225805163383484e-01</leafValues></_>
        <_>
          <internalNodes>
            0 -1 111 -1472720647 991056220 -1862068921 -541972144
            839461339 -830037843 -1849622867 942148072</internalNodes>
          <leafValues>
            -6.1425125598907471e-01 3.6966061592102051e-01</leafValues></_>
        <_>
          <internalNodes>
            0 -1 17 -1170506469 2100440865 -1146466837 614111992
            -681621178 -805941336 237690153 -918970915</internalNodes>
          <leafValues>
            -4.3114787340164185e-01 5.3449523448944092e-01</leafValues></_>
        <_>
          <internalNodes>
            0 -1 76 -724197901 1344315570 -1860245177 -1601339261
            -1056922619 -1280276351 -1000273061 1185399433</internalNodes>
          <leafValues>
            -4.7006532549858093e-01 4.8927268385887146e-01</leafValues></_>
        <_>
          <internalNodes>
            0 -1 140 1924091439 -389071041 -419469699 -255983617
            -185037297 -51445897 -50794763 -89457409</internalNodes>
          <leafValues>
            -4.2350706458091736e-01 5.6911045312881470e-01</leafValues></_>
        <_>
          <internalNodes>
            0 -1 100 -1048627689 -530783706 -1063088124 -679091440
            1535570195 -1732214648 1239060561 -1320685568</internalNodes>
          <leafValues>
            -5.2824622392654419e-01 5.0025153160095215e-01</leafValues></_>
        <_>
          <internalNodes>
            0 -1 47 -1144666229 -221100793 1947022424 1587067091
            1486544126 1074307248 -1591549645 1239400969</internalNodes>
          <leafValues>
            -5.0594359636306763e-01 5.4585486650466919e-01</leafValues></_>
        <_>
          <internalNodes>
            0 -1 13 -1451289472 -1856912480 1342673340 1460158986
            839201698 1381548416 461511106 922420172</internalNodes>
          <leafValues>
            -6.8417543172836304e-01 3.9876863360404968e-01</leafValues></_>
        <_>
          <internalNodes>
            0 -1 56 -1096855621 1107820455 1258229001 2142688095
            1143242619 67304662 1439141628 1976359910</internalNodes>
          <leafValues>
            -4.7740980982780457e-01 5.8040887117385864e-01</leafValues></_></weakClassifiers></_></stages>
  <features>
    <_>
      <rect>
        0 0 23 12</rect></_>
    <_>
      <rect>
        2 2 22 12</rect></_>
    <_>
      <rect>
        3 1 25 11</rect></_>
    <_>
      <rect>
        4 2 25 11</rect></_>
    <_>
      <rect>
        4 10 25 10</rect></_>
    <_>
      <rect>
        5 12 21 6</rect></_>
    <_>
      <rect>
        7 7 18 7</rect></_>
    <_>
      <rect>
        7 12 20 9</rect></_>
    <_>
      <rect>
        9 11 20 8</rect></_>
    <_>
      <rect>
        9 15 19 6</rect></_>
    <_>
      <rect>
        11 5 17 9</rect></_>
    <_>
      <rect>
        11 7 23 11</rect></_>
    <_>
      <rect>
        12 10 4 5</rect></_>
    <_>
      <rect>
        12 13 4 3</rect></_>
    <_>
      <rect>
        13 5 11 5</rect></_>
    <_>
      <rect>
        13 18 15 4</rect></_>
    <_>
      <rect>
        14 8 16 8</rect></_>
    <_>
      <rect>
        15 6 12 5</rect></_>
    <_>
      <rect>
        16 12 14 6</rect></_>
    <_>
      <rect>
        17 8 21 8</rect></_>
    <_>
      <rect>
        17 9 8 5</rect></_>
    <_>
      <rect>
        18 7 19 8</rect></_>
    <_>
      <rect>
        18 9 17 7</rect></_>
    <_>
      <rect>
        18 14 13 5</rect></_>
    <_>
      <rect>
        18 14 14 5</rect></_>
    <_>
      <rect>
        18 16 7 4</rect></_>
    <_>
      <rect>
        18 17 8 4</rect></_>
    <_>
      <rect>
        19 9 15 7</rect></_>
    <_>
      <rect>
        19 20 4 4</rect></_>
    <_>
      <rect>
        20 0 9 10</rect></_>
    <_>
      <rect>
        20 4 14 10</rect></_>
    <_>
      <rect>
        20 7 16 7</rect></_>
    <_>
      <rect>
        21 5 8 4</rect></_>
    <_>
      <rect>
        21 14 7 5</rect></_>
    <_>
      <rect>
        22 25 9 4</rect></_>
    <_>
      <rect>
        23 11 11 5</rect></_>
    <_>
      <rect>
        23 15 1 1</rect></_>
    <_>
      <rect>
        24 15 12 4</rect></_>
    <_>
      <rect>
        24 27 3 2</rect></_>
    <_>
      <rect>
        25 6 6 4</rect></_>
    <_>
      <rect>
        25 9 7 10</rect></_>
    <_>
      <rect>
        25 11 7 3</rect></_>
    <_>
      <rect>
        25 15 8 5</rect></_>
    <_>
      <rect>
        26 10 6 7</rect></_>
    <_>
      <rect>
        26 13 6 5</rect></_>
    <_>
      <rect>
        27 8 6 6</rect></_>
    <_>
      <rect>
        27 14 6 4</rect></_>
    <_>
      <rect>
        27 14 8 5</rect></_>
    <_>
      <rect>
        27 25 9 5</rect></_>
    <_>
      <rect>
        28 19 6 5</rect></_>
    <_>
      <rect>
        28 21 4 5</rect></_>
    <_>
      <rect>
        28 22 12 6</rect></_>
    <_>
      <rect>
        29 9 4 2</rect></_>
    <_>
      <rect>
        29 12 5 6</rect></_>
    <_>
      <rect>
        29 12 6 5</rect></_>
    <_>
      <rect>
        29 17 5 3</rect></_>
    <_>
      <rect>
        29 18 6 5</rect></_>
    <_>
      <rect>
        30 4 8 4</rect></_>
    <_>
      <rect>
        30 6 10 6</rect></_>
    <_>
      <rect>
        30 8 10 5</rect></_>
    <_>
      <rect>
        30 15 5 5</rect></_>
    <_>
      <rect>
        31 0 6 6</rect></_>
    <_>
      <rect>
        31 7 9 6</rect></_>
    <_>
      <rect>
        31 10 9 2</rect></_>
    <_>
      <rect>
        31 16 4 5</rect></_>
    <_>
      <rect>
        31 16 6 6</rect></_>
    <_>
      <rect>
        31 17 4 5</rect></_>
    <_>
      <rect>
        31 19 3 3</rect></_>
    <_>
      <rect>
        31 19 4 3</rect></_>
    <_>
      <rect>
        32 0 6 5</rect></_>
    <_>
      <rect>
        32 6 5 3</rect></_>
    <_>
      <rect>
        32 10 8 2</rect></_>
    <_>
      <rect>
        32 11 6 3</rect></_>
    <_>
      <rect>
        32 12 7 6</rect></_>
    <_>
      <rect>
        32 15 3 5</rect></_>
    <_>
      <rect>
        32 17 3 4</rect></_>
    <_>
      <rect>
        32 20 4 3</rect></_>
    <_>
      <rect>
        33 7 7 3</rect></_>
    <_>
      <rect>
        33 14 4 4</rect></_>
    <_>
      <rect>
        33 18 3 4</rect></_>
    <_>
      <rect>
        33 20 3 3</rect></_>
    <_>
      <rect>
        34 10 12 3</rect></_>
    <_>
      <rect>
        34 11 4 6</rect></_>
    <_>
      <rect>
        34 19 5 2</rect></_>
    <_>
      <rect>
        35 11 3 4</rect></_>
    <_>
      <rect>
        35 11 5 2</rect></_>
    <_>
      <rect>
        35 13 5 5</rect></_>
    <_>
      <rect>
        35 18 5 2</rect></_>
    <_>
      <rect>
        35 20 2 2</rect></_>
    <_>
      <rect>
        35 20 9 5</rect></_>
    <_>
      <rect>
        36 7 4 2</rect></_>
    <_>
      <rect>
        36 8 2 2</rect></_>
    <_>
      <rect>
        36 9 3 4</rect></_>
    <_>
      <rect>
        36 15 3 2</rect></_>
    <_>
      <rect>
        36 15 4 3</rect></_>
    <_>
      <rect>
        36 18 2 1</rect></_>
    <_>
      <rect>
        36 19 9 4</rect></_>
    <_>
      <rect>
        37 0 5 6</rect></_>
    <_>
      <rect>
        37 7 1 1</rect></_>
    <_>
      <rect>
        37 11 5 2</rect></_>
    <_>
      <rect>
        37 17 1 1</rect></_>
    <_>
      <rect>
        37 20 2 1</rect></_>
    <_>
      <rect>
        37 20 2 2</rect></_>
    <_>
      <rect>
        38 10 5 2</rect></_>
    <_>
      <rect>
        38 12 3 4</rect></_>
    <_>
      <rect>
        38 14 8 4</rect></_>
    <_>
      <rect>
        38 16 4 4</rect></_>
    <_>
      <rect>
        38 18 1 1</rect></_>
    <_>
      <rect>
        38 19 1 1</rect></_>
    <_>
      <rect>
        38 19 2 3</rect></_>
    <_>
      <rect>
        38 20 8 3</rect></_>
    <_>
      <rect>
        39 5 2 2</rect></_>
    <_>
      <rect>
        39 7 3 2</rect></_>
    <_>
      <rect>
        39 14 11 5</rect></_>
    <_>
      <rect>
        39 15 3 4</rect></_>
    <_>
      <rect>
        39 18 3 4</rect></_>
    <_>
      <rect>
        39 19 3 3</rect></_>
    <_>
      <rect>
        39 24 6 3</rect></_>
    <_>
      <rect>
        40 19 1 1</rect></_>
    <_>
      <rect>
        40 19 2 2</rect></_>
    <_>
      <rect>
        40 25 4 2</rect></_>
    <_>
      <rect>
        41 14 4 4</rect></_>
    <_>
      <rect>
        41 16 4 4</rect></_>
    <_>
      <rect>
        41 16 5 2</rect></_>
    <_>
      <rect>
        41 17 4 3</rect></_>
    <_>
      <rect>
        41 19 2 3</rect></_>
    <_>
      <rect>
        41 20 3 2</rect></_>
    <_>
      <rect>
        42 9 2 1</rect></_>
    <_>
      <rect>
        42 16 2 3</rect></_>
    <_>
      <rect>
        42 18 4 5</rect></_>
    <_>
      <rect>
        42 20 2 2</rect></_>
    <_>
      <rect>
        42 26 4 2</rect></_>
    <_>
      <rect>
        43 6 6 7</rect></_>
    <_>
      <rect>
        43 9 6 6</rect></_>
    <_>
      <rect>
        43 15 3 3</rect></_>
    <_>
      <rect>
        43 15 4 2</rect></_>
    <_>
      <rect>
        43 16 3 3</rect></_>
    <_>
      <rect>
        43 17 4 2</rect></_>
    <_>
      <rect>
        43 24 5 3</rect></_>
    <_>
      <rect>
        45 13 3 2</rect></_>
    <_>
      <rect>
        45 18 1 1</rect></_>
    <_>
      <rect>
        46 17 4 3</rect></_>
    <_>
      <rect>
        56 17 6 4</rect></_></features></cascade>
</opencv_storage>
