<?xml version="1.0"?>
<opencv_storage>
<stage8>
  <maxWeakCount>7</maxWeakCount>
  <stageThreshold>-1.4589204788208008e+00</stageThreshold>
  <weakClassifiers>
    <_>
      <internalNodes>
        0 -1 113391 -1938280562 290319916 1408080634 1368391613
        -1110843845 1415309006 -583155814 1431174713</internalNodes>
      <leafValues>
        -4.8471614718437195e-01 5.4465848207473755e-01</leafValues></_>
    <_>
      <internalNodes>
        0 -1 193221 -1363648939 -268607748 -1074282505 -69239303
        -1188628806 -269025539 -1976381763 -1087220351</internalNodes>
      <leafValues>
        -4.3788501620292664e-01 5.5953961610794067e-01</leafValues></_>
    <_>
      <internalNodes>
        0 -1 209121 -1861171798 1599275008 17891424 1434910865 807033023
        1696716939 243375 2093994413</internalNodes>
      <leafValues>
        -5.7706123590469360e-01 4.5116233825683594e-01</leafValues></_>
    <_>
      <internalNodes>
        0 -1 211771 331809476 -545978278 590024 2063697927 1216788430
        131338 1212278927 -481297970</internalNodes>
      <leafValues>
        -6.0130268335342407e-01 4.2910775542259216e-01</leafValues></_>
    <_>
      <internalNodes>
        0 -1 162484 62606903 -1148507648 875754335 1483931589 1244428474
        -1402065344 1155718399 -107291708</internalNodes>
      <leafValues>
        -4.6041890978813171e-01 6.2697857618331909e-01</leafValues></_>
    <_>
      <internalNodes>
        0 -1 106799 834386905 1507303959 -1610563535 -2092657662
        -1606371954 -1727442942 -1836521461 57131685</internalNodes>
      <leafValues>
        -5.7095968723297119e-01 5.1100713014602661e-01</leafValues></_>
    <_>
      <internalNodes>
        0 -1 193090 -1247030021 2012962936 -614469795 1510628477
        304278691 -8915418 278305279 -636756839</internalNodes>
      <leafValues>
        -4.4219785928726196e-01 6.5627044439315796e-01</leafValues></_></weakClassifiers></stage8>
</opencv_storage>
