<?xml version="1.0"?>
<opencv_storage>
<stage16>
  <maxWeakCount>7</maxWeakCount>
  <stageThreshold>-6.4382666349411011e-01</stageThreshold>
  <weakClassifiers>
    <_>
      <internalNodes>
        0 -1 201057 -2134597595 1130797053 -126028041 -419956937
        -1787838761 2053680831 -1821508643 1430357823</internalNodes>
      <leafValues>
        -3.9637827873229980e-01 5.4125112295150757e-01</leafValues></_>
    <_>
      <internalNodes>
        0 -1 165096 -1617856293 -1012703920 -1679853569 2137735253
        -1910324549 -834970404 305854203 -49839916</internalNodes>
      <leafValues>
        -3.6294367909431458e-01 5.7242596149444580e-01</leafValues></_>
    <_>
      <internalNodes>
        0 -1 211563 929002638 1563685202 -972983080 2139212648
        -429271928 -1023176284 1648394410 2072931019</internalNodes>
      <leafValues>
        -5.4145210981369019e-01 4.1889804601669312e-01</leafValues></_>
    <_>
      <internalNodes>
        0 -1 214210 -2052959689 -1654958832 1342187285 1376879917
        -1341976501 -567766912 -1475427460 -1093098363</internalNodes>
      <leafValues>
        -4.4077298045158386e-01 5.1312881708145142e-01</leafValues></_>
    <_>
      <internalNodes>
        0 -1 117426 -290194306 -39166689 -330539300 -956080136 254446299
        -1149558965 -827666534 -310685766</internalNodes>
      <leafValues>
        -4.6638053655624390e-01 5.4589962959289551e-01</leafValues></_>
    <_>
      <internalNodes>
        0 -1 201539 887080450 822200468 2030580737 -1765609416
        -1827962173 278596045 68918091 101370251</internalNodes>
      <leafValues>
        -7.0313239097595215e-01 3.7006333470344543e-01</leafValues></_>
    <_>
      <internalNodes>
        0 -1 215713 -1459576328 -1962309552 115079 1469612092
        -2137477653 405029028 327385144 536824317</internalNodes>
      <leafValues>
        -6.4302641153335571e-01 3.9630967378616333e-01</leafValues></_></weakClassifiers></stage16>
</opencv_storage>
