<?xml version="1.0"?>
<opencv_storage>
<stage1>
  <maxWeakCount>6</maxWeakCount>
  <stageThreshold>-1.1348611116409302e+00</stageThreshold>
  <weakClassifiers>
    <_>
      <internalNodes>
        0 -1 157067 -15497718 1564574858 -805289968 895570432 1082818696
        -820993780 1346558408 1239007951</internalNodes>
      <leafValues>
        -6.9058293104171753e-01 6.1351817846298218e-01</leafValues></_>
    <_>
      <internalNodes>
        0 -1 173297 -1544334351 -638361327 2004451327 -615154313
        -1950835784 -8668643 -2025479285 -27839645</internalNodes>
      <leafValues>
        -4.7462788224220276e-01 7.2570884227752686e-01</leafValues></_>
    <_>
      <internalNodes>
        0 -1 122231 -1466347312 -645910496 1430376665 1392579697
        -1577023334 970719266 -1993797701 1528547887</internalNodes>
      <leafValues>
        -5.9603083133697510e-01 6.0367769002914429e-01</leafValues></_>
    <_>
      <internalNodes>
        0 -1 211871 -716913174 -717094902 1073742860 1393037320
        -1820306294 -1818230776 1619053135 -165686645</internalNodes>
      <leafValues>
        -6.1230653524398804e-01 5.7437044382095337e-01</leafValues></_>
    <_>
      <internalNodes>
        0 -1 204860 -90079533 -80386000 -1904280005 305553276 137856168
        -1700333699 112521181 -1106577921</internalNodes>
      <leafValues>
        -5.2428221702575684e-01 7.1892440319061279e-01</leafValues></_>
    <_>
      <internalNodes>
        0 -1 148020 -203980790 1955009024 269306897 893477251 -939335286
        -930987996 2022820232 2022297762</internalNodes>
      <leafValues>
        -6.8469667434692383e-01 5.7629239559173584e-01</leafValues></_></weakClassifiers></stage1>
</opencv_storage>
