<?xml version="1.0"?>
<opencv_storage>
<stage13>
  <maxWeakCount>9</maxWeakCount>
  <stageThreshold>-7.3132127523422241e-01</stageThreshold>
  <weakClassifiers>
    <_>
      <internalNodes>
        0 -1 182487 47338240 -908995581 -196534270 1757487186 1097456775
        211894512 1476677714 1802203715</internalNodes>
      <leafValues>
        -6.5584415197372437e-01 4.6594426035881042e-01</leafValues></_>
    <_>
      <internalNodes>
        0 -1 177234 -1173139246 1360740352 -1991442177 269749145
        -1300069696 -83836807 134250648 455754189</internalNodes>
      <leafValues>
        -6.5072768926620483e-01 3.4332084655761719e-01</leafValues></_>
    <_>
      <internalNodes>
        0 -1 174701 -1864905761 -948623561 -889518055 1308044837
        -261673721 -2077982921 1145521251 -406331913</internalNodes>
      <leafValues>
        -4.0240168571472168e-01 6.0666221380233765e-01</leafValues></_>
    <_>
      <internalNodes>
        0 -1 72644 -987934340 -165836656 -1444130412 1438503368
        -1597317906 13177756 -1325161777 447447490</internalNodes>
      <leafValues>
        -5.3492259979248047e-01 4.5768207311630249e-01</leafValues></_>
    <_>
      <internalNodes>
        0 -1 113128 -1111194611 -644874138 1073776920 487086147
        -1961321831 -379584511 -1098851649 -102211363</internalNodes>
      <leafValues>
        -4.9306946992874146e-01 5.1624995470046997e-01</leafValues></_>
    <_>
      <internalNodes>
        0 -1 174916 -549503101 1462435408 1087195228 -341438738
        -186389200 1699102485 541999997 -216531105</internalNodes>
      <leafValues>
        -4.8721608519554138e-01 5.2935177087783813e-01</leafValues></_>
    <_>
      <internalNodes>
        0 -1 144621 -1031666614 -68091901 9440277 1408960832 285214832
        939524112 1761773903 992100397</internalNodes>
      <leafValues>
        -6.1454653739929199e-01 4.3430098891258240e-01</leafValues></_>
    <_>
      <internalNodes>
        0 -1 128520 -1871344469 1362476553 455271226 -576472950
        -956441365 -620566798 -105316887 -814259029</internalNodes>
      <leafValues>
        -5.2855229377746582e-01 5.5170810222625732e-01</leafValues></_>
    <_>
      <internalNodes>
        0 -1 193373 -600619513 -587126507 -1991159536 -636895158
        1090699401 -402358125 -939220861 -1574731005</internalNodes>
      <leafValues>
        -5.1339530944824219e-01 5.3006708621978760e-01</leafValues></_></weakClassifiers></stage13>
</opencv_storage>
