<?xml version="1.0"?>
<opencv_storage>
<stage0>
  <maxWeakCount>5</maxWeakCount>
  <stageThreshold>-8.7687820196151733e-01</stageThreshold>
  <weakClassifiers>
    <_>
      <internalNodes>
        0 -1 151886 285712522 1427739906 1359102016 1560477960 269058218
        -913686327 1073905706 -176176497</internalNodes>
      <leafValues>
        -7.3469388484954834e-01 6.8468469381332397e-01</leafValues></_>
    <_>
      <internalNodes>
        0 -1 178223 1537395278 1897521351 406888531 1564563859 276897999
        1484849153 1342391951 1998540939</internalNodes>
      <leafValues>
        -6.6369336843490601e-01 6.0745310783386230e-01</leafValues></_>
    <_>
      <internalNodes>
        0 -1 212134 -607456630 -1861627888 4296832 1426276355 -905408373
        1090650120 310941835 520868767</internalNodes>
      <leafValues>
        -6.5745002031326294e-01 5.9370827674865723e-01</leafValues></_>
    <_>
      <internalNodes>
        0 -1 61553 -1610559808 -653066229 1207992448 1363152992
        -2138996198 -1442181070 -2113355057 -1754295917</internalNodes>
      <leafValues>
        -6.7361956834793091e-01 5.8129847049713135e-01</leafValues></_>
    <_>
      <internalNodes>
        0 -1 205286 -1201670429 1896941576 268517377 -2024695296
        1091145931 659456 -1065121377 1629969039</internalNodes>
      <leafValues>
        -6.5349769592285156e-01 6.4204466342926025e-01</leafValues></_></weakClassifiers></stage0>
</opencv_storage>
