<?xml version="1.0"?>
<opencv_storage>
<stage9>
  <maxWeakCount>7</maxWeakCount>
  <stageThreshold>-5.9553658962249756e-01</stageThreshold>
  <weakClassifiers>
    <_>
      <internalNodes>
        0 -1 297 -156579638 -101986206 -1343333393 -1619716611
        -1698713306 -148689037 456261375 858870905</internalNodes>
      <leafValues>
        -3.9194139838218689e-01 5.8254271745681763e-01</leafValues></_>
    <_>
      <internalNodes>
        0 -1 178067 -2119143293 -921059311 -2130643519 -786316783
        -1710714141 -1803020156 268665051 -148127330</internalNodes>
      <leafValues>
        -4.8268115520477295e-01 5.1822185516357422e-01</leafValues></_>
    <_>
      <internalNodes>
        0 -1 196696 -1175036552 -42083085 -1074861190 -537309260
        -1610871574 -1628127617 -1111949893 -1612147219</internalNodes>
      <leafValues>
        -4.1743314266204834e-01 5.9330117702484131e-01</leafValues></_>
    <_>
      <internalNodes>
        0 -1 212039 -1662265146 -2134244062 -20989790 1374669890
        -827808540 258741800 1077089091 -1013197125</internalNodes>
      <leafValues>
        -5.0613462924957275e-01 5.3909200429916382e-01</leafValues></_>
    <_>
      <internalNodes>
        0 -1 106722 1149853898 -1732365182 -1853828543 1902053635
        -1037499154 246063108 -1298658610 161599721</internalNodes>
      <leafValues>
        -6.4430022239685059e-01 4.2743194103240967e-01</leafValues></_>
    <_>
      <internalNodes>
        0 -1 215161 -1789136200 -11157306 117634088 1529561179 553773773
        -2143256560 1074326155 1399443011</internalNodes>
      <leafValues>
        -5.6899970769882202e-01 5.0010335445404053e-01</leafValues></_>
    <_>
      <internalNodes>
        0 -1 146452 -1739964157 -251576048 -2129620781 1565073412
        -669464469 -1198833653 -2009028360 -656715667</internalNodes>
      <leafValues>
        -6.0466009378433228e-01 5.1512247323989868e-01</leafValues></_></weakClassifiers></stage9>
</opencv_storage>
