<?xml version="1.0"?>
<opencv_storage>
<stage5>
  <maxWeakCount>7</maxWeakCount>
  <stageThreshold>-6.5524113178253174e-01</stageThreshold>
  <weakClassifiers>
    <_>
      <internalNodes>
        0 -1 194146 -933058016 -159366705 -1295875181 933333267
        -1493098307 1410390032 29426827 855708451</internalNodes>
      <leafValues>
        -7.4592834711074829e-01 4.8646557331085205e-01</leafValues></_>
    <_>
      <internalNodes>
        0 -1 171930 -1809624107 -105939561 -5283905 -1279103778
        -134418946 -40962 -88409681 -351791187</internalNodes>
      <leafValues>
        -4.1664332151412964e-01 6.4351642131805420e-01</leafValues></_>
    <_>
      <internalNodes>
        0 -1 165599 1551362560 1615065419 294158976 1015927088
        1077539398 847822917 1101423782 -135269690</internalNodes>
      <leafValues>
        -6.7471700906753540e-01 4.1315233707427979e-01</leafValues></_>
    <_>
      <internalNodes>
        0 -1 203915 -2080370437 2064715984 29459737 1477263629 545435787
        -617533248 940622521 -1087241315</internalNodes>
      <leafValues>
        -5.2362525463104248e-01 5.5031138658523560e-01</leafValues></_>
    <_>
      <internalNodes>
        0 -1 111865 -644624129 1561023992 2120740681 822173057
        -1462205989 -1089480306 -1718884786 -827620945</internalNodes>
      <leafValues>
        -3.8907650113105774e-01 7.6601511240005493e-01</leafValues></_>
    <_>
      <internalNodes>
        0 -1 83638 -2104668131 -2020113375 93643151 1037932677
        1271433497 -386793464 976894880 1003258904</internalNodes>
      <leafValues>
        -5.6544423103332520e-01 5.2415043115615845e-01</leafValues></_>
    <_>
      <internalNodes>
        0 -1 113552 1381891343 -786690943 335728907 1963917604
        -953862422 -661041151 -528367366 293329546</internalNodes>
      <leafValues>
        -5.7743024826049805e-01 5.4299890995025635e-01</leafValues></_></weakClassifiers></stage5>
</opencv_storage>
