<?xml version="1.0"?>
<opencv_storage>
<stage2>
  <maxWeakCount>5</maxWeakCount>
  <stageThreshold>-4.5001393556594849e-01</stageThreshold>
  <weakClassifiers>
    <_>
      <internalNodes>
        0 -1 27728 -1851599672 -1715839864 -1465978641 1427840867
        -1281129816 286998904 522558943 456875547</internalNodes>
      <leafValues>
        -5.5087721347808838e-01 6.9320386648178101e-01</leafValues></_>
    <_>
      <internalNodes>
        0 -1 156110 -1836120958 -678363136 -654163885 -149876584
        555745451 -1880555373 -2012706673 -1077180273</internalNodes>
      <leafValues>
        -6.2549006938934326e-01 6.0423529148101807e-01</leafValues></_>
    <_>
      <internalNodes>
        0 -1 182942 -227029061 149991971 1325088515 -671930607
        -1001976672 -806040267 2425857 -557848705</internalNodes>
      <leafValues>
        -5.7482093572616577e-01 6.3859850168228149e-01</leafValues></_>
    <_>
      <internalNodes>
        0 -1 168587 -1298701570 -100792192 858418039 874600053
        -1188791298 -9498356 321117596 -885370664</internalNodes>
      <leafValues>
        -6.1483120918273926e-01 6.3877356052398682e-01</leafValues></_>
    <_>
      <internalNodes>
        0 -1 72070 -106177250 -829420 -1125232649 -144093943 -1440006002
        -1145167752 462839757 -608186149</internalNodes>
      <leafValues>
        -5.2713936567306519e-01 7.6890051364898682e-01</leafValues></_></weakClassifiers></stage2>
</opencv_storage>
