<?xml version="1.0"?>
<opencv_storage>
<stage17>
  <maxWeakCount>8</maxWeakCount>
  <stageThreshold>-1.1655211448669434e+00</stageThreshold>
  <weakClassifiers>
    <_>
      <internalNodes>
        0 -1 201820 779607471 543883222 -1090549293 2048270271
        2121209716 1082130229 123684211 -217612368</internalNodes>
      <leafValues>
        -4.4690266251564026e-01 5.2439022064208984e-01</leafValues></_>
    <_>
      <internalNodes>
        0 -1 194449 -1607253114 540676489 -1659829762 -16186944 553135
        939788418 344662788 -712261497</internalNodes>
      <leafValues>
        -5.5439990758895874e-01 3.8530579209327698e-01</leafValues></_>
    <_>
      <internalNodes>
        0 -1 181508 -1719444902 -786628608 631344413 2117153355
        -2147306886 -1606967158 1610619599 -1155869987</internalNodes>
      <leafValues>
        -4.9220436811447144e-01 4.5724830031394958e-01</leafValues></_>
    <_>
      <internalNodes>
        0 -1 162333 -32615692 -1215495978 -1073068468 1059235907
        849477768 1476445440 -2112963507 255358347</internalNodes>
      <leafValues>
        -6.4441686868667603e-01 3.9617109298706055e-01</leafValues></_>
    <_>
      <internalNodes>
        0 -1 48229 -93349941 -1305305205 -1911644197 -631447622
        234724833 -1502236576 186615275 -16792205</internalNodes>
      <leafValues>
        -4.1578391194343567e-01 6.3708829879760742e-01</leafValues></_>
    <_>
      <internalNodes>
        0 -1 169314 -1995091725 -810532543 78101 1979790453 215552057
        -1400893336 -1731872721 -361689038</internalNodes>
      <leafValues>
        -5.2012908458709717e-01 4.9489614367485046e-01</leafValues></_>
    <_>
      <internalNodes>
        0 -1 20927 -73215542 -618020380 1074991139 991248535 -247420786
        1627392142 -2117567841 51022538</internalNodes>
      <leafValues>
        -6.3674843311309814e-01 4.2853400111198425e-01</leafValues></_>
    <_>
      <internalNodes>
        0 -1 198284 1262774719 689160320 276840822 -44951284 -510768499
        1879064645 310538397 -1231756666</internalNodes>
      <leafValues>
        -4.8728823661804199e-01 5.6477034091949463e-01</leafValues></_></weakClassifiers></stage17>
</opencv_storage>
