<?xml version="1.0"?>
<opencv_storage>
<stage10>
  <maxWeakCount>7</maxWeakCount>
  <stageThreshold>-6.2577033042907715e-01</stageThreshold>
  <weakClassifiers>
    <_>
      <internalNodes>
        0 -1 201820 -1359491925 1793785846 -16827149 -218202244
        2121211703 1082130357 131559795 -145883212</internalNodes>
      <leafValues>
        -4.2314991354942322e-01 5.8061510324478149e-01</leafValues></_>
    <_>
      <internalNodes>
        0 -1 204899 -648678654 1384812577 -1221468769 -1867254
        -654137161 -1441625973 -1039417139 1087079050</internalNodes>
      <leafValues>
        -4.9508827924728394e-01 4.9254706501960754e-01</leafValues></_>
    <_>
      <internalNodes>
        0 -1 218005 -686862142 1602289871 -670366838 -749404005
        1711283119 1520042502 1409391498 -750059121</internalNodes>
      <leafValues>
        -5.0349903106689453e-01 4.8927119374275208e-01</leafValues></_>
    <_>
      <internalNodes>
        0 -1 170296 -203455741 1918235278 -1006446319 -954744669
        -934612474 2232448 -945065617 -1421155333</internalNodes>
      <leafValues>
        -4.8141643404960632e-01 5.1667666435241699e-01</leafValues></_>
    <_>
      <internalNodes>
        0 -1 121545 -1683764020 -53018560 -2146171903 -665837416
        616614511 -1404027767 698499753 -1171580773</internalNodes>
      <leafValues>
        -6.3975721597671509e-01 4.1758850216865540e-01</leafValues></_>
    <_>
      <internalNodes>
        0 -1 86287 -67270117 372501050 1801339593 1100437019 -1895897427
        -536877465 -459596146 -1911290801</internalNodes>
      <leafValues>
        -4.0453672409057617e-01 6.5516853332519531e-01</leafValues></_>
    <_>
      <internalNodes>
        0 -1 215311 -934815668 1153875202 1126416602 298549378
        1443079075 1157825153 -892886334 1459571523</internalNodes>
      <leafValues>
        -6.7295104265213013e-01 4.1271069645881653e-01</leafValues></_></weakClassifiers></stage10>
</opencv_storage>
