<?xml version="1.0"?>
<opencv_storage>
<stage4>
  <maxWeakCount>12</maxWeakCount>
  <stageThreshold>-7.9592388868331909e-01</stageThreshold>
  <weakClassifiers>
    <_>
      <internalNodes>
        0 -1 901825 -2.6952209882438183e-03</internalNodes>
      <leafValues>
        5.5833333730697632e-01 -2.1250000596046448e-01</leafValues></_>
    <_>
      <internalNodes>
        0 -1 591680 -9.1522373259067535e-03</internalNodes>
      <leafValues>
        2.9379570484161377e-01 -5.1491785049438477e-01</leafValues></_>
    <_>
      <internalNodes>
        0 -1 802329 4.6310764737427235e-03</internalNodes>
      <leafValues>
        1.2454940378665924e-01 -9.4015288352966309e-01</leafValues></_>
    <_>
      <internalNodes>
        0 -1 243485 -3.8520641624927521e-02</internalNodes>
      <leafValues>
        5.7054543495178223e-01 -2.5241458415985107e-01</leafValues></_>
    <_>
      <internalNodes>
        0 -1 150657 -7.9289168119430542e-02</internalNodes>
      <leafValues>
        6.8591773509979248e-01 -2.0018507540225983e-01</leafValues></_>
    <_>
      <internalNodes>
        0 -1 698176 3.3743395470082760e-03</internalNodes>
      <leafValues>
        2.0879508554935455e-01 -8.1178361177444458e-01</leafValues></_>
    <_>
      <internalNodes>
        0 -1 665856 -1.0020423680543900e-02</internalNodes>
      <leafValues>
        3.2364484667778015e-01 -4.0056103467941284e-01</leafValues></_>
    <_>
      <internalNodes>
        0 -1 543781 -3.7845525890588760e-02</internalNodes>
      <leafValues>
        6.6492187976837158e-01 -2.8471091389656067e-01</leafValues></_>
    <_>
      <internalNodes>
        0 -1 789396 -7.8993681818246841e-03</internalNodes>
      <leafValues>
        -7.5749212503433228e-01 2.2101020812988281e-01</leafValues></_>
    <_>
      <internalNodes>
        0 -1 696609 -2.9140705009922385e-04</internalNodes>
      <leafValues>
        -7.6996350288391113e-01 1.0972012579441071e-01</leafValues></_>
    <_>
      <internalNodes>
        0 -1 557621 4.9722315743565559e-03</internalNodes>
      <leafValues>
        1.2347769737243652e-01 -8.6317551136016846e-01</leafValues></_>
    <_>
      <internalNodes>
        0 -1 431930 8.7233781814575195e-03</internalNodes>
      <leafValues>
        -2.4688330292701721e-01 4.9367821216583252e-01</leafValues></_></weakClassifiers></stage4>
</opencv_storage>
