<?xml version="1.0"?>
<opencv_storage>
<cascade>
  <stageType>BOOST</stageType>
  <featureType>HAAR</featureType>
  <height>20</height>
  <width>20</width>
  <stageParams>
    <boostType>GAB</boostType>
    <minHitRate>9.9500000476837158e-01</minHitRate>
    <maxFalseAlarm>5.0000000000000000e-01</maxFalseAlarm>
    <weightTrimRate>9.4999999999999996e-01</weightTrimRate>
    <maxDepth>1</maxDepth>
    <maxWeakCount>100</maxWeakCount></stageParams>
  <featureParams>
    <maxCatCount>0</maxCatCount>
    <featSize>1</featSize>
    <mode>BASIC</mode></featureParams>
  <stageNum>9</stageNum>
  <stages>
    <!-- stage 0 -->
    <_>
      <maxWeakCount>4</maxWeakCount>
      <stageThreshold>-5.1024663448333740e-01</stageThreshold>
      <weakClassifiers>
        <_>
          <internalNodes>
            0 -1 6 -8.1068985164165497e-03</internalNodes>
          <leafValues>
            7.2712677717208862e-01 -8.8118809461593628e-01</leafValues></_>
        <_>
          <internalNodes>
            0 -1 9 -4.4021150097250938e-03</internalNodes>
          <leafValues>
            8.1857568025588989e-01 -5.0246751308441162e-01</leafValues></_>
        <_>
          <internalNodes>
            0 -1 25 1.3592950999736786e-03</internalNodes>
          <leafValues>
            -9.3097972869873047e-01 5.0084996223449707e-01</leafValues></_>
        <_>
          <internalNodes>
            0 -1 1 -3.3144098706543446e-03</internalNodes>
          <leafValues>
            3.7255901098251343e-01 -9.2532110214233398e-01</leafValues></_></weakClassifiers></_>
    <!-- stage 1 -->
    <_>
      <maxWeakCount>4</maxWeakCount>
      <stageThreshold>-6.4271116256713867e-01</stageThreshold>
      <weakClassifiers>
        <_>
          <internalNodes>
            0 -1 2 1.9454348832368851e-02</internalNodes>
          <leafValues>
            -4.5195728540420532e-01 8.0383795499801636e-01</leafValues></_>
        <_>
          <internalNodes>
            0 -1 16 -2.5583134265616536e-04</internalNodes>
          <leafValues>
            5.0245732069015503e-01 -8.5774397850036621e-01</leafValues></_>
        <_>
          <internalNodes>
            0 -1 13 2.6399956550449133e-04</internalNodes>
          <leafValues>
            3.4128138422966003e-01 -9.8322927951812744e-01</leafValues></_>
        <_>
          <internalNodes>
            0 -1 13 -3.8654432864859700e-04</internalNodes>
          <leafValues>
            -9.7877645492553711e-01 3.2570871710777283e-01</leafValues></_></weakClassifiers></_>
    <!-- stage 2 -->
    <_>
      <maxWeakCount>4</maxWeakCount>
      <stageThreshold>-5.9654647111892700e-01</stageThreshold>
      <weakClassifiers>
        <_>
          <internalNodes>
            0 -1 11 -3.4648990258574486e-03</internalNodes>
          <leafValues>
            7.9003179073333740e-01 -4.3985638022422791e-01</leafValues></_>
        <_>
          <internalNodes>
            0 -1 18 3.1583177042193711e-04</internalNodes>
          <leafValues>
            4.4458720088005066e-01 -9.3450677394866943e-01</leafValues></_>
        <_>
          <internalNodes>
            0 -1 18 -4.2376475175842643e-04</internalNodes>
          <leafValues>
            -8.9744859933853149e-01 3.5225853323936462e-01</leafValues></_>
        <_>
          <internalNodes>
            0 -1 0 -4.2691784910857677e-03</internalNodes>
          <leafValues>
            2.9617133736610413e-01 -8.9680778980255127e-01</leafValues></_></weakClassifiers></_>
    <!-- stage 3 -->
    <_>
      <maxWeakCount>4</maxWeakCount>
      <stageThreshold>-3.6714836955070496e-01</stageThreshold>
      <weakClassifiers>
        <_>
          <internalNodes>
            0 -1 20 -7.7771488577127457e-05</internalNodes>
          <leafValues>
            6.1733442544937134e-01 -9.2057764530181885e-01</leafValues></_>
        <_>
          <internalNodes>
            0 -1 3 2.2731855511665344e-02</internalNodes>
          <leafValues>
            -5.7526916265487671e-01 6.5330588817596436e-01</leafValues></_>
        <_>
          <internalNodes>
            0 -1 23 4.4908127165399492e-04</internalNodes>
          <leafValues>
            3.7434551119804382e-01 -9.3940186500549316e-01</leafValues></_>
        <_>
          <internalNodes>
            0 -1 8 7.9986779019236565e-03</internalNodes>
          <leafValues>
            -4.7422218322753906e-01 7.8177702426910400e-01</leafValues></_></weakClassifiers></_>
    <!-- stage 4 -->
    <_>
      <maxWeakCount>3</maxWeakCount>
      <stageThreshold>2.9435020685195923e-01</stageThreshold>
      <weakClassifiers>
        <_>
          <internalNodes>
            0 -1 26 9.0280722361057997e-05</internalNodes>
          <leafValues>
            -9.8206275701522827e-01 5.6303834915161133e-01</leafValues></_>
        <_>
          <internalNodes>
            0 -1 12 2.8789922362193465e-04</internalNodes>
          <leafValues>
            3.1675443053245544e-01 -8.8302481174468994e-01</leafValues></_>
        <_>
          <internalNodes>
            0 -1 27 -1.1776996776461601e-02</internalNodes>
          <leafValues>
            6.1433666944503784e-01 -5.4080283641815186e-01</leafValues></_></weakClassifiers></_>
    <!-- stage 5 -->
    <_>
      <maxWeakCount>4</maxWeakCount>
      <stageThreshold>-1.7813247442245483e-01</stageThreshold>
      <weakClassifiers>
        <_>
          <internalNodes>
            0 -1 14 -4.7709129285067320e-04</internalNodes>
          <leafValues>
            -9.5495498180389404e-01 5.5712050199508667e-01</leafValues></_>
        <_>
          <internalNodes>
            0 -1 24 3.0778860673308372e-04</internalNodes>
          <leafValues>
            -6.7262583971023560e-01 4.4702661037445068e-01</leafValues></_>
        <_>
          <internalNodes>
            0 -1 19 -1.7271835531573743e-04</internalNodes>
          <leafValues>
            4.6825113892555237e-01 -7.2408747673034668e-01</leafValues></_>
        <_>
          <internalNodes>
            0 -1 5 1.1804914101958275e-02</internalNodes>
          <leafValues>
            -4.5819211006164551e-01 6.9355547428131104e-01</leafValues></_></weakClassifiers></_>
    <!-- stage 6 -->
    <_>
      <maxWeakCount>3</maxWeakCount>
      <stageThreshold>-2.3550262674689293e-02</stageThreshold>
      <weakClassifiers>
        <_>
          <internalNodes>
            0 -1 17 -2.3649010108783841e-04</internalNodes>
          <leafValues>
            5.5121189355850220e-01 -9.2760181427001953e-01</leafValues></_>
        <_>
          <internalNodes>
            0 -1 10 -2.3369276896119118e-03</internalNodes>
          <leafValues>
            5.6388515233993530e-01 -5.6844955682754517e-01</leafValues></_>
        <_>
          <internalNodes>
            0 -1 4 -1.5163924545049667e-03</internalNodes>
          <leafValues>
            -9.6624499559402466e-01 3.4016638994216919e-01</leafValues></_></weakClassifiers></_>
    <!-- stage 7 -->
    <_>
      <maxWeakCount>4</maxWeakCount>
      <stageThreshold>-1.8838798999786377e-01</stageThreshold>
      <weakClassifiers>
        <_>
          <internalNodes>
            0 -1 4 -2.1839910914422944e-05</internalNodes>
          <leafValues>
            5.8380568027496338e-01 -8.3396226167678833e-01</leafValues></_>
        <_>
          <internalNodes>
            0 -1 28 -1.7948491731658578e-03</internalNodes>
          <leafValues>
            6.9554603099822998e-01 -4.8617824912071228e-01</leafValues></_>
        <_>
          <internalNodes>
            0 -1 15 -1.5813999925740063e-04</internalNodes>
          <leafValues>
            -7.9733651876449585e-01 3.9752221107482910e-01</leafValues></_>
        <_>
          <internalNodes>
            0 -1 7 3.1676518265157938e-03</internalNodes>
          <leafValues>
            -4.1585776209831238e-01 7.3423027992248535e-01</leafValues></_></weakClassifiers></_>
    <!-- stage 8 -->
    <_>
      <maxWeakCount>5</maxWeakCount>
      <stageThreshold>-3.1620490550994873e-01</stageThreshold>
      <weakClassifiers>
        <_>
          <internalNodes>
            0 -1 22 7.8704841143917292e-05</internalNodes>
          <leafValues>
            -1. 5.1515150070190430e-01</leafValues></_>
        <_>
          <internalNodes>
            0 -1 29 5.7846833951771259e-03</internalNodes>
          <leafValues>
            -3.8040664792060852e-01 6.8491113185882568e-01</leafValues></_>
        <_>
          <internalNodes>
            0 -1 21 6.2259654514491558e-03</internalNodes>
          <leafValues>
            4.7525143623352051e-01 -7.9647594690322876e-01</leafValues></_>
        <_>
          <internalNodes>
            0 -1 31 -2.0947863813489676e-03</internalNodes>
          <leafValues>
            7.3239922523498535e-01 -4.2540425062179565e-01</leafValues></_>
        <_>
          <internalNodes>
            0 -1 30 6.4741633832454681e-03</internalNodes>
          <leafValues>
            -3.8687306642532349e-01 7.8987610340118408e-01</leafValues></_></weakClassifiers></_></stages>
  <features>
    <_>
      <rects>
        <_>
          3 6 12 2 -1.</_>
        <_>
          7 6 4 2 3.</_></rects>
      <tilted>0</tilted></_>
    <_>
      <rects>
        <_>
          4 6 12 3 -1.</_>
        <_>
          8 6 4 3 3.</_></rects>
      <tilted>0</tilted></_>
    <_>
      <rects>
        <_>
          6 1 7 6 -1.</_>
        <_>
          6 3 7 2 3.</_></rects>
      <tilted>0</tilted></_>
    <_>
      <rects>
        <_>
          7 1 5 6 -1.</_>
        <_>
          7 3 5 2 3.</_></rects>
      <tilted>0</tilted></_>
    <_>
      <rects>
        <_>
          7 7 6 1 -1.</_>
        <_>
          9 7 2 1 3.</_></rects>
      <tilted>0</tilted></_>
    <_>
      <rects>
        <_>
          8 3 3 3 -1.</_>
        <_>
          8 4 3 1 3.</_></rects>
      <tilted>0</tilted></_>
    <_>
      <rects>
        <_>
          8 5 7 4 -1.</_>
        <_>
          8 7 7 2 2.</_></rects>
      <tilted>0</tilted></_>
    <_>
      <rects>
        <_>
          9 3 2 2 -1.</_>
        <_>
          9 4 2 1 2.</_></rects>
      <tilted>0</tilted></_>
    <_>
      <rects>
        <_>
          9 3 2 3 -1.</_>
        <_>
          9 4 2 1 3.</_></rects>
      <tilted>0</tilted></_>
    <_>
      <rects>
        <_>
          9 4 2 2 -1.</_>
        <_>
          9 5 2 1 2.</_></rects>
      <tilted>0</tilted></_>
    <_>
      <rects>
        <_>
          9 4 2 3 -1.</_>
        <_>
          9 5 2 1 3.</_></rects>
      <tilted>0</tilted></_>
    <_>
      <rects>
        <_>
          9 4 3 2 -1.</_>
        <_>
          9 5 3 1 2.</_></rects>
      <tilted>0</tilted></_>
    <_>
      <rects>
        <_>
          9 7 2 1 -1.</_>
        <_>
          10 7 1 1 2.</_></rects>
      <tilted>0</tilted></_>
    <_>
      <rects>
        <_>
          9 7 3 1 -1.</_>
        <_>
          10 7 1 1 3.</_></rects>
      <tilted>0</tilted></_>
    <_>
      <rects>
        <_>
          9 7 4 1 -1.</_>
        <_>
          11 7 2 1 2.</_></rects>
      <tilted>0</tilted></_>
    <_>
      <rects>
        <_>
          9 7 4 2 -1.</_>
        <_>
          9 7 2 1 2.</_>
        <_>
          11 8 2 1 2.</_></rects>
      <tilted>0</tilted></_>
    <_>
      <rects>
        <_>
          10 7 1 2 -1.</_>
        <_>
          10 8 1 1 2.</_></rects>
      <tilted>0</tilted></_>
    <_>
      <rects>
        <_>
          11 7 1 2 -1.</_>
        <_>
          11 8 1 1 2.</_></rects>
      <tilted>0</tilted></_>
    <_>
      <rects>
        <_>
          11 8 3 1 -1.</_>
        <_>
          12 8 1 1 3.</_></rects>
      <tilted>0</tilted></_>
    <_>
      <rects>
        <_>
          12 4 1 6 -1.</_>
        <_>
          12 6 1 2 3.</_></rects>
      <tilted>0</tilted></_>
    <_>
      <rects>
        <_>
          12 8 1 2 -1.</_>
        <_>
          12 9 1 1 2.</_></rects>
      <tilted>0</tilted></_>
    <_>
      <rects>
        <_>
          12 9 6 2 -1.</_>
        <_>
          15 9 3 2 2.</_></rects>
      <tilted>0</tilted></_>
    <_>
      <rects>
        <_>
          13 9 4 1 -1.</_>
        <_>
          15 9 2 1 2.</_></rects>
      <tilted>0</tilted></_>
    <_>
      <rects>
        <_>
          14 7 2 4 -1.</_>
        <_>
          14 7 1 2 2.</_>
        <_>
          15 9 1 2 2.</_></rects>
      <tilted>0</tilted></_>
    <_>
      <rects>
        <_>
          14 10 4 4 -1.</_>
        <_>
          14 10 2 2 2.</_>
        <_>
          16 12 2 2 2.</_></rects>
      <tilted>0</tilted></_>
    <_>
      <rects>
        <_>
          14 10 4 3 -1.</_>
        <_>
          16 10 2 3 2.</_></rects>
      <tilted>0</tilted></_>
    <_>
      <rects>
        <_>
          15 11 2 1 -1.</_>
        <_>
          16 11 1 1 2.</_></rects>
      <tilted>0</tilted></_>
    <_>
      <rects>
        <_>
          16 7 4 10 -1.</_>
        <_>
          16 7 2 5 2.</_>
        <_>
          18 12 2 5 2.</_></rects>
      <tilted>0</tilted></_>
    <_>
      <rects>
        <_>
          16 8 3 4 -1.</_>
        <_>
          17 8 1 4 3.</_></rects>
      <tilted>0</tilted></_>
    <_>
      <rects>
        <_>
          17 4 2 8 -1.</_>
        <_>
          17 4 1 4 2.</_>
        <_>
          18 8 1 4 2.</_></rects>
      <tilted>0</tilted></_>
    <_>
      <rects>
        <_>
          17 7 3 5 -1.</_>
        <_>
          18 7 1 5 3.</_></rects>
      <tilted>0</tilted></_>
    <_>
      <rects>
        <_>
          17 9 3 1 -1.</_>
        <_>
          18 9 1 1 3.</_></rects>
      <tilted>0</tilted></_></features></cascade>
</opencv_storage>
