<?xml version="1.0"?>
<opencv_storage>
<stage10>
  <maxWeakCount>10</maxWeakCount>
  <stageThreshold>-6.0806000232696533e-01</stageThreshold>
  <weakClassifiers>
    <_>
      <internalNodes>
        0 -1 73082 7.6702819205820560e-03</internalNodes>
      <leafValues>
        -6.7307695746421814e-02 6.7768597602844238e-01</leafValues></_>
    <_>
      <internalNodes>
        0 -1 34649 1.0656490921974182e-01</internalNodes>
      <leafValues>
        -4.2645752429962158e-01 4.0180322527885437e-01</leafValues></_>
    <_>
      <internalNodes>
        0 -1 75731 1.0242061689496040e-02</internalNodes>
      <leafValues>
        -2.9644972085952759e-01 5.2247834205627441e-01</leafValues></_>
    <_>
      <internalNodes>
        0 -1 63742 6.8212985992431641e-02</internalNodes>
      <leafValues>
        -3.5917896032333374e-01 4.3068453669548035e-01</leafValues></_>
    <_>
      <internalNodes>
        0 -1 65876 4.0190489962697029e-03</internalNodes>
      <leafValues>
        -2.9985138773918152e-01 6.7017489671707153e-01</leafValues></_>
    <_>
      <internalNodes>
        0 -1 46832 4.3949275277554989e-03</internalNodes>
      <leafValues>
        -5.4690772294998169e-01 3.2992199063301086e-01</leafValues></_>
    <_>
      <internalNodes>
        0 -1 56277 8.0651249736547470e-03</internalNodes>
      <leafValues>
        -2.6602673530578613e-01 5.9526556730270386e-01</leafValues></_>
    <_>
      <internalNodes>
        0 -1 19996 -6.5782945603132248e-03</internalNodes>
      <leafValues>
        7.5018191337585449e-01 -1.7918522655963898e-01</leafValues></_>
    <_>
      <internalNodes>
        0 -1 77519 1.9509179983288050e-03</internalNodes>
      <leafValues>
        -3.5648050904273987e-01 4.6710908412933350e-01</leafValues></_>
    <_>
      <internalNodes>
        0 -1 11744 -2.2406980860978365e-03</internalNodes>
      <leafValues>
        6.1900663375854492e-01 -2.2190140187740326e-01</leafValues></_></weakClassifiers></stage10>
</opencv_storage>
