<?xml version="1.0"?>
<opencv_storage>
<stage3>
  <maxWeakCount>5</maxWeakCount>
  <stageThreshold>-5.7762438058853149e-01</stageThreshold>
  <weakClassifiers>
    <_>
      <internalNodes>
        0 -1 41223 -7.8673146665096283e-02</internalNodes>
      <leafValues>
        7.5735294818878174e-01 -3.1460675597190857e-01</leafValues></_>
    <_>
      <internalNodes>
        0 -1 67348 2.3013185709714890e-02</internalNodes>
      <leafValues>
        -4.0356317162513733e-01 7.3583340644836426e-01</leafValues></_>
    <_>
      <internalNodes>
        0 -1 45521 2.0108878612518311e-02</internalNodes>
      <leafValues>
        -5.9109723567962646e-01 4.9966311454772949e-01</leafValues></_>
    <_>
      <internalNodes>
        0 -1 76283 -9.5146526291500777e-05</internalNodes>
      <leafValues>
        4.1349357366561890e-01 -7.0975834131240845e-01</leafValues></_>
    <_>
      <internalNodes>
        0 -1 9510 -4.1862510144710541e-02</internalNodes>
      <leafValues>
        3.5064077377319336e-01 -5.7241499423980713e-01</leafValues></_></weakClassifiers></stage3>
</opencv_storage>
