<?xml version="1.0"?>
<opencv_storage>
<stage5>
  <maxWeakCount>9</maxWeakCount>
  <stageThreshold>-4.3064159154891968e-01</stageThreshold>
  <weakClassifiers>
    <_>
      <internalNodes>
        0 -1 55200 2.7642799541354179e-02</internalNodes>
      <leafValues>
        -3.8461539149284363e-01 6.6775244474411011e-01</leafValues></_>
    <_>
      <internalNodes>
        0 -1 76214 4.7507779672741890e-03</internalNodes>
      <leafValues>
        -3.7959989905357361e-01 6.3350588083267212e-01</leafValues></_>
    <_>
      <internalNodes>
        0 -1 4452 2.6806291192770004e-02</internalNodes>
      <leafValues>
        -3.0706280469894409e-01 7.0144987106323242e-01</leafValues></_>
    <_>
      <internalNodes>
        0 -1 62902 9.3960940837860107e-02</internalNodes>
      <leafValues>
        -2.9357373714447021e-01 6.5822625160217285e-01</leafValues></_>
    <_>
      <internalNodes>
        0 -1 55727 1.6235215589404106e-03</internalNodes>
      <leafValues>
        -4.0967339277267456e-01 5.2985829114913940e-01</leafValues></_>
    <_>
      <internalNodes>
        0 -1 74933 -9.9898199550807476e-04</internalNodes>
      <leafValues>
        -6.0008454322814941e-01 3.0245870351791382e-01</leafValues></_>
    <_>
      <internalNodes>
        0 -1 60016 -1.5440800227224827e-02</internalNodes>
      <leafValues>
        5.8713233470916748e-01 -3.4437772631645203e-01</leafValues></_>
    <_>
      <internalNodes>
        0 -1 67512 -3.1212374567985535e-02</internalNodes>
      <leafValues>
        6.6811972856521606e-01 -2.8066185116767883e-01</leafValues></_>
    <_>
      <internalNodes>
        0 -1 69898 -1.6375582665205002e-02</internalNodes>
      <leafValues>
        8.2494723796844482e-01 -2.2184871137142181e-01</leafValues></_></weakClassifiers></stage5>
</opencv_storage>
