<?xml version="1.0"?>
<opencv_storage>
<stage6>
  <maxWeakCount>8</maxWeakCount>
  <stageThreshold>-7.6036155223846436e-01</stageThreshold>
  <weakClassifiers>
    <_>
      <internalNodes>
        0 -1 76171 -8.3511294797062874e-03</internalNodes>
      <leafValues>
        5.8235293626785278e-01 -4.3636363744735718e-01</leafValues></_>
    <_>
      <internalNodes>
        0 -1 2337 1.1521039530634880e-02</internalNodes>
      <leafValues>
        -5.1647418737411499e-01 4.1398829221725464e-01</leafValues></_>
    <_>
      <internalNodes>
        0 -1 12612 1.0078087449073792e-02</internalNodes>
      <leafValues>
        -2.4744448065757751e-01 7.8337889909744263e-01</leafValues></_>
    <_>
      <internalNodes>
        0 -1 62668 3.5924911499023438e-02</internalNodes>
      <leafValues>
        -2.9306113719940186e-01 6.2794679403305054e-01</leafValues></_>
    <_>
      <internalNodes>
        0 -1 70215 4.1751712560653687e-02</internalNodes>
      <leafValues>
        -2.9921182990074158e-01 6.2769544124603271e-01</leafValues></_>
    <_>
      <internalNodes>
        0 -1 72348 1.7187029123306274e-02</internalNodes>
      <leafValues>
        2.1129681169986725e-01 -6.9542449712753296e-01</leafValues></_>
    <_>
      <internalNodes>
        0 -1 56290 4.9275206401944160e-03</internalNodes>
      <leafValues>
        -3.5954436659812927e-01 4.2005416750907898e-01</leafValues></_>
    <_>
      <internalNodes>
        0 -1 76156 -4.1073230095207691e-03</internalNodes>
      <leafValues>
        -1. 1.6172470152378082e-01</leafValues></_></weakClassifiers></stage6>
</opencv_storage>
