<?xml version="1.0"?>
<opencv_storage>
<stage7>
  <maxWeakCount>10</maxWeakCount>
  <stageThreshold>-6.4557862281799316e-01</stageThreshold>
  <weakClassifiers>
    <_>
      <internalNodes>
        0 -1 51858 2.2482662461698055e-03</internalNodes>
      <leafValues>
        -3.8181817531585693e-01 5.6470590829849243e-01</leafValues></_>
    <_>
      <internalNodes>
        0 -1 50545 2.1812357008457184e-03</internalNodes>
      <leafValues>
        -3.0261987447738647e-01 5.6959635019302368e-01</leafValues></_>
    <_>
      <internalNodes>
        0 -1 4914 3.9167612791061401e-02</internalNodes>
      <leafValues>
        -2.1290285885334015e-01 7.7137762308120728e-01</leafValues></_>
    <_>
      <internalNodes>
        0 -1 63222 -3.5730995237827301e-02</internalNodes>
      <leafValues>
        4.6368047595024109e-01 -3.6786550283432007e-01</leafValues></_>
    <_>
      <internalNodes>
        0 -1 30184 4.8895955085754395e-02</internalNodes>
      <leafValues>
        -2.2629193961620331e-01 7.1848124265670776e-01</leafValues></_>
    <_>
      <internalNodes>
        0 -1 76067 -1.9197503570467234e-03</internalNodes>
      <leafValues>
        -6.7064231634140015e-01 2.7677825093269348e-01</leafValues></_>
    <_>
      <internalNodes>
        0 -1 50340 3.1823486089706421e-02</internalNodes>
      <leafValues>
        -4.4833347201347351e-01 3.4580329060554504e-01</leafValues></_>
    <_>
      <internalNodes>
        0 -1 72983 1.6154441982507706e-02</internalNodes>
      <leafValues>
        -3.1755065917968750e-01 5.0414639711380005e-01</leafValues></_>
    <_>
      <internalNodes>
        0 -1 66758 -8.1681430339813232e-02</internalNodes>
      <leafValues>
        -7.4744963645935059e-01 2.3671625554561615e-01</leafValues></_>
    <_>
      <internalNodes>
        0 -1 29337 5.1317745819687843e-03</internalNodes>
      <leafValues>
        -5.1868510246276855e-01 3.0681991577148438e-01</leafValues></_></weakClassifiers></stage7>
</opencv_storage>
