<?xml version="1.0"?>
<opencv_storage>
<stage1>
  <maxWeakCount>10</maxWeakCount>
  <stageThreshold>-8.8874858617782593e-01</stageThreshold>
  <weakClassifiers>
    <_>
      <internalNodes>
        0 -1 588723 -6.1953868716955185e-03</internalNodes>
      <leafValues>
        7.1099746227264404e-01 -1.9070903956890106e-01</leafValues></_>
    <_>
      <internalNodes>
        0 -1 629254 -2.2164045367389917e-03</internalNodes>
      <leafValues>
        8.4708493947982788e-01 -1.6445702314376831e-01</leafValues></_>
    <_>
      <internalNodes>
        0 -1 842693 -2.9616905376315117e-02</internalNodes>
      <leafValues>
        -6.9411385059356689e-01 2.7059796452522278e-01</leafValues></_>
    <_>
      <internalNodes>
        0 -1 603586 -3.4141591750085354e-03</internalNodes>
      <leafValues>
        8.4100413322448730e-01 -2.3667655885219574e-01</leafValues></_>
    <_>
      <internalNodes>
        0 -1 807271 1.1067984160035849e-03</internalNodes>
      <leafValues>
        -1.8364091217517853e-01 7.2974181175231934e-01</leafValues></_>
    <_>
      <internalNodes>
        0 -1 578473 1.2274919077754021e-02</internalNodes>
      <leafValues>
        -2.9765099287033081e-01 5.3113329410552979e-01</leafValues></_>
    <_>
      <internalNodes>
        0 -1 379938 -9.5061406493186951e-02</internalNodes>
      <leafValues>
        -8.8538050651550293e-01 2.0305715501308441e-01</leafValues></_>
    <_>
      <internalNodes>
        0 -1 772483 8.0471043474972248e-04</internalNodes>
      <leafValues>
        -2.4582009017467499e-01 7.3869282007217407e-01</leafValues></_>
    <_>
      <internalNodes>
        0 -1 737860 -1.0363543406128883e-03</internalNodes>
      <leafValues>
        6.3696467876434326e-01 -2.6594313979148865e-01</leafValues></_>
    <_>
      <internalNodes>
        0 -1 829325 -3.1503802165389061e-03</internalNodes>
      <leafValues>
        4.8214739561080933e-01 -3.2087123394012451e-01</leafValues></_></weakClassifiers></stage1>
</opencv_storage>
