<?xml version="1.0"?>
<opencv_storage>
<stage11>
  <maxWeakCount>22</maxWeakCount>
  <stageThreshold>-8.8955926895141602e-01</stageThreshold>
  <weakClassifiers>
    <_>
      <internalNodes>
        0 -1 689960 -1.3634731993079185e-02</internalNodes>
      <leafValues>
        -4.4761905074119568e-01 3.5539567470550537e-01</leafValues></_>
    <_>
      <internalNodes>
        0 -1 7013 -3.4278705716133118e-02</internalNodes>
      <leafValues>
        2.5983956456184387e-01 -2.8881794214248657e-01</leafValues></_>
    <_>
      <internalNodes>
        0 -1 776768 -1.7096935771405697e-03</internalNodes>
      <leafValues>
        5.5307340621948242e-01 -1.1841075867414474e-01</leafValues></_>
    <_>
      <internalNodes>
        0 -1 808018 1.2432434596121311e-03</internalNodes>
      <leafValues>
        -2.6374319195747375e-01 4.0786036849021912e-01</leafValues></_>
    <_>
      <internalNodes>
        0 -1 726311 1.2491026427596807e-03</internalNodes>
      <leafValues>
        1.6490417718887329e-01 -7.3390305042266846e-01</leafValues></_>
    <_>
      <internalNodes>
        0 -1 649995 -3.1350378412753344e-03</internalNodes>
      <leafValues>
        5.4296189546585083e-01 -1.5183705091476440e-01</leafValues></_>
    <_>
      <internalNodes>
        0 -1 542248 1.4740077313035727e-03</internalNodes>
      <leafValues>
        -2.2999472916126251e-01 3.5104951262474060e-01</leafValues></_>
    <_>
      <internalNodes>
        0 -1 669769 -2.0334990695118904e-03</internalNodes>
      <leafValues>
        4.1242268681526184e-01 -1.6830600798130035e-01</leafValues></_>
    <_>
      <internalNodes>
        0 -1 161665 4.8571554943919182e-03</internalNodes>
      <leafValues>
        -1.8082103133201599e-01 3.8388836383819580e-01</leafValues></_>
    <_>
      <internalNodes>
        0 -1 185774 1.4749204739928246e-02</internalNodes>
      <leafValues>
        -1.2100081890821457e-01 6.4788377285003662e-01</leafValues></_>
    <_>
      <internalNodes>
        0 -1 755363 -3.0622445046901703e-03</internalNodes>
      <leafValues>
        5.1801961660385132e-01 -1.2236033380031586e-01</leafValues></_>
    <_>
      <internalNodes>
        0 -1 770156 -2.5338600389659405e-03</internalNodes>
      <leafValues>
        6.4745807647705078e-01 -1.0757177323102951e-01</leafValues></_>
    <_>
      <internalNodes>
        0 -1 22814 3.2663630554452538e-04</internalNodes>
      <leafValues>
        1.8554459512233734e-01 -5.2174091339111328e-01</leafValues></_>
    <_>
      <internalNodes>
        0 -1 681576 -2.4635382578708231e-04</internalNodes>
      <leafValues>
        -6.2085199356079102e-01 1.1439631879329681e-01</leafValues></_>
    <_>
      <internalNodes>
        0 -1 578476 2.2582720965147018e-02</internalNodes>
      <leafValues>
        -1.6784921288490295e-01 4.3732768297195435e-01</leafValues></_>
    <_>
      <internalNodes>
        0 -1 886332 -5.0813362002372742e-02</internalNodes>
      <leafValues>
        4.4872128963470459e-01 -1.7635758221149445e-01</leafValues></_>
    <_>
      <internalNodes>
        0 -1 720339 -1.8267381936311722e-02</internalNodes>
      <leafValues>
        3.7741482257843018e-01 -2.0245057344436646e-01</leafValues></_>
    <_>
      <internalNodes>
        0 -1 845363 1.4855028130114079e-02</internalNodes>
      <leafValues>
        -1.3422627747058868e-01 6.0413515567779541e-01</leafValues></_>
    <_>
      <internalNodes>
        0 -1 449111 -6.6470496356487274e-02</internalNodes>
      <leafValues>
        6.8464094400405884e-01 -1.0497102886438370e-01</leafValues></_>
    <_>
      <internalNodes>
        0 -1 605415 1.6128387069329619e-03</internalNodes>
      <leafValues>
        -1.8966501951217651e-01 3.5450744628906250e-01</leafValues></_>
    <_>
      <internalNodes>
        0 -1 210999 7.7176585793495178e-02</internalNodes>
      <leafValues>
        -1.2802523374557495e-01 5.3956377506256104e-01</leafValues></_>
    <_>
      <internalNodes>
        0 -1 621128 -1.8645670497789979e-03</internalNodes>
      <leafValues>
        3.4703221917152405e-01 -1.9166092574596405e-01</leafValues></_></weakClassifiers></stage11>
</opencv_storage>
