<?xml version="1.0"?>
<opencv_storage>
<stage12>
  <maxWeakCount>27</maxWeakCount>
  <stageThreshold>-8.9629936218261719e-01</stageThreshold>
  <weakClassifiers>
    <_>
      <internalNodes>
        0 -1 779569 5.6777754798531532e-03</internalNodes>
      <leafValues>
        -2.1447721868753433e-02 4.8711943626403809e-01</leafValues></_>
    <_>
      <internalNodes>
        0 -1 201802 -2.4515413679182529e-04</internalNodes>
      <leafValues>
        -4.8025321960449219e-01 1.5581727027893066e-01</leafValues></_>
    <_>
      <internalNodes>
        0 -1 748514 2.4753995239734650e-03</internalNodes>
      <leafValues>
        1.2075346708297729e-01 -5.3948616981506348e-01</leafValues></_>
    <_>
      <internalNodes>
        0 -1 881811 -1.8155900761485100e-03</internalNodes>
      <leafValues>
        3.8343641161918640e-01 -1.6876903176307678e-01</leafValues></_>
    <_>
      <internalNodes>
        0 -1 735176 8.9474394917488098e-04</internalNodes>
      <leafValues>
        5.0398178398609161e-02 -7.1656292676925659e-01</leafValues></_>
    <_>
      <internalNodes>
        0 -1 806351 -1.8272508168593049e-03</internalNodes>
      <leafValues>
        5.7125324010848999e-01 -1.3339817523956299e-01</leafValues></_>
    <_>
      <internalNodes>
        0 -1 809382 5.2652851445600390e-04</internalNodes>
      <leafValues>
        -2.1492309868335724e-01 3.6943018436431885e-01</leafValues></_>
    <_>
      <internalNodes>
        0 -1 726319 1.4111377531662583e-03</internalNodes>
      <leafValues>
        1.2724795937538147e-01 -5.7054734230041504e-01</leafValues></_>
    <_>
      <internalNodes>
        0 -1 700809 -1.8989376258105040e-04</internalNodes>
      <leafValues>
        -5.5708152055740356e-01 1.1630034446716309e-01</leafValues></_>
    <_>
      <internalNodes>
        0 -1 684005 -2.0611290819942951e-03</internalNodes>
      <leafValues>
        5.7426768541336060e-01 -1.1016506701707840e-01</leafValues></_>
    <_>
      <internalNodes>
        0 -1 735169 -4.7868763795122504e-04</internalNodes>
      <leafValues>
        -4.5554953813552856e-01 1.5606515109539032e-01</leafValues></_>
    <_>
      <internalNodes>
        0 -1 663552 -3.6531109362840652e-03</internalNodes>
      <leafValues>
        1.3800112903118134e-01 -5.2341997623443604e-01</leafValues></_>
    <_>
      <internalNodes>
        0 -1 701978 -1.4082594134379178e-04</internalNodes>
      <leafValues>
        -3.7143677473068237e-01 1.7318952083587646e-01</leafValues></_>
    <_>
      <internalNodes>
        0 -1 670741 2.0364662632346153e-03</internalNodes>
      <leafValues>
        -1.7564885318279266e-01 3.9549818634986877e-01</leafValues></_>
    <_>
      <internalNodes>
        0 -1 708752 -1.8952483078464866e-03</internalNodes>
      <leafValues>
        6.3549625873565674e-01 -1.2584608793258667e-01</leafValues></_>
    <_>
      <internalNodes>
        0 -1 484304 8.7686292827129364e-03</internalNodes>
      <leafValues>
        1.0630372166633606e-01 -6.9998019933700562e-01</leafValues></_>
    <_>
      <internalNodes>
        0 -1 756431 9.7815680783241987e-04</internalNodes>
      <leafValues>
        -1.7211510241031647e-01 4.0165412425994873e-01</leafValues></_>
    <_>
      <internalNodes>
        0 -1 695190 -5.4291263222694397e-03</internalNodes>
      <leafValues>
        -7.5331437587738037e-01 9.2337340116500854e-02</leafValues></_>
    <_>
      <internalNodes>
        0 -1 706624 -1.8657349050045013e-02</internalNodes>
      <leafValues>
        2.8755241632461548e-01 -2.3405337333679199e-01</leafValues></_>
    <_>
      <internalNodes>
        0 -1 700422 4.0571443736553192e-02</internalNodes>
      <leafValues>
        -1.1211756616830826e-01 6.3228631019592285e-01</leafValues></_>
    <_>
      <internalNodes>
        0 -1 863038 4.4424999505281448e-03</internalNodes>
      <leafValues>
        -1.0161048173904419e-01 5.9969937801361084e-01</leafValues></_>
    <_>
      <internalNodes>
        0 -1 224816 7.0733921602368355e-03</internalNodes>
      <leafValues>
        -1.1019231379032135e-01 5.5571192502975464e-01</leafValues></_>
    <_>
      <internalNodes>
        0 -1 762042 -1.2495412956923246e-03</internalNodes>
      <leafValues>
        -5.7985293865203857e-01 1.2449091672897339e-01</leafValues></_>
    <_>
      <internalNodes>
        0 -1 754376 1.4509446918964386e-03</internalNodes>
      <leafValues>
        -1.7666760087013245e-01 3.8454425334930420e-01</leafValues></_>
    <_>
      <internalNodes>
        0 -1 771466 -1.1389827122911811e-03</internalNodes>
      <leafValues>
        5.4238301515579224e-01 -1.4640174806118011e-01</leafValues></_>
    <_>
      <internalNodes>
        0 -1 531286 -3.2590143382549286e-02</internalNodes>
      <leafValues>
        -6.4693385362625122e-01 1.1151786148548126e-01</leafValues></_>
    <_>
      <internalNodes>
        0 -1 647164 1.1723453644663095e-03</internalNodes>
      <leafValues>
        -3.1239300966262817e-01 2.0652163028717041e-01</leafValues></_></weakClassifiers></stage12>
</opencv_storage>
