<?xml version="1.0"?>
<opencv_storage>
<stage17>
  <maxWeakCount>26</maxWeakCount>
  <stageThreshold>-9.0203934907913208e-01</stageThreshold>
  <weakClassifiers>
    <_>
      <internalNodes>
        0 -1 617472 -1.7983395606279373e-02</internalNodes>
      <leafValues>
        -7.9069769382476807e-01 3.0911493301391602e-01</leafValues></_>
    <_>
      <internalNodes>
        0 -1 698522 -4.2632189579308033e-03</internalNodes>
      <leafValues>
        1.5420770645141602e-01 -4.5974963903427124e-01</leafValues></_>
    <_>
      <internalNodes>
        0 -1 681841 -7.5981328263878822e-03</internalNodes>
      <leafValues>
        2.8504064679145813e-01 -2.4976903200149536e-01</leafValues></_>
    <_>
      <internalNodes>
        0 -1 55410 3.0469661578536034e-03</internalNodes>
      <leafValues>
        8.0983825027942657e-02 -5.9164947271347046e-01</leafValues></_>
    <_>
      <internalNodes>
        0 -1 699563 3.0030417256057262e-03</internalNodes>
      <leafValues>
        -2.0213174819946289e-01 2.5621923804283142e-01</leafValues></_>
    <_>
      <internalNodes>
        0 -1 773561 -1.9087320833932608e-04</internalNodes>
      <leafValues>
        3.2088038325309753e-01 -1.7615623772144318e-01</leafValues></_>
    <_>
      <internalNodes>
        0 -1 784252 3.5500265657901764e-03</internalNodes>
      <leafValues>
        7.4954114854335785e-02 -6.4874947071075439e-01</leafValues></_>
    <_>
      <internalNodes>
        0 -1 593678 -2.2139749489724636e-03</internalNodes>
      <leafValues>
        2.7102988958358765e-01 -2.0723937451839447e-01</leafValues></_>
    <_>
      <internalNodes>
        0 -1 915568 -1.5076331328600645e-03</internalNodes>
      <leafValues>
        4.6838200092315674e-01 -1.4278055727481842e-01</leafValues></_>
    <_>
      <internalNodes>
        0 -1 776337 -2.0286625251173973e-02</internalNodes>
      <leafValues>
        -6.8537372350692749e-01 8.1933461129665375e-02</leafValues></_>
    <_>
      <internalNodes>
        0 -1 868783 -1.4988500624895096e-03</internalNodes>
      <leafValues>
        4.2694365978240967e-01 -1.4865434169769287e-01</leafValues></_>
    <_>
      <internalNodes>
        0 -1 881809 2.5655473582446575e-03</internalNodes>
      <leafValues>
        -1.1152229458093643e-01 4.5358905196189880e-01</leafValues></_>
    <_>
      <internalNodes>
        0 -1 36246 -1.1285204440355301e-02</internalNodes>
      <leafValues>
        3.9773213863372803e-01 -1.5425203740596771e-01</leafValues></_>
    <_>
      <internalNodes>
        0 -1 932291 -1.0421712067909539e-04</internalNodes>
      <leafValues>
        -4.2745104432106018e-01 1.5770182013511658e-01</leafValues></_>
    <_>
      <internalNodes>
        0 -1 677864 -1.7929270863533020e-02</internalNodes>
      <leafValues>
        -8.3904707431793213e-01 6.0887306928634644e-02</leafValues></_>
    <_>
      <internalNodes>
        0 -1 758320 5.4833682952448726e-04</internalNodes>
      <leafValues>
        -1.6465455293655396e-01 3.6797377467155457e-01</leafValues></_>
    <_>
      <internalNodes>
        0 -1 578445 6.0051754117012024e-02</internalNodes>
      <leafValues>
        9.7795642912387848e-02 -6.8539732694625854e-01</leafValues></_>
    <_>
      <internalNodes>
        0 -1 758306 -5.8973918203264475e-04</internalNodes>
      <leafValues>
        3.0311924219131470e-01 -2.0431512594223022e-01</leafValues></_>
    <_>
      <internalNodes>
        0 -1 663721 -6.0951993800699711e-03</internalNodes>
      <leafValues>
        -6.3148128986358643e-01 1.1792746186256409e-01</leafValues></_>
    <_>
      <internalNodes>
        0 -1 797628 -4.3793856166303158e-03</internalNodes>
      <leafValues>
        -7.7716344594955444e-01 5.8102190494537354e-02</leafValues></_>
    <_>
      <internalNodes>
        0 -1 879305 2.2582323290407658e-03</internalNodes>
      <leafValues>
        -1.5808761119842529e-01 4.1691133379936218e-01</leafValues></_>
    <_>
      <internalNodes>
        0 -1 886563 1.6310958890244365e-03</internalNodes>
      <leafValues>
        -2.0839585363864899e-01 3.3478844165802002e-01</leafValues></_>
    <_>
      <internalNodes>
        0 -1 725995 4.8981374129652977e-03</internalNodes>
      <leafValues>
        1.0836649686098099e-01 -6.1591178178787231e-01</leafValues></_>
    <_>
      <internalNodes>
        0 -1 609672 -3.0767269432544708e-02</internalNodes>
      <leafValues>
        7.4436521530151367e-01 -8.7951555848121643e-02</leafValues></_>
    <_>
      <internalNodes>
        0 -1 762859 4.7140433453023434e-03</internalNodes>
      <leafValues>
        -1.5623337030410767e-01 4.3875646591186523e-01</leafValues></_>
    <_>
      <internalNodes>
        0 -1 486396 -7.9258391633629799e-04</internalNodes>
      <leafValues>
        1.6812938451766968e-01 -3.6420470476150513e-01</leafValues></_></weakClassifiers></stage17>
</opencv_storage>
